,0,1,2,3,4,5,6,7,8,9,10,11,12,13,14,15,16,17,18,19,20,21,22,23,24,25,26,27,28,29,30,31,32,33,34,35,36,37,38,39,40,41,42,43,44,45,46,47,48,49,50,51,52,53,54,55,56,57,58,59,60,61,62,63,64,65,66,67,68,69,70,71,72,73,74,75,76,77,78,79,80,81,82,83,84,85,86,87,88,89,90,91,92,93,94,95,96,97,98,99,100,101,102,103,104,105,106,107,108,109,110,111,112,113,114,115,116,117,118,119,120,121,122,123,124,125,126,127,128,129,130,131,132,133,134,135,136,137,138,139,140,141,142,143,144,145,146,147,,,,,,
,danceability,energy,key,loudness,mode,speechiness,instrumentalness,liveness,valence,tempo,duration_ms,time_signature,acoustic,afrobeat,alt-rock,alternative,ambient,anime,black-metal,bluegrass,blues,bossanova,brazil,breakbeat,british,cantopop,chicago-house,children,chill,classical,club,comedy,country,dance,dancehall,death-metal,deep-house,detroit-techno,disco,disney,drum-and-bass,dub,dubstep,edm,electro,electronic,emo,folk,forro,french,funk,garage,german,gospel,goth,grindcore,groove,grunge,guitar,happy,hard-rock,hardcore,hardstyle,heavy-metal,hip-hop,holidays,honky-tonk,house,idm,indian,indie,indie-pop,industrial,iranian,j-dance,j-idol,j-pop,j-rock,jazz,k-pop,kids,latin,latino,malay,mandopop,metal,metal-misc,metalcore,minimal-techno,movies,mpb,new-age,new-release,opera,pagode,party,philippines-opm,piano,pop,pop-film,post-dubstep,power-pop,progressive-house,psych-rock,punk,punk-rock,r-n-b,rainy-day,reggae,reggaeton,road-trip,rock,rock-n-roll,rockabilly,romance,sad,salsa,samba,sertanejo,show-tunes,singer-songwriter,ska,sleep,songwriter,soul,soundtracks,spanish,study,summer,swedish,synth-pop,tango,techno,trance,trip-hop,turkish,work-out,world-music,popularity,sentiment,anger,disgust,fear,joy,sadness,Taylor Swift,Various Artists,Kanye West,,,,,,
0,-0.07413132,0.06765318,0.03054962,0.07610232,0.023723943,-0.05070206,-0.04951824,0.052999914,-0.037157923,0.043448377,-0.08776746,0.045012705,-0.006944187,0.077383675,-0.054184325,-0.007690586,0.016319238,0.061692514,0.07753768,0.019486785,-0.05346366,-0.054199867,0.06280651,0.057580523,0.05195599,-0.02942358,0.020844772,0.080029346,0.000738293,-0.07914635,-0.06633612,-0.08068521,-0.07095032,0.062782936,-0.070792094,-0.063085824,-0.044914376,-0.002830043,0.025432736,0.05052469,0.060826965,-0.054881066,-0.067812234,0.02472961,0.073794864,-0.04419394,0.011879794,0.047661133,0.05820746,0.015953839,0.07910759,-0.057696007,0.074387364,-0.035470665,0.008256838,-0.06923735,0.078624494,0.07646965,-0.031038612,0.013812542,-0.07702568,0.010741256,-0.06458642,-0.008993477,0.023418516,0.022294968,0.018708043,-0.04092028,-0.045544744,0.029542208,0.079778336,-5.55E-05,-0.055632833,0.06037227,-0.051248297,-0.021837905,-0.047406256,-0.058997594,0.07427151,0.052467324,-0.05494684,-0.016817011,-0.05899,0.039882533,0.01755672,0.055866756,0.07922872,0.052090235,0.07256333,-0.037005983,0.07449827,-0.00722374,-0.039312087,0.081986226,0.003688686,-0.027303766,0.06794251,-0.002167918,-0.04465698,0.009408981,-0.038613196,-0.054280512,-0.030265525,-0.010330848,-0.07756521,-0.03885039,-0.028280444,0.03189742,-0.03433277,-0.047461543,-0.005065166,0.07533506,-0.015854277,-0.005683139,-0.07972857,0.05140116,-0.06423658,0.041956402,-0.03848776,-0.03682041,0.06769892,0.06424161,0.056500904,0.019888952,-0.047159813,-0.0710031,0.06262789,0.033625923,-0.051343836,-0.07947658,-0.02826013,0.046228565,0.08123047,0.008327581,0.052554153,0.014479518,-0.018748984,0.016228206,0.08715826,-0.053904213,-0.015320115,0.03326358,-0.046726983,0.029944122,-0.005791917,0.069890074,0.0811052,0.07177207,0.08715826,138,popularity,,0-11,9
1,-0.11903683,-0.057296794,-9.97E-05,0.036361508,0.06794788,-0.04045319,0.046019707,0.024005508,0.00060507,-0.08024427,0.0441511,-0.048480924,0.034858614,-0.034414742,-0.004235983,-0.000525869,-0.059476625,-0.021283235,0.060778625,-0.044433583,-0.009947874,0.017892227,-0.081587784,-0.023280427,0.051593594,0.014944367,-0.01577241,0.049883552,0.009496458,0.076709084,-0.004821204,0.048321895,-0.01144775,-0.06399846,0.014987178,-0.078753665,-0.0582141,-0.047832903,0.035079278,0.04181414,-0.057004184,0.052527957,-0.029276252,-0.051841564,-0.07599109,0.06303384,-0.08137405,-0.033303715,0.022732496,-0.050646394,-0.014879197,0.020019531,0.061792187,-0.035450518,0.059021346,0.018908165,0.06011405,0.007027783,0.027286045,-0.051278535,-0.0813855,0.056741633,0.05002261,-0.006372429,-0.06217548,-0.006980442,0.047269143,-0.034483332,-0.016456656,0.04129976,0.027395897,0.003897168,-0.02524149,0.002614357,0.08000209,0.03157801,0.039280288,-0.03514047,0.061423875,-0.010037534,0.08180288,-0.036197472,-0.060734976,-0.035726447,0.020901613,-0.033345148,0.004561164,0.029153481,0.045919098,-0.006948263,-0.03431237,-0.064718716,0.08192184,-0.028023094,-0.052532926,0.029338121,0.062270306,0.070929475,-0.008685578,0.013613008,0.07427084,-0.020920683,0.06400537,-0.035831578,-0.0323761,-0.017043129,-0.015943281,0.065168954,0.048367523,-0.048712898,0.073534034,-0.070581496,-0.079869114,-0.037253868,-0.069363624,-0.00447657,0.0537095,0.062575735,-0.017962351,-0.07123931,-0.003245384,0.056280605,-0.040232707,0.01357422,-0.07376273,0.056377076,-0.005355604,-0.028678212,0.0415347,0.073276006,0.062117286,-0.070468776,-0.02053734,-0.013071857,0.029891893,0.045395784,-0.043088853,0.060605265,0.018200079,-0.071799345,0.023259543,-0.07375299,0.07698061,0.057207234,-0.021674763,-0.03969116,0.09330894,0.023748437,0.09330894,146,Various Artists,,12-137,9
2,-0.011951598,0.11578924,-0.037066907,0.08494127,-0.01706577,-0.09121173,0.000112839,-0.11854289,-0.04482917,0.06035079,-0.012045748,0.06855008,-0.039263465,-0.069453456,-0.045447703,0.04816123,-0.081444405,0.037399724,-0.015230544,0.003461734,-0.00660979,0.07335351,-0.04580695,0.058394678,0.038170986,0.067966305,0.057560436,0.041735284,-0.065342106,-0.008436024,0.000740998,-0.056546006,-0.05885779,-0.06314646,0.001184516,-0.041307032,-0.011530429,-0.029819027,0.002644844,-0.07693678,-0.015569985,-0.044686954,0.026232868,-0.011331469,0.000673816,-0.030484542,0.06725102,0.011145242,-0.07651881,0.06732733,-0.048623934,0.004464485,0.03215877,0.0784168,0.064496376,-0.013055347,0.056127094,-0.06719783,-0.035180587,-0.000871286,0.07920384,0.068116,-0.030695278,-0.031962056,0.07417535,0.005311824,-0.005545013,-0.08098721,0.05414661,-0.0235737,-0.030752122,0.05729323,-0.07762897,-0.01301048,0.05189886,-0.06985039,-0.07016221,-0.00956703,0.05105526,-0.032671303,0.07219296,0.014427878,0.043168224,-0.05085335,-0.06032668,-0.04066156,-0.02486711,-0.04049711,-0.0625184,0.023782894,-0.000418678,-0.0489264,-0.033462048,0.04610873,-0.05448769,-0.06964303,-0.019590244,-0.0240576,0.035671562,-0.059354685,-0.04642498,0.052000187,0.042934008,0.05847042,-0.04561502,-0.05109299,0.038367562,0.001537748,0.05460175,-0.055138595,-0.025022455,0.011305787,-0.034080066,-0.03758693,0.01755073,0.045669623,-0.00618539,0.07743207,-0.035019375,-0.025556535,0.02784542,-0.042363387,-0.010847554,0.06034819,-0.0104618,0.065392934,-0.013127752,-0.024164192,0.009619944,-0.007772736,-0.017654099,-0.08153179,0.007873379,0.02397675,0.032088444,-0.047752954,-0.010175921,-0.023697656,-0.04438573,-0.013888396,0.02810935,-0.05989101,-0.022722699,-0.02638334,0.010383584,-0.05749025,-0.1319618,-0.010688292,0.11578924,1,energy,,138-144,4
3,-0.039062966,0.08048274,0.00619929,-0.03329835,0.003547577,0.024681611,-0.011338225,-0.06318462,0.07558764,-0.07539441,0.03052289,-0.05262456,0.050052576,0.07106317,-0.03990464,-0.02940419,-0.073319726,0.08035443,-0.061334554,0.02040971,-0.06876083,-0.08153938,0.002871618,0.08199646,0.008328952,-0.03176778,0.01369375,-0.051082086,0.049139597,0.008014202,-0.063651115,0.018025182,-0.071503006,-0.021487847,-0.05893346,-0.036921564,0.058486633,-0.029669523,0.007292226,0.04609727,-0.05697953,-0.07184029,-0.04408519,-0.016284786,-0.007280313,0.06813068,0.0639768,0.001923271,0.0640179,0.06350655,0.039158955,-0.026282676,0.06484742,0.044598155,0.00794106,0.0721265,-0.06793312,-0.04279319,-0.035160635,-0.04642711,0.004657418,-0.057005987,-0.005280122,-0.031194143,-0.06255853,0.07258079,0.023660704,0.07602129,0.05033437,-0.07411528,-0.06973272,-0.004727118,0.036140256,0.069289275,-0.075782575,-0.04605467,0.05891893,-0.06820317,0.07967507,0.075523056,-0.049158182,-0.06841484,0.037020378,0.010556944,-0.06803906,-0.02573073,-0.07128706,0.07762957,-0.05917798,0.06532586,-0.000447005,0.028332397,-0.06411899,0.025776528,0.058723904,0.012777813,0.049422123,0.020054996,-0.10234038,-0.03745402,0.020033129,0.03349416,0.025448248,0.00392668,0.018077374,-0.037754267,0.000180691,-0.07798642,-0.000706375,0.059672333,-0.003137209,0.057423912,-0.08171686,-0.034444597,0.079479,-0.040147476,0.07724134,-0.07253786,-0.056113742,-0.06669503,-0.07930588,-0.025450941,0.021698028,0.017552406,-0.05748926,0.022102162,0.05167473,-0.030189153,-0.01858443,-0.06224025,-0.018255398,0.003322452,-0.057624005,0.06799895,0.060106613,0.009974651,0.04405675,0.043677084,0.014055414,0.030906111,0.07240795,0.059827097,-0.0805254,0.071958385,-0.005196206,-0.09540982,-0.05849454,0.025454726,0.08199646,23,breakbeat,,145-147,9
4,0.08595865,-0.006093972,-0.012160961,0.04614256,0.01683844,0.03656519,0.070953354,-0.011154144,-0.022639448,-0.014568801,0.052516773,0.004384892,0.069950186,0.006079212,0.025576279,-0.04256995,0.025730528,-0.027079605,-0.010978147,-0.036416978,-0.049034674,0.04379139,-0.06274704,0.014886498,-0.07757021,0.07123942,0.045954175,0.031245776,-0.07453648,-0.036160342,-0.057724968,-0.05714089,0.00065393,0.037615977,0.01798147,-0.002253391,0.042026676,-0.053144075,-0.002110392,-0.043805882,0.031710222,0.07784506,0.03707081,-0.02452948,0.06020271,0.023174621,-0.050147757,-0.03824014,0.061283253,-0.062056273,0.02272746,0.062108852,-0.025111977,-0.027377866,-0.005613305,-0.010941528,0.012361184,0.070144065,-0.025505189,0.06539028,-0.04129255,-0.008536585,0.05575178,-0.019948266,-0.021714222,-0.018232048,0.045174606,0.062524326,-0.0800953,-0.06063597,0.081399985,-0.03269729,0.030327111,-0.04213472,0.07896639,0.06753958,-0.000541419,0.025739275,0.026404165,-0.053536624,0.001486234,0.06607699,0.012918271,-0.06729658,0.026619963,-0.040293254,0.011369363,-0.023262877,-0.035821978,0.02853249,-0.06788232,0.019669682,0.030023783,0.059133373,-0.06720589,0.030146398,0.06916878,-0.001989909,0.07983847,0.07166811,0.03808707,-0.04623592,-0.02940597,-0.027263336,0.046430178,0.043777637,-0.06915316,0.080439724,0.03817632,-0.06853719,0.001462966,-0.08050292,0.060655795,-0.003841706,-0.038218904,-0.05743325,-0.052518934,-0.0750334,0.020825386,-0.03164494,-0.07629566,0.064804055,0.062366895,-0.042094957,-0.020623717,-0.054122396,-0.07867836,-0.01866676,0.017780349,-0.03744072,-0.005975679,0.064479105,0.06138865,-0.058868032,0.065937184,0.014087126,-0.028275426,-0.019107506,0.030903561,0.000870466,0.044989012,0.08050168,-0.052131522,-0.009832501,-0.039851714,0.0994845,-0.005015356,-0.005333455,0.0994845,145,Taylor Swift,,,
5,0.039280742,0.08317782,-0.048439603,-0.000810603,-0.005875408,0.07624148,-0.103664175,0.052021183,0.07578168,-0.009141656,0.0314364,-0.046755336,0.05494023,0.06644217,0.0813693,0.000960864,0.04307101,0.0385305,0.030856237,0.007260151,-0.07009957,-0.04486972,0.07186561,-0.049111772,-0.009604856,0.026771434,0.015419528,-0.010242574,0.07046608,0.07627674,-0.07882058,0.07524029,-0.028905343,-0.04112241,-0.028749336,0.04572632,0.007385299,-0.05147718,0.07685498,-0.018426336,-0.021530453,-0.032967497,0.075602196,0.061089374,-0.07392347,0.06618165,-0.022785343,-0.07270317,0.032068066,-0.048044894,0.079922505,-0.07597145,-0.05111448,0.07348583,0.018535547,0.04772132,-0.024460476,0.061073653,-0.04371923,-0.052536856,-0.047933694,0.077948175,0.004352406,-0.002906099,-0.06772762,-0.046146438,-0.06911031,0.044999965,0.07640124,0.067476876,-0.024909325,0.013619788,0.000238329,0.00849878,-0.016707622,-0.016368635,-0.06581533,0.050020747,0.01664617,-0.053966902,-0.042004462,0.012598455,0.04567025,-0.002370611,-0.005981639,0.05594746,-0.023995966,0.074113555,0.003752194,0.02162999,-0.078818746,-0.029981308,0.07293544,0.06121435,0.06546017,0.028017089,-0.026934441,-0.07771948,-0.02195279,-0.07665521,-0.07137838,-0.04786097,-0.000205532,-0.008132935,-0.063319385,-0.02990517,-0.06474533,-0.06647474,-0.03811297,-0.028836094,-0.01514446,0.021138534,-0.029239204,-0.045190834,-0.022960678,-0.07255459,-0.07867689,-0.000634916,0.050048344,0.04953625,0.06297935,-0.024734296,0.03925076,0.07417009,0.03146804,0.0002997,0.05219216,0.044673614,-0.030962024,0.016370118,0.012036994,-0.010159545,0.049271725,-0.07401669,-0.040735286,0.06309164,-0.07748987,0.01715158,0.05445767,0.073246114,-0.019262716,-0.03909798,-0.048705626,-0.0434629,0.02558203,0.0462775,0.062056225,0.10576993,0.10576993,147,Kanye West,,,
6,-0.013033213,0.060106695,0.026877023,-0.06540945,-0.07055165,-0.042422086,0.047477584,0.054884642,0.01187564,-0.012143607,0.011537815,0.04386111,-0.003627002,0.023470297,0.003768437,0.041114494,0.037664853,0.06104956,0.062164508,0.03176801,-0.03128884,0.07840704,-0.011639692,-0.04756694,-0.052747484,-0.035437025,-0.024145205,-0.036123842,0.03081882,0.019300878,0.030472666,0.07868742,-0.061921723,0.06780044,-0.04045663,-0.071566485,-0.012365855,0.06710673,0.048839025,-0.030189652,-0.038725894,0.012612991,0.037759013,-0.040893428,-0.015100583,0.07550169,0.015740633,0.07411673,-0.009166934,0.032510012,-0.06768325,-0.013717599,-0.04070565,-0.07766301,0.033809163,0.035417296,0.05524642,-0.027790546,-0.026296932,-0.081347905,-0.024211913,0.027598284,0.061869107,-0.052208535,0.04789006,-0.03622291,-0.043515585,-0.013749458,0.004124641,-0.07957895,-0.03363047,-0.05828286,0.07432989,0.004433587,0.07336996,-0.07095212,-0.03531578,-0.03982357,-0.019123547,-0.030646645,-0.03649487,0.0773759,-0.07227299,-0.07037267,-0.016763337,0.046787687,0.013839759,0.06007675,0.006363481,-0.062456876,0.057999916,-0.022549454,0.0330941,0.007400237,0.029906236,0.041229926,0.025936157,0.013304964,-0.112629965,-0.015162356,0.042523853,0.003020071,-0.019909266,0.036167927,0.052965336,0.001546353,-0.031479165,0.015165634,-0.050845116,0.048425727,0.0668877,-0.018903024,0.019659482,-0.045252714,0.02048847,0.009707846,0.080437936,-0.041048203,-0.034609288,-0.025874157,-0.05150048,-0.06587345,-0.027606122,-0.003035843,0.026046462,0.024848357,-0.022873614,-0.045026887,-0.04737829,-0.048211593,-0.023177449,0.049084954,-0.002001829,0.009360313,-0.007843621,-0.060925595,0.01664909,-0.05358734,-0.0903407,0.045504816,0.0611201,-0.01828038,-0.080264494,0.038838796,-0.051939808,0.007413214,-0.10312781,0.03228769,0.080437936,116,salsa,,,
7,0.07983117,0.07010641,-0.049949143,-0.006835769,-0.027094746,0.019296646,-0.12313747,-0.01719835,0.06581105,0.07427915,-0.05946037,-0.017701415,0.06886213,0.007652007,-0.030894097,0.06277717,-0.030323151,0.016391836,-0.031863682,-0.06259296,0.035174035,0.01719606,-0.04494295,0.006375358,0.08038541,0.050919496,0.019662738,0.017578386,0.07950259,-0.068319075,0.005567178,0.066494875,0.045921274,0.06745287,-0.040193737,-0.00897795,-0.019537091,-0.04172484,-0.028491084,-0.026590236,0.074335776,0.001113266,-0.006008908,0.066781364,0.051645912,0.016007796,0.022364087,0.04333628,-0.001059406,0.06792664,0.06785519,0.06205762,0.010878049,0.03104838,0.04603798,0.02090349,0.04797349,-0.07134176,0.068159945,0.005267724,-0.04957891,-0.03227622,0.011488169,-0.004218593,-0.060600847,0.0745981,0.035726532,-0.0399845,0.07244996,-0.036897823,0.0481556,-0.06508019,-0.06343034,-0.050736487,0.002632782,0.04226105,0.05412317,0.08177591,-0.07541924,-0.009256609,-0.081835836,-0.030929785,0.009750754,0.06796769,-0.04937508,0.07243992,0.03248728,0.035156824,0.029984325,0.044347487,-0.013428472,-0.016382761,-0.03773614,-0.00205002,0.03116148,-0.024370492,0.04832483,-0.016219266,0.10633308,0.034945764,0.003629863,0.041642413,-0.009065211,-0.033065464,0.07362852,0.071179636,0.011533357,-0.04306656,0.07883491,0.048794396,-0.07648357,-0.029432017,0.044523112,0.07187349,-0.048493076,-0.07771182,-0.006378703,-0.072262146,0.050359063,-0.08089881,-0.046048112,0.013478741,0.072468214,-0.057935182,-0.06511025,-0.043602142,0.05968734,0.079743184,0.024139665,0.06937241,-0.006079242,0.07984059,-0.004240878,0.06900983,0.06473925,0.04208684,-0.01838059,-0.061104346,0.06340708,-0.07063859,0.059918217,0.04570479,0.06530709,0.029639281,0.06743131,-0.030953795,-0.055079654,0.003186084,0.10633308,98,pop,,,
8,-0.040441446,0.054945134,0.033459734,0.024525214,-0.025003163,0.04899675,0.05238198,0.085796475,0.045075115,0.015034617,-0.077667385,0.004930913,0.027132176,-0.039357074,-0.042510744,0.054939277,0.04210577,-0.07653694,-0.05163464,-0.034559462,0.03882823,-0.016938567,0.030903071,-0.026772074,0.017740339,-0.058381096,-0.05142933,-0.04013444,0.071289815,0.006884411,0.001037151,-0.021685295,0.012288734,-0.079386234,0.0764868,0.02005893,0.03600297,-0.061894093,-0.024210189,-0.009277552,-0.039270833,0.06290246,0.078528814,0.03766402,0.08187718,0.022051543,0.001830265,0.039953582,-0.0251913,0.003788136,-0.015769273,-0.002129346,-0.003394991,0.082016,-0.035841387,0.06889217,0.011857554,0.02384407,0.057455234,0.043608345,0.072885506,-0.06963679,0.04168784,0.06635185,0.055732243,-0.052107356,0.08164231,0.009827495,-0.048336744,-0.06600727,0.065691434,0.045251153,-0.07911641,0.03512992,-0.04722155,-0.065573074,0.07641729,0.06476148,0.040058866,-0.002141953,0.050187625,-0.040709462,0.007130958,0.070182525,0.039473936,0.018113427,0.08086481,-0.013435677,0.04036992,0.028372064,-0.05317059,0.009620503,0.07592691,-0.023370255,0.03716024,0.006020501,0.07199285,-0.02201553,0.0957589,-0.0625466,0.011915945,0.014072955,-0.06311308,0.0791009,-0.03510099,-0.052121,0.06150917,-0.012227207,0.003072329,0.033503205,0.07318782,-0.063290216,0.03659974,-0.06125185,-0.038661886,-0.017024644,-0.063913636,-0.082040325,0.026369266,0.06341449,-0.07469456,0.042593963,0.04037182,-0.0747818,-0.0663225,-0.05959862,-0.050793763,0.06574232,0.051516272,0.07038457,0.035676345,0.05092203,-0.009188466,0.040933967,0.08066518,0.049033277,0.021368116,0.002958372,0.040917512,0.051108323,-0.043319903,-0.05956275,0.018269278,-0.020536724,0.059143357,0.094428465,-0.03776296,0.06450688,0.0957589,98,pop,,,
9,0.023337014,0.05959871,-0.003742503,0.055823278,0.070016555,0.08246763,-0.087510414,0.019954192,0.07806939,0.039025925,-0.10322493,0.06738769,-0.054399587,0.072499625,0.042360403,0.068735905,-0.058547057,-0.045098685,0.07918098,-0.06646929,0.051761784,0.004630864,0.007370837,-0.010310836,0.006139509,-0.08086916,-0.070615105,-0.022546094,-0.04099589,-0.032553785,0.04420189,-0.039957423,0.05991531,-0.07153487,-0.06265944,0.07619793,0.019216612,0.027291976,0.007520549,-0.019797303,-0.029889755,0.031147264,0.013544813,-0.03727357,0.029221542,0.051763363,-0.05010468,0.05137386,0.035345435,0.06931905,0.021788776,-0.001600511,0.026077606,-0.004192948,-0.000294328,0.05505546,-0.035494603,0.017535895,-0.046366803,-0.041943952,-0.07150079,-0.015469447,0.038291574,0.04503963,-0.003450364,-0.07248843,-0.035179164,0.035386637,0.074235104,0.033693887,0.059640594,-0.008065805,0.061413936,0.07635892,-0.040259436,0.06045822,-0.05283388,0.0656878,-0.04409496,0.045820944,0.011849664,-0.050183926,-0.075658225,0.032373846,-0.021189999,-0.06629253,-0.045390505,0.001729854,0.0398278,0.07832616,0.057133995,0.055841066,0.026433855,0.026341714,-0.004761964,0.07189173,-0.029762182,0.04865899,0.008409412,-0.049640317,0.032989442,-0.07016385,0.02144041,0.007430486,-0.04818548,0.003791779,0.01896467,-0.026319675,0.039000653,0.023683436,0.05884654,0.07124024,-0.06910127,0.003838442,0.005338118,-0.020426366,-0.035830364,0.040839806,-0.015414245,0.049329735,-0.069151565,-0.062457435,0.029190004,-0.012515955,-0.046376124,0.033131108,0.046523847,-0.075212166,-0.041790217,0.03758098,0.03987564,0.00998047,0.04329919,0.006069221,0.031118423,0.054883964,-0.000779822,0.039045878,0.046843242,-0.06912863,0.020997852,0.038020857,0.05306945,0.029439844,0.059403382,-0.021518815,-0.04830043,-0.045208544,0.08246763,5,speechiness,,,
10,0.037281286,0.021386687,0.05399091,0.0361322,0.034043122,-0.08072202,0.09125802,0.029574176,-0.012112006,0.05294969,-0.07131204,-0.027341345,-0.03557211,-0.010243684,-0.015110754,0.021581523,-0.062225305,-0.057791784,0.030871913,0.04201056,0.06608739,0.040200524,0.030007668,-0.03855541,0.06982709,0.0578273,0.08149218,-0.047854077,-0.027401667,-0.050292224,0.011244662,-0.04803093,0.057513557,-0.043596182,-0.03465647,0.009883076,-0.013965748,0.05837623,0.03571198,-0.06676106,-0.07450387,-0.027565446,0.010038175,0.017035812,0.014463089,0.016125947,-0.07899276,-0.037680592,-0.03549131,-0.063515574,0.06794553,0.074054144,-0.000723958,0.05062353,-0.015197083,0.006005205,-0.06594381,-0.08052487,-0.001469627,0.07894533,0.025691375,-0.02915838,-0.06763882,0.072903715,0.066855066,0.002715215,-0.061645485,-0.04974992,0.030549362,0.06837987,-0.06093356,-0.05978677,0.03478062,-0.07559878,0.005798966,0.044583507,0.021192975,-0.030649733,0.023026526,0.07498602,-0.0462174,-0.040812086,-0.022075519,-0.055263452,0.07095093,-0.048483837,-0.020521484,0.054501764,0.056588344,-0.038734272,0.07171344,0.008315079,-0.060745724,-0.011927299,-0.05795656,-0.068866566,-0.03058052,-0.03597816,-0.09921518,-0.01970299,0.05246874,-0.02833331,-0.040494505,-0.022100534,-0.018508412,0.024327748,-0.05761601,0.005869418,-0.017586365,-0.08026735,0.027255423,-0.035037268,-0.075778745,0.06832022,0.045945503,-0.002883509,-0.063982554,-0.009943642,-0.07347986,-0.03554201,-0.08163259,0.030921318,0.06612223,0.06735463,0.06739073,0.06354181,0.013588622,0.035461426,-0.043556742,-0.082160205,0.04827734,-0.000558645,-0.06302727,-0.06887275,-0.0778442,-0.07242468,-0.014430322,0.039665952,-0.02183239,-0.041024256,0.005547606,-0.03964878,-0.000863999,0.039638303,0.022088602,-0.000411044,0.10430274,0.033563893,0.10430274,146,Various Artists,,,
11,0.040908396,0.0704567,0.009361108,0.07835797,0.00665287,0.03390329,-0.011543067,-0.038488418,0.03247943,0.000867861,-0.07264392,0.05371065,0.050177254,-0.05834949,-0.07807349,-0.011143446,0.010941088,-0.06920633,0.005105279,0.06772312,0.07602825,-0.01631336,0.0320938,-0.043705206,-0.011367217,0.017858371,-0.06595723,0.022059985,0.045284264,0.0586996,0.058837034,0.058007635,0.059043996,-0.05727823,0.03298959,0.006405905,-0.04088711,0.022080295,-0.058927502,0.045341052,-0.08116476,0.03871195,0.0650774,0.04885017,-0.054338194,-0.006183349,0.028462753,-0.05724822,-0.047216717,-0.06064227,0.06258393,0.031363122,-0.05327698,0.017256714,0.06282019,0.06375115,0.07209026,0.001478858,0.05129283,-0.0690736,0.064850666,-0.081404306,-0.06153945,0.03444691,0.026827604,-0.07733264,0.06897222,0.047908716,-0.00256779,-0.039940353,0.074588396,0.03510213,0.038245894,0.0575481,0.07588067,-0.070726514,-0.08072774,0.029730834,0.030687116,-0.04374387,0.074764796,0.024423689,0.06561249,0.018296927,-0.00787697,-0.026628707,-0.006573357,0.0789535,-0.04836426,-0.01665105,-0.04908318,0.029355682,-0.050868977,0.036528774,0.07621876,0.023995131,0.06596648,-0.07077821,-0.005687802,0.04753498,-0.036343407,0.06111736,-0.06579862,-0.033828087,0.074910544,-0.08130606,-0.024112865,0.034640647,0.008711576,-0.011187136,-0.022766542,0.05289332,0.023664035,-0.08081977,-0.005113773,-0.07558346,0.052601956,-0.053689457,0.035994686,0.05587869,-0.03274211,0.062699296,0.040188164,-0.026263304,-0.020738944,-0.075381674,0.07797291,-0.009103499,-0.02167188,0.0184163,-0.016977645,0.06284078,0.013928495,-0.04561617,0.041802965,-0.011340015,-0.012655921,0.007789575,0.092754476,0.054881327,0.051254697,-0.02261024,0.042095467,-0.041543394,-0.04688561,0.037776574,-0.026181936,-0.051074732,0.092754476,138,popularity,,,
12,-0.053776503,-0.07338838,-0.08106998,0.001004212,-0.009643312,0.011706613,0.066902444,0.055836674,0.039618433,0.0942938,0.05347401,0.08268426,-0.008533135,0.020361476,-0.019537464,0.056349285,-0.06141231,0.06494927,0.08171903,0.001316525,0.025005758,0.07810701,0.06969089,-0.005702928,0.013653003,-0.050642397,-0.021029748,-0.008291416,-0.075579666,-0.008732535,-0.048065383,-0.058887444,0.062187634,-0.034497052,0.003285259,-0.024901837,-0.07983467,0.023340687,-0.022434093,-0.010558657,0.026158236,0.0582268,0.080599986,0.015807144,0.029953428,-0.06078188,-0.057187896,-0.049601562,0.05477775,0.01575192,0.030758694,-0.041650504,0.033203475,-0.028535895,0.0490643,-0.065756984,0.009658881,0.008915313,0.044549726,0.026762396,-0.029643703,-0.029294595,-0.0417356,-0.022232253,-0.000405483,0.02831781,-0.037030794,-0.00557182,0.004376583,-0.030574504,-0.007796921,-0.042799342,0.08194689,-0.004620858,-0.016382419,-0.004653186,0.065411635,0.049933217,-0.044293094,0.003223904,0.044423543,0.037226006,-0.05102681,-0.013433099,-0.07602957,0.03416404,0.021498479,0.049467422,-0.06092464,-0.0397487,-0.011281759,0.06303085,0.073545925,0.059190594,-0.023284484,0.06598698,0.04633469,-0.034177784,-0.09014429,0.003244087,-0.034731627,0.010831729,-0.077972956,0.017952621,0.05665099,0.07745721,-0.031341046,0.013930589,0.016577981,0.0553604,0.049228273,0.03783811,-0.07352919,0.056350417,0.05126811,-0.047707222,0.030695476,-0.078252606,0.032433636,-0.053754326,0.018680096,-0.053578652,0.03707899,-0.03260078,0.06663134,0.04682716,-0.03108209,0.040757418,-0.058909,-0.041535065,0.047707774,0.06934381,0.009432815,-0.016980186,0.02385334,-0.060691774,-0.02037856,0.014783889,-0.03512987,-0.053619944,-0.05815655,0.003489032,-0.07021885,-0.01150053,0.026921771,0.011722822,-0.063795626,-0.007381656,0.0942938,9,tempo,,,
13,-0.019864263,0.058528084,0.04447281,0.03136742,-0.02501528,-0.041439086,-0.026798047,-0.05247405,-0.021020385,0.038743705,-0.041844174,-0.022316836,0.067412354,0.025747664,-0.024763841,-0.023650661,-0.04478065,0.07929755,0.056914188,0.005763248,0.041307427,0.028466396,-0.010526575,0.0610108,0.02489882,-0.021302745,0.078199066,0.07333218,-0.07713888,-0.013741657,0.043518387,0.056407534,-0.023586731,0.04608888,0.009856023,0.06748135,-0.038176887,0.0629629,-0.05501478,0.064427234,-0.040410947,0.059347548,-0.05000192,-0.04466657,0.004856296,0.03725688,-0.062619686,-0.06510061,-0.03402471,0.057183765,0.03879436,0.017869487,-0.0751239,-0.02582094,0.005462989,0.0809904,-0.008973904,-0.009440243,-0.03292098,-0.07110034,-0.04505898,-0.07130214,0.056842722,0.07811322,0.01402007,-0.011116736,0.061827905,0.0332082,-0.04987317,-0.080187835,-0.021674909,0.07051132,0.06815768,-0.075740196,-0.062234282,0.025755428,0.052426808,0.028278135,-0.027479801,0.02204007,-0.06765441,0.05738575,0.07390832,-0.002906054,0.0735523,-0.003152818,0.044224463,0.06660191,0.003902115,0.013059542,-0.033428762,0.012148723,0.052876584,-0.03206798,-0.045550954,-0.02276799,-0.060701765,0.041895583,0.0399785,-0.020147812,0.06895497,0.014882334,0.035474546,0.009453014,0.031030022,0.027025536,-0.042563003,-0.06293577,0.01091136,-0.035278477,0.008365326,0.020207122,0.029147781,0.081658445,-0.005787268,0.009709805,-0.046296272,-0.07148886,-0.024682518,0.004060283,0.05465556,-0.001406573,0.017310373,-0.00983467,0.023931928,0.04889307,0.0455183,0.016202316,-0.013313942,0.010175996,0.07883521,-0.036641963,-0.07828529,0.03662043,0.044035666,-0.08201948,0.007548779,0.013351053,0.04929184,0.07767559,-0.030641686,-0.041688956,-0.037897315,0.030537248,-0.000751816,0.10888,-0.040452346,0.007334545,0.10888,145,Taylor Swift,,,
14,-0.033272598,0.04739241,0.039659485,0.04133055,0.03929882,0.03047541,0.004118527,0.059450258,-0.023565182,-0.006139829,0.056681354,-0.041672166,0.015492559,0.052683897,0.05936014,-0.003863163,-0.035436448,0.05053877,-0.044191763,0.006057367,-0.061452024,-0.07637349,-0.007037506,0.013836727,0.03262782,0.057641216,-0.06470261,0.03068982,-0.0547276,-0.066954404,-0.019860469,0.010203019,0.052628778,-0.050711352,-0.001712374,0.013188429,-0.06560726,0.001975916,-0.039960463,0.04113128,0.027817696,-0.028941542,0.021976925,0.07173329,0.06838774,0.001288943,0.035574183,-0.063723646,0.06628897,0.024064958,0.031109177,-0.0730877,-0.048062906,0.012323432,0.012548558,0.046570398,0.007811688,-0.04980752,0.022942245,-0.006436043,0.07118238,-0.027249783,-0.035638265,0.05850043,-0.004361659,0.050999813,-0.033884108,0.05812914,0.000838488,0.060322396,-0.014295317,-0.000563167,0.022501156,0.056786455,0.04755921,-0.024092946,-0.04602986,0.07710428,0.067921124,0.001640119,-0.05341354,-0.07412333,0.025393419,0.032215737,0.032892913,-0.018137664,0.027882747,-0.05187425,0.04703877,-0.031346455,0.026156358,-0.026807439,0.06626298,0.039985694,0.026939243,0.032030463,0.001346052,-0.052584663,-0.044518497,-0.069514625,0.044269733,0.009530492,-0.06524576,0.010882393,0.063281186,0.02267734,0.019153267,-0.06530736,-0.061368477,0.072203524,0.038347185,-0.014970414,0.06492483,-0.004538566,-0.055087678,0.076835416,-0.004464686,-0.051348235,-0.048993696,-0.013971373,-0.013811983,0.0660853,0.032279916,0.001452491,0.050403975,-0.034094647,-0.073065564,-0.055259943,-0.046881024,0.06616793,-0.03898089,-0.04532863,0.022892162,0.0703629,-0.055259924,0.00200709,-0.007654123,-0.012120307,-0.08756162,0.06226299,0.05833421,0.027994275,-0.002756372,-0.000473753,-0.051066183,-0.050793268,0.016122265,0.09473498,0.09473498,147,Kanye West,,,
15,-0.104803875,-0.033742875,0.003686003,-0.04367318,0.06473692,-0.058433436,0.11904054,-0.062958434,-0.09951932,-0.032239605,0.0317566,-0.011835694,-0.009558447,-0.05387213,-0.075274415,0.017593123,0.01434809,0.054139607,0.025948353,-0.067759566,0.06623485,-0.06826575,0.019985698,-0.04843745,-0.058582295,-0.058144704,0.068785556,-0.06467033,0.022444189,0.042643756,0.028096892,0.025376707,-0.034214333,0.028967999,0.03804993,0.046580262,0.07125174,0.07838241,-0.052847378,0.03991469,0.01166065,-0.0245664,0.0627409,0.014275678,0.047348045,-0.04642251,0.029023536,-0.07382557,-0.04137642,-0.00018166,-0.05798701,-0.000248842,0.08151225,0.019499145,0.016231604,-0.07692008,-0.05425865,-0.08037523,-0.06844103,0.043138452,-0.029047407,0.021928519,-0.003153183,0.005369313,-0.04666438,-0.08202834,-0.015233807,0.03912451,0.01594358,0.006783418,-0.04270052,-0.030845575,0.001589999,0.03553681,0.01675246,0.000878356,0.010639221,-0.006008498,0.050597854,0.049213998,0.011518039,-0.022097714,0.030372933,0.022990055,-0.050865784,-0.049730588,-0.06129582,-0.014585309,0.08135591,0.01055903,0.022077218,-0.03242623,-0.05294369,0.002409719,-0.03236887,-0.045617677,0.020868309,-0.07711002,-0.00808171,0.055727117,-0.02132893,-0.020516675,-0.020936538,-0.018574946,-0.009056859,0.06969627,0.058634095,0.061527334,0.06938087,0.049124636,0.03259314,0.070156775,-0.06710415,-0.024095789,-0.033708736,-0.05238059,-0.04623849,0.055222176,-0.000823334,-0.00774055,0.019404612,0.024091214,0.07142403,-0.019933518,0.040865906,-0.06397231,-0.06273621,0.020586118,0.06352269,-0.062620655,0.07186232,0.022725955,-0.016871564,0.014137723,-0.008787788,-0.06065724,0.022168934,-0.07144411,-0.059041888,0.08077272,0.03366278,0.03589472,0.019585364,0.046508543,-0.04906865,0.056758463,-0.02306388,0.07048862,0.11904054,6,instrumentalness,,,
16,0.04116461,-0.062332444,0.068138555,0.04557817,-0.006103599,0.051802807,0.009355117,-0.004293733,0.046370123,-0.05784459,-0.017988108,-0.06707041,0.03053096,-0.072711624,0.061231248,-0.024371099,0.06856773,0.05091671,-0.043604452,-0.05470263,0.064402185,0.002642885,0.048809625,0.027864158,-0.029061235,0.009258129,-0.033338465,0.071022116,0.054775693,0.043243565,-0.040114943,-0.05684954,-0.001063615,0.05096119,0.05004359,-0.016338482,-0.036602344,-0.031685665,0.03760653,-0.006008811,0.021442108,0.037985936,-0.06385647,-0.07364486,-0.054720413,0.07296821,0.007411256,0.009868935,-0.048900098,0.001876518,0.07871891,-0.035117775,0.002230562,0.053801574,-0.007620715,-0.006643146,-0.063730955,0.06279551,-0.015347078,0.06497828,0.055437572,-0.019730661,-0.05407053,-0.060672916,-0.049499515,0.008069478,0.017326482,-0.07871502,0.039483868,-0.0284614,0.050065152,-0.018766016,0.073615424,0.07203836,-0.02101066,-0.003280178,0.000185251,-0.05751527,0.010210894,-0.028197113,0.05845294,0.004183531,0.07688572,0.057581358,0.012369745,-0.05145958,0.047921933,-0.000238307,0.03718763,0.0413505,-0.028168906,-0.04223356,0.030680336,0.034130327,0.034529835,0.067751996,-0.015865497,-0.069384,-0.07425012,-0.024062812,0.022294387,0.07913952,0.05188247,-0.022463843,0.06542743,-0.00544475,0.022681698,0.068362914,-0.003295206,0.04801605,0.072985835,-0.060628902,0.042194426,0.01627127,0.037889346,-0.061248314,0.05306185,0.011340551,0.000547729,0.010884851,-0.036942896,0.03360744,-0.012845248,-0.060577586,0.012942813,-0.027185678,0.058471315,0.035349347,0.042349897,0.058637284,0.019748867,-0.01474876,0.027233288,-0.017092481,-0.028612178,0.027922519,-0.006221555,-0.017678447,0.04482736,0.04517249,-0.07417186,0.00351993,-0.04521975,0.08000592,0.021965027,-0.06053196,-0.003396414,-0.01895745,0.08000592,143,joy,,,
17,0.017294636,0.053550277,0.005831723,-0.002762815,-0.043291643,0.052335814,0.041679513,-0.04340925,0.10574729,-0.04127334,0.030045062,0.019227613,-0.03366376,0.05652442,0.05183015,0.022506878,0.013718836,-0.011064284,0.001989059,0.03636127,-0.04544601,0.017032482,0.063251965,0.060927205,-0.07810712,-0.077418625,0.026298553,-0.06331076,0.050558023,0.010527037,0.053888492,-0.03851403,-0.022463009,0.073205106,-0.018281445,0.010405362,-0.05153567,-0.02818419,-0.06610617,-0.07815444,-0.02350831,0.06993168,0.07912678,-0.061434492,0.0457929,0.01614324,0.020257838,0.058277063,-0.045658723,-0.028849792,-0.08051634,-0.04265715,-0.065367505,0.017213687,-0.05489447,0.021293722,-0.012840986,-0.027884882,-0.06577118,-0.039969653,0.019575998,-0.037508804,0.041058682,-0.030308876,0.030092366,0.07199117,0.06764301,0.05450263,-0.04312301,-0.008678868,-0.053143833,0.022002883,0.071785875,0.027907304,-0.031496685,0.001427494,0.076447956,0.057491206,0.014582761,0.07463346,-0.051481158,-0.07784983,0.002291858,0.04260195,-0.002759352,-0.07646773,-0.06490283,0.070890225,-0.010202222,0.04190571,0.07018385,0.047385998,0.05102735,-0.077399194,0.07130251,-0.023323424,0.036358625,0.03982999,-0.07950413,0.046174563,0.01963833,-0.078844935,-0.07467515,-0.07407424,-0.060158417,0.05253149,0.042246886,0.0787017,0.000588447,-0.002953373,-0.006830342,-0.0283329,0.06595389,-0.015400343,-0.06554841,0.07773391,0.00126262,0.000852518,-0.005446918,0.029470056,0.033052705,-0.06190055,-0.04624515,0.044472672,0.002516761,0.01179859,-0.014833584,-0.000387549,-0.013039917,0.06707802,0.028069124,0.024206355,0.03034819,0.06490638,-0.026356313,-0.04920011,-0.03315052,-0.069130346,-0.045214817,0.015657544,-0.016244441,0.014874734,0.051140644,0.027014144,0.076983474,-0.0788426,0.052279294,0.047615644,0.10574729,8,valence,,,
18,0.038542513,-0.0712116,0.007177315,0.047372743,-0.018092453,-0.004720895,-0.0715456,0.06387762,-0.05241738,-0.07472477,0.1047902,0.012147697,-0.03960437,-0.025213525,0.051634304,-0.007791661,0.056991003,-0.05223033,-0.06531316,-0.03676343,-0.003107958,0.000516444,0.06808969,-0.059798628,0.026537575,0.049302958,0.038086146,0.008999839,-0.065807134,-0.02276127,-0.05169431,0.05339364,-0.07751975,0.03247104,0.011386924,-0.045815162,0.01897908,0.009895489,0.043401368,-0.001278095,0.00077311,0.05100324,-0.033477597,-0.039982088,0.057008423,-0.03716739,-0.028478727,-0.03077593,0.023074344,-0.049626473,0.012236372,-0.008472987,0.009467095,0.005328745,0.004658803,-0.023072805,-0.07410859,-0.08184126,0.009447217,-0.06006617,-0.004693098,-0.013070993,0.07474723,0.026385993,-0.07205835,-0.06329257,-0.07634547,-0.072692476,-0.026573468,-0.07449733,-0.009114176,-0.009134829,0.05761438,0.06621044,-0.039205913,0.0285291,0.05115605,-0.001699418,-0.055826947,0.04678289,-0.05849484,0.051384978,-0.027843334,0.07727262,-0.07330706,0.019335628,-0.011067092,0.06516268,-0.043958705,0.05651302,0.06665125,0.043687426,0.03914219,-0.014910072,0.061502375,-0.015254416,0.04718464,-0.02493285,-0.10104816,0.07943454,-0.03385905,-0.08154831,-0.0644571,0.05091188,-0.039805982,0.03723561,0.024241887,-0.054021247,0.005756162,-0.061015017,0.01335384,0.044376574,-0.037142824,0.032509074,0.023175597,0.016474038,-0.052857623,0.011594355,0.016735993,0.05750736,-0.065631084,0.060999446,-0.045552857,0.064754196,0.037227705,-0.020534586,-0.02154819,0.018589906,0.07660528,0.063833736,0.06584305,0.009749211,0.03019794,0.024191082,0.051632725,-0.05565726,0.01631628,0.044990145,-0.0816462,-0.003637821,-0.022016764,0.017244667,-0.02355365,0.08089369,-0.00387641,0.050073873,-0.055390485,0.054398637,0.1047902,10,duration_ms,,,
19,-0.089446254,0.011374914,0.03744879,0.014150814,-0.071705796,-0.046487767,-0.061276644,0.025029616,0.01384829,0.013941457,-0.020716915,-0.05623248,0.016872674,0.024545535,0.06421272,0.04216537,-0.006966658,-0.027268939,0.06054639,0.027421176,0.021345936,0.060557805,0.01241865,-0.012295596,-0.014827527,-0.001086004,0.032296658,-0.027032852,-0.07004154,-0.046556413,0.05468563,-0.020001993,0.035256483,-0.080229275,0.05562588,0.030376226,-0.05946422,0.005394958,0.031476602,0.07253324,0.03287802,0.028979823,0.07257264,0.026864156,0.04900653,0.042237833,-0.048797246,0.047719754,0.008056633,0.08045257,-0.06334825,-0.045814037,0.032530904,-0.042710427,0.014862321,0.047490217,-0.03499957,0.024919532,-0.03111576,0.072930194,0.027413785,0.06574317,0.028428495,-0.01869116,0.07894077,-0.001179762,-0.05055841,0.010834411,0.016310304,-0.0736611,-0.021417852,-0.024131525,-0.04153075,0.056435682,0.032012865,0.022783928,0.037941948,0.07130008,0.017163232,0.003253758,0.070466064,0.051523052,-0.07272305,0.014217697,0.07632247,0.001216702,-0.015296623,-0.027559634,-0.044703435,0.051501878,-0.010500059,0.003897943,-0.045504283,-0.065514006,-0.022589903,-0.045853645,0.07539896,-0.06428377,-0.0552096,0.04035721,0.007285163,0.042772688,-0.013576329,0.026181541,-0.051739715,-0.031532302,-0.08062889,0.08003449,-0.06966581,-0.015858315,-0.057192758,0.07223349,-0.012029953,-0.078014016,0.0778785,0.055425324,0.055271037,0.03327337,0.043521352,-0.007562511,-0.05895289,0.020696223,-0.07473106,0.033443205,-0.057117734,-0.018803477,0.035206497,0.06693082,0.069625326,-0.008676112,-0.02412631,0.059824266,-0.08131194,-0.023784652,0.043600254,0.06637638,-0.003617935,-0.042928316,-0.11553635,-0.009954661,-0.06420071,0.026202895,-0.001045361,-0.03681959,0.072002985,-0.018630352,0.041607447,-0.023436885,0.08045257,49,french,,,
20,0.11189048,0.028703785,-0.047770392,0.009221474,-0.07870371,0.06168499,0.034177188,0.03783433,-0.083982594,0.06038318,0.03259801,0.03759737,-0.069220714,-0.009527035,-0.06831823,0.062163763,-0.004185632,-0.046509035,-0.04736285,0.05550746,0.031144679,-0.055516638,-0.00690119,0.058165915,-0.03477357,-0.06052172,0.039781623,0.008668408,-0.07081825,0.0783362,-0.08045058,-0.03315825,-0.0637839,0.053533874,-0.06688937,-0.0815365,-0.030222204,0.053884782,0.040108934,-0.045639735,0.001323856,-0.013147764,0.009375021,-0.003143519,0.017056413,-0.07145591,-0.026489247,0.06408181,0.049593084,-0.06776569,-0.059824232,-0.015616976,0.041187935,-0.065166384,-0.031005658,0.010316938,-0.005581558,-0.068834044,0.015289336,0.07831714,0.002546817,-0.037606873,-0.046979044,-0.027535088,0.06794382,-0.060206294,-0.047060296,-0.05467126,0.008686155,-0.026497968,0.021084972,-0.040129416,0.048177116,-0.028401315,0.034113444,0.054456346,-0.015189007,-0.018621087,-0.030838352,0.019058555,0.015180878,0.050092287,0.06683146,0.052126087,0.055699967,-0.03076543,-0.022168431,-0.06078057,0.05683378,0.069448836,0.007178552,0.033443704,-0.013453461,0.014476039,0.039407693,0.079330035,-0.000222787,-0.05851096,0.033349328,0.010768324,0.039949067,0.005216725,0.018341772,0.015368655,-0.029647682,-0.03522719,-0.05061886,0.047044076,-0.029829051,0.050576128,-0.02539881,-0.047919095,-0.02694583,0.01805453,0.05322712,-0.06680396,-0.020354453,-0.06281504,-0.05670791,0.01869724,0.028272137,0.07987019,-0.017397687,0.055265017,0.0496187,-0.023151755,0.01948236,-0.055683326,0.07631227,-0.032667365,0.02766525,0.010618813,0.026627861,-0.03676589,0.013198704,0.03771566,0.03058251,0.016089857,0.015233731,-0.07295361,-0.030519709,-0.004995517,-0.04835757,-0.028273713,-0.012611032,-0.04533223,0.027178917,0.017042026,0.11189048,0,danceability,,,
21,0.020473503,0.020555427,0.09451693,0.11009677,0.033524174,0.03554256,0.05604441,-0.06354407,0.03987443,0.017443651,0.005391919,0.00527824,0.04787477,0.032981485,-0.051323064,-0.07231324,0.020166501,-0.047149535,-0.032656673,-0.019845624,-0.069258645,-0.012225367,0.025558129,-0.04165605,0.0360358,0.04809075,-0.015744649,0.069095574,-0.0075216,-0.06643313,0.03590566,0.06516314,0.045047723,-0.012468912,-0.047364935,0.017143287,-0.07383171,0.051285885,-0.023468215,0.06746166,-0.024277706,0.005997188,-0.011846364,0.018584907,0.01958926,0.07343071,-0.06077334,-0.04597901,0.036228076,-0.013992362,-0.08214363,-0.012745701,0.03285995,-0.067472726,0.008537106,0.059242927,0.04147479,-0.03987766,0.060983337,-0.055788744,0.050179295,-0.036476966,-0.02075719,0.048310004,-0.021224137,-0.037123688,0.057265066,0.047333427,-0.07559551,-0.02353812,-0.019030854,-0.06322262,0.07479777,0.059806056,-0.04843775,0.027177282,0.0706659,-0.032390084,-0.04562614,-0.0804103,-0.00441768,0.009533949,0.036290415,0.000960216,0.06626537,-0.0663445,-0.023858387,0.024850681,0.032996237,-0.020154867,-0.052568134,0.07640288,-0.078899145,-0.081247486,0.05716387,-0.026041545,-0.063939616,0.011252724,0.031550396,-0.068871394,0.066796295,-0.040378317,0.04269085,-0.0388193,-0.040323455,-0.046967305,-0.04674478,-0.020406924,0.0192172,-0.019283146,0.001987234,-0.047596365,-0.07976409,0.05772283,-0.07777397,-0.032146245,-0.07200919,0.06464676,-0.041690063,-0.04634216,-0.00323578,-0.009394333,0.021885045,-0.033736683,-0.002379008,-0.020037416,-0.01705654,-0.03976555,0.08108162,-0.039932888,-0.040299516,-0.05946645,0.06824746,0.03598003,-0.030351326,0.07386779,0.006423853,0.0412988,-0.039712384,-0.024869815,0.080645,0.061709337,-0.033552296,-0.034137253,-0.053332295,0.06831417,0.03105637,0.044342835,0.11009677,3,loudness,,,
22,-0.108180024,-0.016424756,0.02343362,-0.020277586,0.01722298,-0.001134242,-0.027026488,-3.73E-05,-0.08753551,-0.024897123,-0.07879864,-0.03352937,0.011735506,-0.009088419,0.07105816,-0.033729598,0.0631722,-0.06730551,-0.013176031,0.011903249,0.03127659,0.06749033,0.008663811,-0.008962587,0.012822241,-0.07078236,0.004371122,-0.05312436,-0.075059764,0.011592373,-0.04458961,-0.0364115,-0.042881466,0.010566026,0.034943916,0.033348598,-0.07890988,-0.051721554,0.04092563,-0.04377324,-0.0518789,0.0002928,-0.062666446,-0.07449698,-0.07541309,-0.010853238,-0.011706919,0.08218288,0.071249284,-0.039547153,-0.07700172,0.003016576,-0.054200716,-0.01341214,0.06112171,0.056641333,0.057526223,-0.068602696,0.056378506,0.05277639,0.066482745,-0.029752336,0.004175209,-0.06515837,-0.08008598,-0.020105138,0.02754777,0.06428609,0.023378298,0.001285374,0.06437374,-0.04314056,0.004555941,0.03585191,0.004814185,0.005140796,-0.07605578,0.005489014,0.035299607,-0.02023559,-0.06848058,-0.058845036,0.073173665,0.0500514,0.007165983,-0.00981237,0.035731457,0.047652774,0.06469584,0.04053569,0.041754022,0.029026516,-0.040762387,0.008121841,0.07959383,0.025264643,0.000178352,-0.05617925,0.017624516,0.03596124,0.027019925,0.07821425,-0.030946307,-0.068686634,-0.05324965,0.07142816,0.034312926,0.06060577,0.028673626,-0.07860888,-0.067997694,-0.06992513,-0.015338145,-0.07619608,0.07175016,-0.002730377,-0.012277104,-0.00974635,-0.002798811,0.07328249,-0.06930118,-0.0295639,-0.003989279,0.027350105,0.035990708,-0.05079134,-0.0641435,0.07806397,0.021104075,-0.012484521,-0.018591352,0.033112787,-0.007369831,0.035755314,0.03106267,-0.053053446,-0.070622295,0.019402273,-0.033822555,0.016885966,-0.05432925,0.035195008,0.07410274,-0.06417236,0.076090075,-0.079055674,0.008195989,-0.029280324,0.08218288,47,folk,,,
23,-0.07072175,-0.059478074,0.003917719,-0.07603344,0.033409316,0.013031026,-0.032059334,-0.05458089,-0.047871437,0.06433983,0.071461625,-0.06812333,-0.015634373,0.06885811,0.03455627,-0.060833663,0.05627138,0.030426815,0.001391761,0.044535957,-0.006836876,0.0773923,0.0569397,-0.022964843,-0.001704909,-0.036123686,-0.002636746,-0.015850812,0.013460562,0.07049062,0.033855356,-0.039340433,0.05385997,-0.041143507,0.068945,-0.080262624,-0.011747159,-0.08079468,0.017187305,0.07236432,0.055138372,0.07673829,-0.0359811,-0.027451847,0.034516476,-0.002242364,-0.041178275,-0.079675764,0.012206174,0.024094142,-0.0708509,-0.05254685,0.018513918,0.027887486,0.001232296,0.023022704,0.081253536,0.025524952,-0.019221865,0.05978351,0.04711438,0.019750237,0.036554553,-0.043148734,0.02335047,-0.01709117,0.066982545,-0.056254216,0.05324655,0.06340977,0.015795141,-0.031110175,-0.016801886,-0.030816011,-0.016675986,0.055486895,-0.067794524,0.027244695,-0.018615186,0.05128313,-0.05913861,-0.06551646,0.026183262,-0.07967277,-0.001886822,-0.034321003,-0.039952416,-0.075877175,0.006894328,-0.029278312,-0.06417136,-0.033863265,-0.012120575,0.056819282,0.075133525,-0.058793336,-0.047176022,-0.059184,-0.09230975,-0.072699495,0.05489523,-0.00375662,0.06343872,-0.052546695,0.06965297,-0.050524693,-0.028044622,0.040403023,0.004832983,-0.027307332,-0.07005661,-0.022417836,0.07815308,-0.017067023,0.005874023,-0.06813327,-0.041851226,-0.037294775,0.019526213,0.047632657,-0.025694191,-0.049910866,-0.036304202,-0.006268561,0.03428731,-0.019766193,0.006916151,-0.006001078,-0.046326533,-0.010975182,0.05499915,-0.047518954,-0.005636834,-0.036585473,-0.048525777,0.018330164,0.030066125,0.003277168,-0.033923034,-0.007722303,-0.06609622,0.07799626,0.052972533,0.06925406,-0.0725735,0.052433234,-0.011249615,0.023991935,0.081253536,56,groove,,,
24,0.03110919,-0.06317544,-0.001501999,0.08005608,0.023558382,-0.03447738,-0.0814775,0.05259651,0.06366057,-0.010305504,-0.032279886,-0.057562917,0.059370227,0.07831689,0.041112997,-0.046057433,-0.0771431,0.065839164,0.080185436,0.08112716,0.03368655,0.049245693,-0.079189,-0.06519099,0.02441682,0.080405615,0.062041424,-0.0332193,-0.06206967,-0.07840604,-0.050916642,0.027085707,-0.050437365,-0.07970265,-0.01033406,0.015200183,0.029301308,-0.06969595,-0.059433226,0.028541364,0.07507431,-0.038998872,-0.002170026,-0.014258802,0.006625712,-0.017673425,0.042902686,0.00296852,0.07641023,0.004611254,-0.013313234,-0.07743114,-0.002014548,0.054059498,-0.06341336,0.018965676,-0.06673671,-0.011331186,0.04024382,0.018985286,0.06885985,-0.031831868,-0.01377327,0.029346287,0.048571847,0.07908913,0.044921406,0.03899719,-0.02900052,0.010153323,-0.07086949,-0.06347125,-0.07934321,0.02152817,-0.04731975,-0.045795273,0.061466955,0.027241208,0.02548702,-0.07551291,0.012074925,0.046087272,-0.003507637,0.005667299,0.01655852,-0.07355169,-0.05926667,-0.037639022,-0.011289559,0.010444142,-0.003843576,0.05750101,-0.07387562,-0.021275807,-0.004375443,-0.055183806,-0.04025931,0.06519095,-0.0485855,0.000524469,0.027295865,-0.072791636,-0.039131157,-0.06112318,0.030490756,0.060666285,-0.017965198,0.015536055,0.07504218,0.024875991,-0.018800415,0.03841348,-0.06757703,-0.001629964,0.016174182,-0.039685953,-0.07468093,0.02184406,0.07969896,0.001068719,-0.005344935,-0.010046437,-0.033844538,-0.060369477,-0.015874967,0.07964525,-0.007905535,0.078575544,-0.013115406,-0.015323684,-0.07940698,0.04288117,-0.0419285,0.046926968,0.03569351,-0.031695515,0.07745264,0.045601673,-0.10468352,-0.07874864,0.041233152,0.06355112,-0.05995984,-0.054137766,0.029510476,-0.10850407,0.011814236,0.05170618,0.08112716,19,bluegrass,,,
25,0.03515482,-0.032006066,-0.007391749,-0.04423918,-0.018838793,0.02098261,0.020258874,-0.04227954,0.06335165,0.034033574,0.014767912,-0.010670358,-0.016619183,0.027623251,-0.031019121,-0.053180736,-0.07619904,0.019952752,-0.07467674,0.034200244,0.00304345,0.05471178,-0.027328499,-0.001550995,-0.016413987,0.027365461,0.008296303,0.07966063,-0.000804447,0.015691377,0.06695769,0.024650827,0.058294572,-0.038043953,0.005368203,-0.04312163,0.066734456,0.02582854,0.0443267,-0.078632884,-0.03318655,-0.024780411,0.047406442,-0.04012675,-0.056949362,-0.068690866,-0.05942659,0.018456914,-0.03183021,0.033301853,-0.06282699,-0.024475466,0.022990867,0.059272997,0.035910726,-0.02264567,-0.019594409,-0.0234357,-0.000572845,-0.00485751,-0.024157912,0.07300254,-0.020053606,-0.038533267,0.002544485,0.06541384,0.014962077,-0.005763918,0.04816077,0.051242016,-0.02370131,0.05169954,0.07480758,-0.04827497,-0.034181416,0.011151306,0.06999225,0.0674979,-0.06470598,-0.019791659,-0.064314,-0.04970596,0.077471115,-0.042395968,-0.07265724,-0.056104198,0.07720695,0.077640496,-0.060513783,-0.016931757,-0.016996816,0.06479087,-0.046283573,-0.03799655,0.011903577,-0.068542555,0.044485204,-0.0217129,-0.09438702,-0.021796033,0.022468813,-0.012821093,0.07298415,-0.038997736,0.057724975,-0.047882408,0.031152293,0.021806546,0.05255886,-0.009262718,-0.012549274,-0.023720939,0.007430047,0.033164725,-0.020153154,0.002235964,-0.045674697,0.053082608,-0.01980577,0.060735293,0.03608542,-0.023623027,0.039409652,0.045259975,0.026391767,0.07178257,0.028845422,0.08145859,0.06764562,0.04271461,-0.045434877,0.052791424,0.029234037,0.036705323,0.029213905,-0.028240751,-0.003142156,-0.00111904,0.011489659,-0.062883325,0.057183333,0.026023448,0.008895606,-0.03356718,0.05824261,-0.035549596,-0.0467741,0.10489993,0.10489993,147,Kanye West,,,
26,0.002636413,0.070083365,0.005269035,-0.041294392,0.05688978,0.019787265,0.032747414,0.002624327,-0.039625067,0.020336483,-0.03175088,-0.043378033,-0.03808184,0.06287896,-0.044802412,0.03949094,0.030318804,0.023701474,0.08037547,0.04088185,0.04079593,0.031491697,-0.013355345,0.069913305,0.07936532,0.04598192,0.015454873,0.056237288,0.029753208,0.07852232,0.0404033,0.06417178,-0.01266057,0.06907547,-0.06965615,-0.03456882,-0.059129573,-0.001983322,0.04811593,0.07034864,-0.03501234,-0.003742524,-0.013661519,0.028420568,-0.046475288,0.06868897,-0.070742086,-0.04355983,0.044655524,-0.03449361,0.06098268,0.035379507,0.032248005,-0.06732196,-0.07575375,-0.07648875,0.003930435,-0.06327256,0.04710888,-0.027533423,0.0594443,-0.038159624,-0.009256192,0.06916522,0.049962454,0.03222464,-0.07481742,-0.05478216,-0.07912263,0.07867389,0.06897121,-0.06663606,0.03662005,-0.061406255,0.060589112,-0.025437262,0.0343773,0.026404262,0.009933338,-0.05057357,0.07689113,0.032970354,-0.065769374,-0.048669174,-0.049310967,-0.01694718,0.041075103,0.053334408,-0.03275481,-0.04954708,0.008802094,-0.04461401,0.028735086,0.003184222,-0.049808595,0.035418622,0.079187445,0.019121863,-0.053817883,-0.056781493,-0.019954938,0.06843839,-0.012492985,-0.032885976,-0.02210527,-0.000530541,-0.029176235,-0.068292335,0.004651934,0.017028943,-0.07202108,0.062316142,-0.024280045,0.002510078,-0.049259726,0.016362429,-0.01284416,0.017177723,0.030796885,0.018209726,0.050583653,0.049136482,-0.026262108,-0.07992332,0.022431828,0.041654013,-0.056284696,0.005250275,0.06862264,0.00821916,0.06063529,-0.06506637,-0.0640977,-0.03741747,-0.03850297,-0.07813224,0.009945057,0.039113954,-0.05259303,0.047009476,-0.038831554,0.007786378,-0.03213971,-0.047525737,-0.010730155,-0.052687995,-0.059114102,0.11834797,0.11834797,147,Kanye West,,,
27,-0.04940737,-0.07388075,0.06582769,-0.031469572,0.054246772,-0.048743766,-0.004226351,-0.034526795,0.015917815,-0.04129421,-0.07691881,-0.057164334,0.06943136,-0.07336302,0.04127696,-0.021256682,0.031221218,-0.014830828,0.049659334,0.04495921,0.06356209,0.014253043,0.06443117,-0.009057671,0.06583918,0.04784266,-0.054775648,-0.02883137,0.02510839,-0.003331102,-0.04032605,-0.05246739,-0.024240654,-0.023034867,-0.014036611,-0.055856496,0.009881057,-0.028733362,0.03821308,-0.053192995,0.00784222,-0.02160756,0.028965801,-0.041671604,0.028239995,0.049206875,0.0561058,0.06207662,0.060814686,0.019324832,0.021790989,-0.072686344,0.030608028,0.000290826,-0.07299993,0.027738325,-0.009973004,0.026926614,-0.012892634,0.05282169,0.061362423,0.0797595,0.061563514,0.048538305,0.022570431,0.07663255,-0.01724717,-0.044011336,-0.001200862,0.00922481,-0.065194696,-0.07815486,-0.065481484,0.06616662,0.07177261,0.039546035,0.05117839,-0.03784671,0.020596102,-0.029686268,0.06254882,0.069112085,0.041090593,0.011212111,-0.022756066,-0.064113155,0.037046812,0.009080924,-0.00315813,-0.02964098,-0.062164895,-0.025108673,-0.022329409,0.06606615,-0.02178739,0.01138445,0.046970792,-0.04684768,-0.002574654,-0.012375608,0.006248973,0.035927504,0.046365164,-0.003071234,0.012040675,0.023956232,0.06393673,-0.072302625,0.039115556,-0.024693679,-0.04081536,0.062192477,-0.034313243,0.047477968,-0.014227234,0.0404587,0.06079135,-0.06772036,0.018020011,-0.07680581,0.012504019,0.030436262,-0.020714123,-0.019916382,-0.03584085,-0.018793285,0.007992879,-0.00012619,0.048124082,-0.04064041,0.04799179,0.039015062,-0.07063499,0.052894153,-0.060144708,0.019595027,0.060508512,0.021548651,-0.008438354,-0.015416101,-0.01936023,-0.064258605,0.044981457,-0.027287155,0.04761391,-0.0639769,0.01426651,-0.028194264,0.0797595,61,hardcore,,,
28,0.063647866,-0.08906741,-0.05496057,0.0197618,0.011225129,0.03140693,-0.000583793,-0.013407833,-0.066620655,4.82E-05,0.022457037,-0.023788845,0.022919491,0.0154576,0.026143342,-0.02881103,-0.06282406,0.015831895,0.026737906,-0.054624375,0.07721434,0.009257138,-0.079116344,0.059572466,0.012542263,-0.055602722,-0.010368742,0.04807443,-0.018719584,0.03805387,-0.07878898,0.00447537,-0.06427719,0.0743377,-0.07327384,-0.021048363,0.01305566,-0.051728934,0.07048107,0.073002644,-0.001794301,-0.031477567,-0.005720064,0.045786165,-0.0253653,0.04680305,-0.048603687,0.023543201,0.023919918,-0.017796867,-0.008618854,-0.03397126,0.06522418,0.003132053,-0.033909418,-0.039285854,0.002168723,-0.02701845,0.037800863,-0.07027982,0.020632446,-0.03808948,0.07309703,0.08021482,0.040217638,0.043093048,-0.046512965,0.008632056,0.039820902,-0.043347936,-0.06593852,-0.001107454,0.04925043,0.010646082,-0.05648584,-0.081288256,0.029953524,-0.0312873,-0.036938146,0.017828017,0.009063996,0.020034999,-0.051874213,-0.046023283,-0.03083507,-0.05958487,0.031228915,0.041355893,0.042376257,-0.012257986,-0.06129235,-0.080750905,0.078634955,-0.051624164,-0.0541778,-0.05641323,-0.08053555,-0.07048863,-0.10906826,-0.012734577,0.039257906,-0.061234947,-0.003697805,0.05073244,-0.051090874,0.01517266,-0.042765096,0.042037085,0.023499921,0.029673323,-0.052062236,0.016090505,-0.025758784,-0.003295787,-0.030585766,-0.01486548,0.026206106,0.004073381,-0.04405848,0.08157059,-0.05113843,-0.009234898,0.0816086,-0.04497716,-0.065617144,0.05646745,-0.07193331,-0.030869227,-0.0654788,-0.043068305,-0.06508742,-0.05445935,0.06377553,-0.03719238,-0.06037127,0.04668448,-0.059174962,0.017789923,-0.025379702,-0.04688709,0.022589229,-0.055249274,0.001154706,0.000354849,0.053056188,0.002556834,0.065680236,0.087242685,0.087242685,147,Kanye West,,,
29,0.041790377,-0.036612384,0.036900613,-0.020178108,0.031066684,0.05496305,-0.04150216,-0.076217905,0.08667854,0.10300169,0.045268785,-0.045720205,-0.022650208,-0.04280013,-0.055877298,-0.045812253,0.06270396,0.04723429,-0.060501367,0.016035125,-0.008492254,0.001073286,-0.026540026,0.046375982,-0.06127033,0.07207958,-0.06725576,0.017456226,-0.06953185,-0.013716176,0.0633683,-0.078336805,0.06842434,-0.04991904,-0.07929188,-0.071163245,-0.06959947,-0.048513196,0.05971866,0.006177723,-0.07637015,-0.05433751,0.031879604,0.02357421,-0.04591823,0.078531675,-0.014342204,0.03513615,0.07353894,0.018517189,-0.036653575,-0.07608627,-0.004033193,-0.018360227,0.07434074,0.03893909,-0.07644451,0.040592507,-0.031703215,0.001990065,0.022475913,-0.055994235,-0.06766712,-0.049446493,0.05880823,0.07572492,-0.060753427,0.017223433,0.05112458,0.057424016,-0.04171132,-0.05319325,0.039507084,-0.059770368,-0.036623698,-0.053533494,-0.03323036,-0.02525609,0.07613706,-0.07436849,-0.078732476,0.03356555,-0.057255704,0.06088709,0.0679531,0.005817592,0.07026454,-0.029971752,0.011747874,0.001818925,-0.010963909,-0.031076837,0.037178434,0.014195219,0.032514885,0.06490191,0.036135122,-0.04150544,0.08827584,0.035958163,-0.06517106,0.002983347,-0.05258731,-0.07501243,-0.016915329,0.020568669,0.06840628,-0.021966174,0.035291195,0.0763819,0.035657734,-0.0511438,0.058018215,0.024555773,-0.029706798,-0.034492258,0.0675799,0.056728624,0.03515145,-0.068108425,0.03203731,-0.009649701,-0.015912935,-0.011131279,0.005435728,0.04045669,-0.035185233,0.07508256,0.054299824,-0.042057898,-0.003223777,-0.03209826,0.05428592,0.02586677,-0.045510758,-0.019591957,0.06427292,-0.03422478,0.013279939,-0.06771341,0.030179478,-0.07276028,-0.029687386,0.080083914,0.026760563,0.007319078,0.010414028,-0.112955615,0.10300169,9,tempo,,,
30,-0.044915434,-0.025770912,-0.03409048,-0.043071643,0.028516524,-0.032188624,-0.11017854,0.012987309,0.0537702,-0.012856456,-0.036502995,-0.007420093,-0.037260685,0.06883543,0.051728107,0.039405987,0.003893808,0.004216865,0.06674939,0.021232478,0.023460895,0.009856649,0.016956516,0.07188409,-0.07487138,0.02977141,-0.001280308,0.015237473,0.04018221,-0.05360856,0.03853502,0.06264692,-0.056699213,-0.011346139,-0.02859411,-0.056847893,-0.061068572,0.058828853,-0.011177927,-0.046470225,0.03527257,0.03408824,-0.000524491,0.03938447,0.031049766,0.03725615,-0.048142266,0.010903277,-0.05622208,0.052713715,0.013010107,0.053381123,-0.054172017,-0.020692036,-0.07784842,0.050051965,-0.038839817,0.043419383,-0.037256237,0.040315084,0.07258325,-0.0131239,-0.07163113,0.079521395,0.027566493,-0.001527958,-0.06981829,-0.03546462,0.027073331,-0.025063295,0.0386165,-0.053193875,-0.018380769,0.052094586,-0.026313014,-0.03847709,0.007012919,-0.04895012,0.003108725,0.021982625,-0.025777314,0.027807109,0.012735695,-0.039092313,0.013792306,0.05904036,0.06167955,0.000151709,-0.0636448,-0.019642062,0.017466448,-0.066273816,-0.05293677,0.016833723,0.029401168,-0.029954702,0.048071094,0.017736226,0.079955384,0.01303637,-0.020051353,0.017878972,0.030549422,-0.013866082,-0.009607568,0.0773275,-0.012891591,4.22E-05,-0.067872025,-0.080245644,0.06561317,0.02327963,-0.014304251,0.008467689,-0.005913153,0.072028555,0.017755106,-0.035048917,0.048308693,0.060967706,-0.025906358,0.073239826,0.038966782,-0.07411354,-0.062263012,-0.05605888,0.006913185,-0.08012731,0.03331043,-0.005691864,0.032283522,-0.054978646,-0.062573925,0.001871429,-0.06407429,0.057557963,-0.006726094,-0.032856338,0.06170048,0.040753588,-0.01745212,0.0806812,-0.022435475,0.04002002,0.04184173,0.016686432,-0.09488846,-0.04396606,0.0806812,141,disgust,,,
31,-0.032754753,0.085592054,0.018396806,-0.027784593,-0.03723727,-0.03645604,-0.08648572,0.013171716,-0.0443505,-0.031413585,0.009652735,0.05612317,-0.06871312,0.08208575,-0.004351072,-0.06615869,-0.018392146,-0.065245576,-0.04444632,0.059937783,-0.000270605,0.005943835,-0.07787597,-0.07222092,-0.036382556,0.06737258,0.049587883,-0.012698315,0.07577423,0.04323242,0.05469788,-0.025930706,-0.027322501,0.003695905,0.036058076,0.04880462,-0.014393814,0.08161882,-0.06215297,-0.01829438,0.017797291,0.07334744,-0.017244868,0.059861533,0.009551019,0.039062172,-0.053241834,-0.030172992,-0.013678305,-0.0808567,0.061327316,-0.06745908,0.010457657,-0.007909052,-0.001933746,0.0804544,0.04672634,0.011174694,-0.047618326,-0.08085697,0.034681715,0.045900606,-0.022040244,0.023165144,-0.077786684,-0.06951716,-0.005510345,0.07783622,-0.004420392,0.08107602,-0.07276113,-0.080018796,0.07948025,-0.028487116,-0.04644795,0.08013644,-0.0802702,0.06953371,0.07314517,0.039834037,-0.020074155,-0.03229663,-0.0630257,-0.06517325,0.06473134,0.05381354,0.046010695,0.001452342,-0.07317009,-0.056020655,0.041454755,-0.046609093,0.03715138,0.071030654,-0.01684159,-0.06067762,-0.06022649,0.028462216,-0.006922795,-0.0778812,0.00369674,-0.048579495,-0.04165179,-0.04120578,0.059207074,-0.05336771,0.020659134,0.001678236,-0.006717384,-0.062214173,-0.0761171,0.007723168,0.023993053,-0.0708554,-0.022204876,0.01878903,-0.050812997,0.034985535,-0.058978632,-0.07477736,0.03484153,0.08007667,0.02507247,-0.06814638,-0.020464133,-0.002714649,0.056435548,0.052443497,-0.02819439,-0.006519236,-0.014280506,0.0820395,-0.036450922,0.043134503,-0.03881725,-0.08027555,-0.04928061,0.036492765,-0.03814585,0.010610297,-0.06630739,0.0520998,-0.010940194,0.011115238,-0.03973639,-0.03364542,0.079099886,0.03978601,0.085592054,1,energy,,,
