,0,1,2,3,4,5,6,7,8,9,10,11,12,13,14,15,16,17,18,19,20,21,22,23,24,25,26,27,28,29,30,31,32,33,34,35,36,37,38,39,40,41,42,43,44,45,46,47,48,49,50,51,52,53,54,55,56,57,58,59,60,61,62,63,64,65,66,67,68,69,70,71,72,73,74,75,76,77,78,79,80,81,82,83,84,85,86,87,88,89,90,91,92,93,94,95,96,97,98,99,100,101,102,103,104,105,106,107,108,109,110,111,112,113,114,115,116,117,118,119,120,121,122,123,124,125,126,127,128,129,130,131,132,133,134,135,136,137,138,139,140,141,142,143,144,145,146,147,148,149,150,151,152,153,154,155,156,157,158,159,160,161,162,163,164,165,166,167,168,169,170,171,172,173,174,175,176,177,178,179,180,181,182,183,184,185,186,187,188,189,190,191,192,193,194,195,196,197,198,199,200,201,202,203,204,205,206,207,208,209,210,211,212,213,214,215,216,217,218,219,220,221,222,223,224,225,226,227,228,229,230,231,232,233,234,235,236,237,238,239,240,241,242,243,244,245,246,247,248,249,250,251,252,253,254,255,256,257,258,259,260,261,262,263,264,265,266,267,268,269,270,271,272,273,274,275,276,277,278,279,280,281,282,283,284,285,286,287,288,289,290,291,292,293,294,295,296,297,298,299,300,301,302,303,304,305,306,307,308,309,310,311,312,313,314,315,316,317,318,319,320,321,322,323,324,325,326,327,328,329,330,331,332,333,334,335,336,337,338,339,340,341,342,343,344,345,346,347,348,349,350,351,352,353,354,355,356,357,358,359,360,361,362,363,364,365,366,367,368,369,370,371,372,373,374,375,376,377,378,379,380,381,382,383,384,385,386,387,388,389,390,391,392,393,394,395,396,397,398,399,400,401,402,403,404,405,406,407,408,409,410,411,412,413,414,415,416,417,418,419,420,421,422,423,424,425,426,427,428,429,430,431,432,433,434,435,436,437,438,439,440,441,442,443,444,445,446,447,448,449,450,451,452,453,454,455,456,457,458,459,460,461,462,463,464,465,466,467,468,469,470,471,472,473,474,475,476,477,478,479,480,481,482,483,484,485,486,487,488,489,490,491,492,493,494,495,496,497,498,499,500,501,502,503,504,505,506,507,508,509,510,511,512,513,514,515,516,517,518,519,520,521,522,523,524,525,526,527,528,529,530,531,532,533,534,535,536,537,538,539,540,541,542,543,544,545,546,,
,danceability,energy,key,loudness,mode,speechiness,instrumentalness,liveness,valence,tempo,duration_ms,time_signature,acoustic,afrobeat,alt-rock,alternative,ambient,anime,black-metal,bluegrass,blues,bossanova,brazil,breakbeat,british,cantopop,chicago-house,children,chill,classical,club,comedy,country,dance,dancehall,death-metal,deep-house,detroit-techno,disco,disney,drum-and-bass,dub,dubstep,edm,electro,electronic,emo,folk,forro,french,funk,garage,german,gospel,goth,grindcore,groove,grunge,guitar,happy,hard-rock,hardcore,hardstyle,heavy-metal,hip-hop,holidays,honky-tonk,house,idm,indian,indie,indie-pop,industrial,iranian,j-dance,j-idol,j-pop,j-rock,jazz,k-pop,kids,latin,latino,malay,mandopop,metal,metal-misc,metalcore,minimal-techno,movies,mpb,new-age,new-release,opera,pagode,party,philippines-opm,piano,pop,pop-film,post-dubstep,power-pop,progressive-house,psych-rock,punk,punk-rock,r-n-b,rainy-day,reggae,reggaeton,road-trip,rock,rock-n-roll,rockabilly,romance,sad,salsa,samba,sertanejo,show-tunes,singer-songwriter,ska,sleep,songwriter,soul,soundtracks,spanish,study,summer,swedish,synth-pop,tango,techno,trance,trip-hop,turkish,work-out,world-music,popularity,sentiment,anger,disgust,fear,joy,sadness,Artists,Artists,Artists,Artists,Artists,Artists,Artists,Artists,Artists,Artists,Artists,Artists,Artists,Artists,Artists,Artists,Artists,Artists,Artists,Artists,Artists,Artists,Artists,Artists,Artists,Artists,Artists,Artists,Artists,Artists,Artists,Artists,Artists,Artists,Artists,Artists,Artists,Artists,Artists,Artists,Artists,Artists,Artists,Artists,Artists,Artists,Artists,Artists,Artists,Artists,Artists,Artists,Artists,Artists,Artists,Artists,Artists,Artists,Artists,Artists,Artists,Artists,Artists,Artists,Artists,Artists,Artists,Artists,Artists,Artists,Artists,Artists,Artists,Artists,Artists,Artists,Artists,Artists,Artists,Artists,Artists,Artists,Artists,Artists,Artists,Artists,Artists,Artists,Artists,Artists,Artists,Artists,Artists,Artists,Artists,Artists,Artists,Artists,Artists,Artists,Artists,Artists,Artists,Artists,Artists,Artists,Artists,Artists,Artists,Artists,Artists,Artists,Artists,Artists,Artists,Artists,Artists,Artists,Artists,Artists,Artists,Artists,Artists,Artists,Artists,Artists,Artists,Artists,Artists,Artists,Artists,Artists,Artists,Artists,Artists,Artists,Artists,Artists,Artists,Artists,Artists,Artists,Artists,Artists,Artists,Artists,Artists,Artists,Artists,Artists,Artists,Artists,Artists,Artists,Artists,Artists,Artists,Artists,Artists,Artists,Artists,Artists,Artists,Artists,Artists,Artists,Artists,Artists,Artists,Artists,Artists,Artists,Artists,Artists,Artists,Artists,Artists,Artists,Artists,Artists,Artists,Artists,Artists,Artists,Artists,Artists,Artists,Artists,Artists,Artists,Artists,Artists,Artists,Artists,Artists,Artists,Artists,Artists,Artists,Artists,Artists,Artists,Artists,Artists,Artists,Artists,Artists,Artists,Artists,Artists,Artists,Artists,Artists,Artists,Artists,Artists,Artists,Artists,Artists,Artists,Artists,Artists,Artists,Artists,Artists,Artists,Artists,Artists,Artists,Artists,Artists,Artists,Artists,Artists,Artists,Artists,Artists,Artists,Artists,Artists,Artists,Artists,Artists,Artists,Artists,Artists,Artists,Artists,Artists,Artists,Artists,Artists,Artists,Artists,Artists,Artists,Artists,Artists,Artists,Artists,Artists,Artists,Artists,Artists,Artists,Artists,Artists,Artists,Artists,Artists,Artists,Artists,Artists,Artists,Artists,Artists,Artists,Artists,Artists,Artists,Artists,Artists,Artists,Artists,Artists,Artists,Artists,Artists,Artists,Artists,Artists,Artists,Artists,Artists,Artists,Artists,Artists,Artists,Artists,Artists,Artists,Artists,Artists,Artists,Artists,Artists,Artists,Artists,Artists,Artists,Artists,Artists,Artists,Artists,Artists,Artists,Artists,Artists,Artists,Artists,Artists,Artists,Artists,Artists,Artists,Artists,Artists,Artists,Artists,Artists,Artists,Artists,Artists,Artists,Artists,Artists,Artists,Artists,Artists,Artists,Artists,Artists,Artists,Artists,Artists,Artists,Artists,Artists,Artists,Artists,Artists,Artists,Artists,Artists,Artists,Artists,Artists,Artists,Artists,Artists,Artists,Artists,Artists,Artists,Artists,Artists,Artists,Artists,Artists,Artists,Artists,Artists,Artists,Artists,Artists,Artists,Artists,Artists,Artists,Artists,Artists,Artists,Artists,Artists,Artists,Artists,Artists,Artists,Artists,Artists,Artists,Artists,Artists,Artists,Artists,Artists,Artists,Artists,Artists,Artists,Artists,Artists,,
0,0.09208693,-0.08986473,-0.3311709,-0.030197121,-0.25474027,-0.096545264,-0.2539501,-0.78879356,0.22859082,-0.1077844,0.09967112,-0.13867554,0.027075235,0.020092096,-0.017761743,-0.019410582,0.018786486,-0.01988511,0.010806639,0.011730548,0.03873663,0.000397883,-0.03202601,-0.025930779,-0.0125656,-0.034458272,0.017025243,-0.015224593,-0.01655091,-0.019138046,-0.001843691,-0.011628812,0.09200434,0.011421174,-0.007943887,0.006398924,-0.029937975,0.005432762,-0.010466147,-0.036152314,-0.006358866,0.030729998,0.00090117,0.11534234,-0.09790071,0.016960703,-0.23959062,-0.028279489,0.016444728,0.02513745,0.008207627,0.026232209,-0.028063383,-0.00036354,-0.019406296,-0.017053975,0.022088062,-0.06590777,-0.011548769,0.035237845,0.024170887,0.002615638,-0.007734884,-0.022500677,0.03443357,-0.006820869,0.04100279,0.1953209,-0.032794494,0.024183076,0.032855082,0.011755802,0.030370366,0.009616699,0.017931454,-0.023865791,0.002445016,-0.010990836,0.02828909,0.1278983,-0.026057027,-0.01988247,0.031167474,0.022971991,-0.01625918,-0.026844475,0.03470194,-0.004401945,-0.015942223,0.020854559,0.002529066,0.01946697,-0.03195428,-0.022148931,0.042556915,0.000251167,-0.042500827,-0.004342638,0.3618706,-0.029390983,-0.012132404,-0.015328715,0.030159969,0.01758838,-0.0162784,0.024670195,0.036858786,-0.025056522,-0.040283106,0.008923762,0.010794722,-0.15866971,-0.013675282,-0.038128857,0.03960244,0.011289984,-0.008041013,0.027281705,-0.02811265,0.022156905,0.033224028,-0.01696071,0.02568737,0.005885791,-0.015094252,0.01947435,0.010133617,-0.017582644,0.014921632,0.014538907,-0.021362027,0.03373765,0.016398758,-0.013198124,-0.005019691,-0.020894418,0.03865203,-0.010190439,0.17188726,0.031916197,0.003618341,-0.03153848,0.010724004,-0.04247197,-0.012583694,0.025651518,0.02836999,0.020228159,-0.011768013,0.050820336,0.010670692,-0.27915606,-0.026873233,0.1464561,-0.25740397,-0.26191273,-0.15068476,-0.037616953,-0.09767533,0.038505826,-0.05130523,-0.26077563,0.035431582,-0.26967156,-0.005158171,-0.020745087,-0.03665913,-0.0508268,0.05447878,-0.038993858,0.021777574,-0.019501096,0.01462549,-0.16377994,0.040632177,-0.088517055,0.001472302,-0.001856014,0.019466704,-0.058190912,-0.08335698,-0.0240872,0.1336306,-0.25167352,0.02972678,0.007989492,-0.015844462,0.0308627,-0.007359932,-0.08820742,-0.07946105,-0.16131699,-0.2649204,-0.059936654,-0.072714396,-0.07164917,-0.15586606,-0.0880842,-0.067327544,-0.02410293,0.017040994,-0.021391619,-0.038159527,-0.03966827,0.033521097,-0.015738621,-0.23523927,-0.020540485,0.04055799,0.030514587,-0.2721674,-0.093563944,-0.03430424,0.16475402,-0.27089638,-0.048604637,-0.03315368,-0.04588157,-0.057883047,0.057757758,-0.06865309,-0.09073417,-0.29087263,-0.3100179,-0.17808205,0.020211685,0.011467285,-0.013883291,-0.028908132,0.025002781,-0.04818348,-0.06428194,-0.078558974,-0.1520306,-0.2525481,-0.26876336,-0.053510107,0.029428381,-0.03700845,-0.11813097,-0.20293362,-0.26680207,0.041459035,-0.1224802,-0.023550138,0.12692381,0.006652527,-0.009279378,-0.22505027,0.03460787,0.13834079,0.039284915,-0.069162115,0.001453292,-0.17730555,-0.27202597,0.029880542,0.004938275,-0.08458928,-0.036718585,-0.11510127,-0.05568405,-0.042597614,-0.14290369,-0.26889482,-0.04446427,-0.12978868,-0.03369267,-0.05504588,-0.13786297,0.12105865,0.007563976,-0.056418728,-0.29743814,-0.028548505,-0.19241326,-0.0290438,-0.06046569,-0.112709194,-0.03381695,-0.11817223,-0.03125546,0.11578069,0.16038737,-0.041138303,-0.28766045,-0.050499402,-0.063371405,-0.18053408,-0.2697486,-0.0759578,-0.26781145,-0.08835609,-0.11435693,-0.010355379,-0.10746362,-0.2725182,-0.08610049,-0.042187326,-0.009445742,-0.22563225,-0.03825552,0.15387566,-0.01780365,-0.013585003,-0.27722967,0.026989061,-0.014998958,0.004147091,-0.17209491,0.040904928,-0.032925054,-0.26470402,-0.28870732,-0.2802498,-0.08927359,-0.002981223,-0.1379346,-0.2647538,-0.29862347,-0.12463976,-0.21772511,-0.4186103,0.059733335,0.12490901,-0.048760865,-0.03678339,-0.046248,0.004477631,-0.06683856,-0.02335179,-0.14114927,-0.031274877,-0.06823617,-0.15316646,-0.11908934,0.05869986,-0.03386712,-0.013191076,-0.061731488,-0.036799993,-0.09139978,-0.21719131,0.080864936,0.00447996,-0.03961657,-0.2719755,-0.038575117,-0.005974472,0.15518875,0.16119532,-0.07054373,-0.050080016,-0.16698128,-0.11201191,-0.12921911,0.07793683,-0.06099673,-0.13588662,-0.034743305,-0.079194635,-0.13508624,0.007740588,-0.029103063,-0.031954996,-0.14678742,-0.16179515,-0.0925824,0.03657258,-0.10405765,-0.057895504,-0.27127498,-0.036754854,-0.055648584,-0.064197175,0.13658893,0.20689104,-0.029832084,0.106929645,-0.013713071,-0.2709356,0.21934411,0.12422883,-0.1938031,-0.1263746,0.09104947,0.2943337,0.005129091,0.097037494,0.0957528,-0.27556682,-0.023607638,0.19093563,-0.11252226,0.35217673,0.015853714,0.24227084,-0.08628219,-0.2719178,0.25299454,0.061514582,-0.20867969,0.16310227,-0.3115359,0.089317545,-0.26624808,-0.086939126,0.021463517,-0.13219924,-0.15534735,-0.2535201,-0.04259321,-0.027320888,-0.13928893,-0.20897526,0.13995856,0.032356616,0.019277234,0.16513295,-0.2690639,0.015637796,-0.14866295,-0.094322,0.2883358,-0.03176833,-0.10367827,0.068923295,0.18944772,-0.22053674,-0.2653345,0.114526,-0.018920127,0.14317016,0.1062907,-0.044802856,-0.038379844,0.09913214,-0.0916301,-0.16805308,-0.20981576,0.002764441,-0.2974404,0.092065655,0.20837834,-0.03988559,0.18582076,0.041199397,0.07132526,-0.16160414,0.03155079,0.2053956,0.18581605,0.21187858,0.24483998,-0.24573104,0.0328747,-0.29405233,-0.02107585,0.05802104,-0.21419644,0.022299131,-0.09498443,0.00521389,-0.021490244,0.24513611,-0.008731268,-0.15359393,0.14619608,-0.28157255,-0.3023872,0.10641426,-0.21162856,0.027630685,-0.023396483,-0.13235241,-0.21062914,0.011216428,-0.01643697,-0.006098174,-0.051574863,0.2394838,-0.14025484,0.08007383,-0.07573522,0.021370936,0.16927254,-0.112655595,0.109816544,-0.16542898,-0.038535237,0.23635438,0.09844435,0.11123071,-0.009616334,-0.16532663,-0.18877135,0.033699807,-0.007722512,0.05145409,0.022493137,0.078760944,-0.003688842,-0.0685618,0.21110654,0.09283285,-0.2701585,0.07718326,-0.06909722,-0.09082634,-0.030652884,0.022852603,0.23365334,-0.03351322,0.11320159,-0.2544633,0.0963506,0.001387153,0.17564425,-0.023053413,-0.12567432,-0.23398459,-0.06436063,-0.025717651,-0.117359765,0.018882964,-0.034146998,0.06550334,-0.27171078,-0.009537302,-0.014462093,-0.026075142,0.022367667,0.20049042,0.18937993,-0.16192096,-0.179192,0.19386798,0.26663446,0.16462983,0.039217267,0.24115473,0.017370706,-0.032070108,-0.07255488,-0.26862228,0.1795519,0.035212804,0.3618706,98
1,-0.22416982,0.038380217,0.23620269,0.3595108,-0.42421314,-0.456188,-0.043093506,-0.08343844,0.42481005,-0.034455404,-0.17581156,0.24477573,0.02866358,7.70E-05,0.023234095,-0.021447392,0.009928387,0.038214352,0.021848235,-0.03840768,-0.012338894,-0.037142146,0.031477574,-0.022127148,0.036888454,0.006647427,-0.021736603,-0.02508004,-0.03575733,0.035962325,-0.03839639,-0.017658843,0.058021326,-0.013738887,-0.031817533,-0.029969612,0.012784872,-0.036968127,-0.017964272,0.035592753,-0.034246244,0.018062763,0.037981015,-0.27234167,-0.009033228,0.036624346,-0.12241971,0.00734416,0.021300938,0.035170715,-0.038519014,-0.037689026,0.029522661,-0.027241936,-0.041839253,-0.003751185,-0.028002258,-0.043812186,-0.003690839,-0.014490051,0.017820291,0.032449197,-0.011726854,0.03515132,0.02437495,0.014026616,0.0006015,-0.0932361,-0.014454173,-0.025771726,0.04006217,0.01221687,-0.00781231,0.001650002,-0.007074956,0.027354699,-0.006997429,0.020312246,-0.037982207,-0.19749185,-0.000755716,-0.035197,0.021180872,-0.03364486,-0.008190565,0.026193533,0.04218665,-0.037856147,-0.015300309,-0.040622793,-0.027824368,0.03090113,0.035737526,-0.028460354,-0.041414626,0.03818542,0.012576111,0.015332002,0.59737736,-0.01827728,0.031560894,0.040408242,0.039947588,-0.019400379,-0.048002545,0.022162016,-0.02289795,0.010103963,-0.026638852,-0.022003977,-0.03257092,-0.008865952,-0.002790932,-0.004801199,0.032859217,-0.029374927,0.009725366,0.03160103,-0.003775839,-0.021097554,-0.06309551,-0.026461184,-0.008951582,-0.020349225,-0.00520435,-0.03213653,0.008318231,-0.004675664,0.030120786,0.008215543,-0.014877062,0.011299882,0.019440971,-0.03486166,0.001299262,0.003860932,0.001828097,0.037648413,1.1847379,-0.038933594,0.009301532,0.032046344,0.034323927,0.016912859,-0.023517288,-0.036939517,0.00960901,0.006103549,-0.012335479,0.22127578,-0.019038389,-0.047296148,-0.005055521,-0.014986424,0.043464415,0.04087064,-0.040923923,0.013218713,-0.041645136,-0.015358206,-0.000454931,0.013240209,-0.036659505,-0.025672125,-0.020624448,0.013181358,0.025366236,0.05859363,0.039617144,0.002669413,-0.005573582,0.040870268,-0.03244283,-0.10701223,-0.039369814,-0.008993329,-0.04127705,0.024162125,0.1717457,-0.001137681,0.37193567,0.11750727,0.038024668,0.091678746,-0.018545136,-0.029182138,-0.000111285,0.004441693,-0.059314985,-0.008180893,0.12441528,-0.10309207,0.21861209,0.038699903,-0.057352204,0.05321202,0.02854205,-0.027995056,-0.092464015,0.039428543,-0.001885455,-0.03778496,0.023213912,-0.03260439,-0.029879471,-0.007810192,-0.01904634,-0.037100516,0.03836299,0.01435519,-0.040994763,-0.002583049,-0.039467365,0.035425246,0.18043669,0.003244703,-0.02439419,-0.011804376,-0.013893512,-0.07530479,0.09066986,-0.001604589,0.020545987,-0.3217157,-0.0364609,0.008518189,-0.006706243,0.035856698,0.095484994,0.027346529,-0.024698319,0.026007673,-0.003229314,-0.026374994,-0.00182214,0.10190355,0.04457013,0.023508038,-0.015397912,-0.037246183,0.011937967,0.025390059,-0.000227474,-0.005608821,0.003301095,-0.02556436,0.025472995,-0.004928768,0.07657588,-0.011695242,-0.000301938,0.021615136,-0.023443656,-0.035293564,-0.09241909,0.02203804,-0.00456059,-0.03725163,0.2144015,0.006941695,-0.10575905,-0.038325347,-0.04131255,-0.041742142,-0.07109646,0.026150044,-0.06523122,-0.02272098,-0.129731,-0.13473059,0.03286937,-0.109582484,0.024503617,0.04125677,-0.014682036,-0.04165734,0.00645335,-0.01973093,0.023999408,-0.035444837,-0.03076846,-0.019761406,0.011080981,-0.07224262,0.026799645,-0.051040206,0.007507512,0.093777515,-0.025785347,0.028560663,0.060913604,0.007724361,-0.08346103,0.033327084,0.022790385,-0.07594297,-0.017184993,0.21725875,0.002224404,0.012551669,-0.1327465,0.25018385,-0.028571667,-0.04501933,-0.007486969,0.029985111,-0.024360728,0.016080871,0.001418148,-0.044039376,-0.007533331,-0.029386284,-0.034663375,0.01012549,0.19510217,-0.02774389,-0.033819836,0.1284674,0.022813598,0.023684496,-0.09988484,0.008374414,0.28401464,-0.048940286,-0.019060649,0.02432873,-0.035558905,-0.025998402,0.041932736,0.003059382,-0.01501551,-0.022691723,0.005187217,0.021060996,-0.046972625,-0.09539987,0.16266783,0.021242011,-0.016770983,0.011899165,0.0021699,0.011260226,0.003845155,0.062301222,0.040281076,0.007378712,-0.014174983,-0.016101107,0.018468235,-0.015161657,-0.02744851,0.09034713,-0.026784362,0.012206786,-0.03240137,0.056124486,-0.022704182,-0.037383415,-0.043735523,0.054215934,0.11476141,0.0257658,0.069509365,-0.015447333,0.23185667,-0.057024367,0.061537076,-0.03843378,0.001663052,-0.07082531,-0.121237,-0.000315006,-0.04235061,0.091165006,-0.026655374,-0.13328198,0.16598377,-0.04271775,-0.015719311,0.025521975,-0.068810366,0.1705913,0.17154485,0.38454357,0.014743877,-0.2245558,-0.05834442,-0.019261423,0.12920496,-0.001104603,-0.20100822,0.033423703,-0.008647319,-0.054487698,0.012105156,0.040320475,-0.24640892,-0.006499522,0.20114084,0.10548968,-0.002691861,0.000696045,-0.08195394,-0.017986273,-0.003098369,-0.065825194,-0.02633429,-0.14416464,0.034000494,0.050352484,0.012001461,0.015995651,0.012191493,0.047697008,0.005954689,0.082487,-0.03135116,-0.030134369,-0.05639319,0.05809551,0.02622902,-0.14232413,0.35670862,-0.055875193,-0.013017934,0.22180456,-0.08638155,-0.023460804,-0.0709464,0.14311886,-0.030109381,-0.0217303,0.06158899,-0.064418994,0.007753106,0.007328294,-0.06545206,0.026004765,0.2760457,0.002083868,-0.005914543,0.036775928,0.104426436,-0.1137802,-0.002592284,0.18324703,-0.035675272,-0.011990067,0.14287637,0.024584103,-0.008723594,-0.044254575,0.046171337,-0.07655973,0.12440424,-0.050062384,-0.116335176,-0.003271874,0.029170902,-0.19699104,-0.1993383,0.07106719,-0.019055024,0.011372745,0.014741665,0.039703753,0.03340291,0.0514391,0.10840368,0.3127992,0.083905965,-0.16754606,-0.06570348,-0.039627798,0.03895937,0.17249626,-0.023289772,0.038779315,-0.058230188,-0.0587641,0.13908422,0.000985072,-0.12761721,0.030471943,0.007847969,-0.01883966,0.22460997,0.021649238,-0.11284918,0.025508966,-0.08797375,0.18987903,0.02295047,-0.011951046,-0.024794644,-0.031323075,-0.003409763,-0.040229265,0.17295882,-0.001001354,-0.062097233,-0.003706165,0.103512816,0.18301617,-0.07332809,0.23517546,-0.020832455,0.001961198,0.002799455,0.039899956,-0.008183852,0.12123287,-0.000835214,-0.09758281,0.006043867,0.033262633,0.022336733,0.07144178,0.023330066,-0.07774661,-0.020435262,-0.08696758,0.06679908,-0.0749233,-0.000341803,0.00349886,-0.003076904,-0.03217557,-0.004368171,0.009692464,-0.018086458,-0.003904123,0.24668908,-0.10413906,-0.006941007,-0.011930695,-0.0879784,0.27853814,0.019307721,-0.040758643,-0.006509864,-0.09041414,-0.05172495,-0.13180374,0.10198275,0.001008665,0.002486389,1.1847379,138
2,-0.5264429,-0.1293029,0.17543823,-0.04745179,-0.22210807,-1.0027022,0.058191575,0.14791934,0.17145275,-0.12263028,-0.10926036,0.010554935,-0.000646416,0.022307437,-0.040138036,0.005918596,-0.005464502,-0.04034628,0.027010333,-0.020012729,0.018036742,0.009893131,-0.029940132,0.018254966,0.03866403,-0.02111317,-0.03284163,-0.036984824,-0.001743078,0.033187326,-0.001505628,0.03394557,0.03097295,-0.039099116,-0.029098358,0.039230313,-0.036309116,-0.04126816,0.025049914,0.042699467,0.025903154,0.027242143,-0.026931543,-0.07201583,-0.047302753,0.02916414,-0.04759622,-0.08698663,-0.015838789,0.008501671,0.039949466,0.025190119,0.007741198,0.03608166,0.02566592,-0.008947626,0.01278238,-0.021083599,-0.013898032,-0.031010184,-0.000432711,-0.002441317,-0.03963154,0.023732167,0.021028552,-0.023151735,0.039366502,-0.045559328,-0.018155023,-0.041380655,0.006407678,-0.0151252,0.034409147,0.027701292,0.028391328,0.020822454,-0.040612713,0.026160467,0.02728064,-0.018664263,-0.02343074,-0.002840243,0.023604926,-3.84E-05,-0.018093793,-0.020363012,-0.011669848,-0.00656848,-0.02546354,-0.002786614,-0.014182583,-0.027143717,0.008657791,0.024270352,-0.00981421,-0.02657363,-0.035128374,-0.00575212,-0.09997159,0.01731931,0.03460973,0.032530073,0.038147744,-0.0111655,-0.023333354,0.001034778,-0.024662435,0.021228258,-0.002386123,-0.039466284,0.008468665,0.14488395,-0.006550487,-0.002263684,0.027850192,-0.003768206,-0.00347149,0.016586803,0.03089321,-0.038815487,0.10073086,0.017258003,0.009274676,0.04163071,0.002021346,-0.010178782,0.012154061,-0.003233705,0.033679727,-0.007154759,-0.035627402,0.023902383,-0.011079829,0.00832988,0.028350044,0.04093771,-0.01958724,-0.001814462,0.64736223,-0.033487495,0.01831536,-0.033459283,0.038219344,0.019950803,0.029052254,-0.039579213,-0.015235357,0.005689949,-0.015775433,0.22279848,0.09135295,-0.011415327,-0.02369952,0.050154403,-0.026729137,-0.006959256,0.02267674,0.008866495,0.002852986,0.033733804,0.06464929,0.03916646,-0.0946831,-0.0403193,-0.017563209,0.028738942,-0.002313465,-0.037590995,0.17259236,-0.02812044,-0.001188926,0.03019083,-0.04103295,0.15714093,-0.022412535,0.000796452,-0.011987561,-0.028333759,0.011118614,0.20434307,0.17817749,0.01655988,-0.022036774,0.048605233,0.29622114,-0.007437572,0.002499036,-0.012927596,0.08155486,0.00933386,0.08727691,0.12916934,0.08396124,0.08157674,-0.02083711,0.05079904,-0.007073849,0.09466636,-0.034304548,-0.037371337,0.000213586,-0.02773724,0.012089673,0.028485019,-0.000167798,0.08418359,0.07416739,-0.023993691,-0.022103108,-0.040813528,-0.002338724,0.21726212,-0.002649549,0.2100028,-0.011920045,0.21518052,0.042396497,-0.00748771,0.009135792,-0.004741356,-0.07428781,0.07375278,0.057497013,-0.055674993,0.026276771,-0.02694944,0.11660473,-0.024358816,-0.01910045,0.06134528,-0.00540136,-0.001260514,0.02230092,0.20005384,-0.104335286,0.03789343,-0.016181393,-0.010736153,-0.034012243,0.020234937,0.113214225,0.28623968,-0.012964074,0.1004687,0.015972443,-0.008476462,0.03317437,0.002839353,0.015228563,-0.033724494,-0.003422829,-0.01914064,0.013137141,-0.02196787,0.13272001,0.009868901,-0.003599368,0.002667725,-0.000677023,-0.001299849,-0.1097367,-0.005697983,0.007268958,0.0983274,0.0657343,0.31728977,-0.020111592,-0.01575615,0.26801574,-0.0053504,-0.02660675,-0.058033425,0.067300126,0.008563137,0.025541082,0.115701385,0.002536293,-0.08128603,0.07808688,-0.045365505,0.34114036,-0.008714508,-0.01273911,-0.03579141,0.000322875,-0.035531145,0.28213444,0.08751526,0.084240496,0.21436164,0.28129837,0.28053793,-0.06566398,0.27468497,0.1688889,0.101289,-0.030919276,0.055311393,-0.009783682,-0.00602011,0.04259309,-0.038818315,-0.108413875,0.005892379,-0.097632825,0.014649016,0.003560342,-0.03996519,-0.03128096,0.05038084,0.014340453,-0.025140816,0.1932367,-0.039146636,-0.020306258,0.012514123,-0.03364231,-0.014655577,-0.038293067,0.043237746,-0.03696199,0.17557569,0.20022942,-0.041465864,-0.054045398,-0.04224012,-0.029294388,0.02382387,0.016458072,0.07700503,-0.026941521,0.000191814,-0.03196656,-0.03285213,0.15826471,-0.016520688,0.12886932,-0.00927332,-0.007131271,0.046139885,0.026047204,0.2564922,0.005759141,0.11844698,-0.028895043,-0.028919896,-0.03530764,-0.02139384,-0.024721056,0.1390321,0.008107205,0.029430827,-0.026157768,0.026723346,0.06986677,-0.14034165,0.27757066,0.30099154,0.018007312,-0.012655851,0.01352463,-0.03942902,-0.072792724,0.0178173,0.13663611,0.18759727,0.05091921,-0.011266178,0.04231849,-0.118783005,0.25038782,0.15228987,0.024363402,0.03690971,0.14949699,-0.032332703,-0.112717435,-0.04095743,0.025460662,0.013215125,-0.03973036,0.028697854,0.17221726,-0.046582203,0.03850546,-0.13216536,-0.08467326,0.021480832,0.018307332,0.074301906,-0.047739998,0.027564932,-0.010825255,0.16632512,-0.004193417,-0.033350125,0.017360155,0.030307036,-0.040077146,-0.031254068,0.010884137,0.086323135,-0.110595904,-0.05994036,-0.003038458,0.0201059,0.060047634,0.23872253,0.06783531,0.068772554,0.027121216,-0.004536033,0.021314692,0.007246498,-0.032915514,-0.067971244,0.023368929,0.028020386,0.34699464,0.07045029,-0.015728611,0.009075901,0.022203175,-0.03923648,0.02793565,-0.011755295,0.13963781,-0.05335776,-0.07633934,0.3033373,0.26654786,-0.03961093,0.043201916,0.010292483,-0.03223207,-0.002368286,-0.002808873,-0.024962224,-0.01215368,0.22508274,0.03750756,-0.001579266,0.004746725,0.046791337,-0.018245317,0.16177161,0.020888876,-0.013640475,0.25124604,0.007151056,0.011176414,0.009492535,0.030386843,0.14917213,-0.004187771,-0.011716343,-0.023194395,0.018896773,0.15183774,-0.018248092,-0.11368733,-0.05582039,-0.02478505,-0.02604332,-0.010279003,0.023926895,0.05155362,0.024655318,0.040811304,0.26418495,-0.061245605,0.21370827,0.070835635,0.013765957,0.14925824,0.13374276,-0.026027255,0.023424346,0.044241652,-0.071521685,0.023543611,-0.018458368,-0.05844485,0.10831037,0.009136207,-0.02463521,0.052162804,0.11670993,0.25229287,0.042223107,0.053376045,0.005510971,-0.056738883,-0.04221582,0.050994087,0.07612336,-0.013209909,0.038360316,0.031608023,0.029968211,0.02080145,0.03981403,0.007043749,-0.021451153,0.052178323,-0.03210033,0.02132883,0.024531567,-0.020952314,-0.028731264,0.029668946,-0.039543133,0.021578241,0.10621817,0.021314988,-0.1275195,-0.041861936,-0.037008114,0.01994041,-0.065342166,0.013778677,-0.017403072,0.29570106,-0.017985372,0.005649544,0.019049332,0.11964956,0.004999086,0.005414352,0.002600282,-0.012214333,0.031563308,-0.037026,-0.043495595,0.042807702,0.051999234,-0.047909416,0.21728352,0.18554723,0.016821448,0.067832075,0.25130376,-0.007426458,0.000597346,0.039789133,0.2819802,-0.017701287,0.64736223,138
3,-0.0854592,0.20717677,-0.15223598,0.12346159,0.032757994,0.2179168,-0.013936369,0.01155859,-0.33261794,0.013822078,-0.12147152,0.09833905,0.028921414,-0.031606153,0.020861622,-0.010023747,-0.012796035,0.014982447,0.023765657,-0.019882577,-0.02166345,0.038180146,0.03280953,-0.028551381,0.03097358,-0.032100543,-0.026971117,0.000245065,0.021804977,0.030783046,-0.007598706,0.021281179,-0.07721204,0.017424349,0.03308587,-0.03856633,-0.015121022,-0.01915171,0.016339488,-0.022033168,-0.003671669,-0.04111922,0.009941481,-0.03764,-0.02474932,0.021065716,-0.06664666,9.57E-05,-0.028467827,0.024153147,-0.009992771,-0.035166577,-0.037119307,0.014647663,-0.027771425,-0.014679661,0.02851529,-0.064486824,0.042295177,0.015841648,0.023095261,-0.041849576,0.019749809,-0.005629834,-0.018865079,-0.02731988,-0.028948434,0.008187226,0.014298167,-0.001158141,-0.03512568,0.007739097,-0.000760328,-0.009295069,-0.002645787,-0.011748714,-0.034401115,0.040752273,0.02987216,-0.022664852,-0.020280236,0.011494674,-0.002453007,-0.013928482,0.004708491,-0.005883429,0.02321409,-0.020630911,-0.027496472,-0.030594781,0.039722998,-0.008615021,-0.030958537,0.034114894,-0.001224298,-0.017678034,0.032813188,-0.031529877,-0.011568862,-0.039670732,-0.012444081,0.011581063,0.024137456,-0.009888023,-0.10909327,-0.009934671,-0.03879293,-0.02590046,-5.98E-05,-0.007697564,0.03688169,0.088750705,-0.04209607,0.032109533,-0.023544796,-0.029948413,-0.008533336,0.041574266,-0.001932662,0.04227468,-0.105530344,0.007771283,-0.013338486,0.012890849,0.037769612,-0.022374729,-0.026276458,0.013434529,-0.013852974,0.027884018,-0.003016412,0.03832392,0.000935547,-0.03505335,0.0067917,0.038210478,0.017194081,-0.023819668,0.001709968,-0.04152589,0.007448237,-0.006290719,0.008175142,0.017211229,0.022661868,-0.007747438,0.023668196,-0.010943528,0.022123534,0.18169333,0.023071982,-0.058046248,-0.105076246,-0.024664363,-0.081414595,-0.079593636,-0.07740829,-0.030507276,-0.10402004,0.034255248,0.06513307,-0.100248225,-0.053006854,-0.111169286,0.030285079,-0.10310841,0.03443976,-0.039778113,-0.07482774,-0.0335511,-0.001578309,-0.02527967,-0.028381456,-0.031128122,-0.034916125,-0.087650165,0.010922447,-0.03511607,-0.06800385,-0.09896061,0.17055085,-0.10888275,0.007239376,-0.10570313,-0.12868695,0.016014107,-0.07577634,-0.039879076,-0.039583247,-0.018870842,-0.092969745,0.2565727,-0.11256066,-0.10923251,-0.08726317,-0.09542923,0.028640619,0.1669166,0.024636954,-0.021489622,0.028887156,0.3989525,-0.027934045,-0.037191965,0.02227978,0.12574056,-0.089934126,-0.022584278,-0.02570496,-0.03101622,-0.036627974,-0.04166295,0.020110864,-0.106478825,0.17679107,0.19441485,-0.013873892,-0.0978615,0.026634684,-0.101722114,-0.11733201,-0.10846426,0.32071945,0.27238098,-0.113592215,0.01057319,-0.15659656,0.0417581,-0.08431964,-0.053807262,-0.073524676,-0.085243165,-0.11275279,0.45732856,-0.048377458,-0.112569444,0.17361565,-0.000772893,-0.023660403,0.19939554,0.29660225,0.1751395,0.032100696,-0.15887837,0.016487222,-0.083235025,0.010724891,0.021399315,-0.06444081,-0.022720166,-0.07910615,-0.097225115,0.030103566,0.011745028,0.14337173,0.10975418,-0.035091307,0.04034787,0.18940882,0.08817087,-0.107020505,0.060412806,-0.012651367,-0.09838666,-0.0929146,-0.10724002,-0.069238335,0.005672578,0.31240287,-0.09772946,-0.12258398,-0.028357014,-0.08969079,0.14257468,-0.029592294,-0.09347448,0.012037959,0.13787414,-0.052253395,-0.1050575,-0.09579577,-0.03594157,-0.08218284,-0.10681181,0.011318553,0.127909,-0.10813038,-0.057093404,-0.07369433,0.18037319,-0.049619827,-0.014414303,-0.08178951,-0.10578668,0.08960777,-0.11274991,-0.08276435,-0.09130885,-0.106112026,0.026891652,-0.07992073,0.08563778,-0.0718461,-0.020273028,-0.037346985,0.1427086,-0.033816043,-0.014986608,0.12503241,-0.09769916,0.011834018,-0.03735444,-0.09697651,-0.09058118,-0.088645756,-0.081063256,-0.011506546,-0.107884265,-0.08853638,-0.10997345,-0.0361118,-0.11266848,0.013304115,-0.076397195,-0.009593252,-0.088848025,-0.09257576,0.1166689,-0.01950553,-0.023222685,0.1939543,0.05288885,0.03779089,-0.028168729,-0.07445309,-0.037912656,0.04557258,-0.006291259,-0.035441574,-0.06750554,-0.03901221,-0.016225405,0.048697386,0.19005841,0.030955177,0.007638853,-0.10862348,-0.022244776,-0.022480141,-0.0633425,-0.10335002,-0.004466674,-0.10702899,0.23639919,-0.08273494,-0.09316096,-0.03604905,-0.105892144,-0.055266872,-0.09515895,0.13568595,0.034531437,-0.080206454,0.02872331,-0.10805969,-0.08985647,-0.0299101,0.11171465,-0.010359049,0.04249021,-0.11315829,-0.09729685,-0.029456403,0.23904969,-0.10306733,-0.09894825,0.024629207,0.04096387,-0.03438447,-0.017032955,-0.14899062,-0.08304468,0.09682207,-0.104442246,-0.035720464,-0.35424787,-0.08002348,-0.03543203,-0.107846074,-0.02177649,0.060862612,-0.017955791,-0.17769766,-0.10506048,-0.04065994,-0.014472242,-0.08149141,-0.08745108,-0.1086874,-0.10900218,-0.06631777,-0.08586576,-0.04688919,-0.07010906,-0.12121199,-0.03371896,-0.080478296,-0.10721883,-0.11296765,-0.11567311,-0.044859763,0.007490285,-0.01450474,-0.09620993,-0.09810524,-0.08413249,0.006235976,0.008291431,-0.08491106,-0.07412279,0.004438274,-0.09258002,0.1218867,-0.09245316,0.03160421,-0.0942688,-0.0351687,-0.00157326,-0.04961699,-0.11166296,-0.083891824,0.039735954,-0.10596019,-0.10208938,-0.07637307,-0.040720813,-0.09899821,-0.07411338,-0.06530192,-0.10439182,0.040156636,-0.03997473,-0.09627641,-0.07365544,-0.040839843,0.03424641,-0.01991815,-0.07821281,-0.011109831,-0.028175727,0.14790033,0.07141135,-0.06681934,-0.08998324,-0.092927374,0.063506216,-0.08660194,0.02124716,-0.10629522,0.23838107,0.12877984,-0.090479106,-0.019169468,0.019308608,-0.029749524,-0.03081328,-0.075333655,-0.107200176,0.04126698,-0.15678853,-0.07608791,-0.043602753,0.15336612,0.020172033,-0.040248312,-0.066102795,-0.01320526,-0.039828163,-0.10651244,-0.1145092,0.033170186,-0.11163098,-0.0839015,-0.110365205,0.002342165,0.078909025,-0.09661423,0.049169198,0.24939953,-0.03351425,0.06769851,-0.061794534,0.113647565,-0.033050638,0.16058083,-0.039732352,-0.11805409,-0.017433163,-0.09559356,-0.08831184,-0.041824646,-0.03887263,0.08885625,-0.061017275,-0.11395941,-0.08171484,-0.10121469,0.1678412,-0.11227637,-0.008943137,0.0269042,-0.1045229,0.01990128,0.0370302,-0.119137414,0.1750225,-0.026182275,-0.022791892,0.030379575,-0.109553754,0.072002895,-0.02211146,-0.10564023,-0.074496076,0.013715573,0.012454547,-0.1030383,-0.11774612,-0.020377038,-0.041286062,-0.010960843,-0.038409233,0.13047129,-0.052089367,-0.09853793,-0.057429466,-0.11336853,0.004395601,-0.08668894,-0.015041396,-0.106571585,-0.08304503,-0.021399077,-0.060095046,-0.08629392,-0.08880486,-0.037930436,0.45732856,233
4,-0.19209313,0.085321754,0.37654832,0.12689899,-0.08141362,-0.025917461,-0.183985,0.30724078,-0.07468001,0.12601605,-0.011182387,0.23694913,-0.031630844,-0.012517763,0.034217183,0.031057786,-0.014623012,0.01708049,0.01678637,0.015898999,-0.028454266,-0.03178524,-0.039836064,0.011447951,-0.010128103,-0.035106324,0.018780794,-0.006622627,-0.03547482,-0.037199058,-0.023177633,0.000844378,0.07145903,-0.000292525,0.014347326,0.02667905,0.000859104,-0.017264232,-0.03122243,0.013012782,-0.024334477,0.033010762,0.040411826,-0.10791515,0.18227895,-0.04125234,0.25213295,-0.115534395,-0.010318164,-0.018563004,-0.023011051,0.035739604,-0.018451268,0.000491321,0.025771346,0.028525274,0.017088383,-0.11375134,-0.031909022,-0.02880213,0.00285206,0.019349825,0.008094348,0.011952385,0.004563719,-0.017485676,0.011663258,0.12004863,-0.04198404,0.042051416,0.002626672,-0.015094256,-0.002415158,-0.037899554,-0.017826337,0.035127427,-0.005648635,0.00823601,-0.027422957,-0.060046613,0.028516289,-0.010703065,-0.003831629,0.000593916,0.038443837,0.008148622,-0.03434188,0.002913371,0.030693363,0.001901332,0.012735482,-0.020379612,0.02694561,-0.037956186,-0.008397959,-0.001801018,0.006385155,0.006587666,0.24863939,-0.00462332,0.008669425,0.009682216,0.031063039,-0.024163788,-0.12350741,-0.017308239,0.007296268,-0.028113842,0.005620912,0.038725544,0.015932616,0.21759847,0.017357048,0.007213533,-0.002102591,0.011000369,0.007141925,-0.011108208,-0.002291821,-0.003087655,-0.17200162,-0.021789774,0.011383049,-0.004483808,-0.021811066,0.004118577,-0.018361462,-0.032273475,0.007135347,-0.033257883,0.001376223,0.004412901,-0.024009686,0.022697624,-0.034466796,-0.00674187,-0.040593807,0.019887585,0.34645054,-0.007371098,-0.024497313,0.02870429,-0.019717056,0.012135025,-0.031624854,-0.020824919,-0.03546609,0.02541421,0.016277999,-0.23663768,-0.13700262,-0.09003776,-0.17183833,-0.045400307,-0.22008996,-0.24024501,-0.06164782,-0.02939647,-0.076980315,-0.03798048,-0.100274175,0.10618777,-0.10686296,0.004885506,0.039433043,-0.2431908,0.00637627,-0.104314394,-0.06429337,0.024939615,-0.031997662,0.029816959,0.031318415,-0.09024941,-0.037398316,-0.24585086,-0.022018937,0.014068328,-0.25284162,-0.24941553,-0.15242402,0.1397184,0.08019216,-0.15665427,-0.060404528,-0.02475933,-0.060947157,0.039600667,-0.23883975,-0.04790651,-0.06109291,0.011517214,-0.030746678,-0.07467595,-0.08649879,0.06715698,0.11226663,-0.038636155,-0.03495266,0.002359983,-0.015001103,-0.23634204,0.023982774,-0.025656905,-0.010530673,-0.24066204,-0.24888206,0.026724812,-0.037020173,-0.027598498,-0.1588433,-0.14715323,-0.02653998,-0.03658316,-0.24896613,-0.10734875,0.04036803,0.05629831,-0.080947034,-0.25286716,-0.22233284,-0.0719359,0.34348577,-0.000362859,-0.07451917,-0.041788973,-0.2305444,0.027099345,-0.24661472,-0.23833579,-0.24548185,-0.18849142,-0.19078496,0.1564766,0.10368053,-0.24532849,0.0974254,-0.028538436,0.036790635,-0.25432125,-0.21616264,-0.23855022,0.020247731,-0.2192811,-0.030094566,-0.17202513,0.010405421,-0.039304636,-0.1323648,-0.031244474,-0.13600598,-0.091726966,-0.09265653,0.00186896,-0.14881015,0.07116092,0.006071754,0.039254796,-0.16908178,-0.03425787,-0.08322325,0.06524512,0.018305633,0.081083655,0.04021646,-0.25492257,-0.045881916,-0.034998644,-0.18117052,-0.22647016,-0.029742727,-0.2543317,-0.05597312,-0.24201016,-0.2475208,-0.051874608,0.041584853,-0.07001523,-0.08351615,-0.20091248,0.19513512,-0.001650412,-0.12762164,-0.11753884,-0.042479303,-0.17308365,-0.06410152,-0.07940564,-0.2340649,-0.038396366,0.1532185,-0.25548294,-0.064067096,0.054870874,-0.16682675,-0.24965832,0.12253426,-0.23395735,-0.04036911,0.028848324,0.051546846,-0.2531771,-0.022457786,-0.066260695,-0.14004621,-0.1230589,-0.016392056,-0.007508401,-0.2516119,-0.23740448,0.022825066,-0.004480679,-0.14098391,-0.060827415,-0.046465036,-0.10724009,0.036592398,-0.20173223,-0.1287019,-0.10476702,-0.12283561,-0.029630305,-0.4052026,-0.15973751,-0.043736927,-0.21929021,-0.006375124,-0.048872124,0.017870937,-0.09630965,-0.07559548,-0.1178637,-0.02614388,0.19405174,-0.1241899,-0.06616629,-0.24861616,-0.001279015,-0.030206904,0.010458305,-0.1472477,0.11001084,-0.24942261,0.05105292,-0.03899987,-0.003235232,-0.07697773,0.03223102,-0.033943336,0.028852044,0.002842504,-0.24560669,-0.09452402,-0.07266038,-0.2263039,-0.11971801,-0.027402278,0.19285248,-0.08817305,-0.12076637,-0.25513804,-0.023987377,0.13971686,0.010078009,0.038657483,-0.020400593,-0.06209286,-0.24640867,0.025952492,-0.1628162,-0.107925415,0.22743538,-0.032355867,-0.23152032,-0.14900808,-0.2510571,0.012806308,-0.011155408,-0.05441633,0.005329642,-0.25275466,-0.20041189,-0.07671831,0.018693686,-0.2524377,0.1538863,0.059402436,-0.008951072,-0.17741127,-0.17470461,-0.03244361,-0.013691893,0.004190167,0.05020217,-0.23761612,0.001763038,-0.25210902,-0.24029534,0.33922738,0.2348031,-0.051597256,-0.1663997,0.1316232,-0.19889726,-0.18816166,0.1560816,-0.22048415,-0.25540018,-0.17565386,-0.012002555,0.16926138,0.034844372,-0.017631283,-0.09588199,-0.24690953,-0.025585439,0.006378707,0.0314542,0.13217632,-0.18518598,0.013550334,0.059695516,-0.111534916,-0.2584396,-0.02848382,-0.24067234,0.046636093,0.11369364,0.22281946,-0.075080864,-0.2352443,-0.15308452,-0.24442899,-0.108702764,-0.10957332,-0.011736089,-0.13955198,-0.15996431,0.001554274,0.03900848,-0.027947508,0.110619396,-0.061683938,0.1115048,0.003504239,-0.23782623,-0.011185598,-0.10044724,-0.24230361,-0.020751823,-0.24224254,-0.24577507,-0.25023746,-0.11623349,-0.11107811,0.08461477,-0.23580083,0.002032638,-0.2178421,-0.31210634,0.08381669,-0.088278115,-0.03460411,-0.023332495,-0.083866455,0.03397916,0.07978796,-0.020577747,-0.23313236,0.25462103,-0.150688,-0.23243937,-0.06818222,0.026659656,-0.09661584,-0.23819986,0.005128637,-0.021669323,0.18257394,-0.090214126,0.212949,-0.24795082,-0.18212235,-0.1580183,-0.040492907,-0.00860437,-0.24231243,-0.23933654,-0.07111922,0.008585818,0.14100271,-0.25328964,0.17110161,-0.014601568,-0.20862344,-0.1451703,0.066982396,-0.025801029,0.18773884,0.14106606,0.0640136,0.011606157,-0.15139735,-0.2424376,-0.19075899,-0.21068643,0.06617428,-0.13531128,-0.11533005,0.010187462,-0.03708001,-0.2476067,0.0193563,0.1395903,-0.19807534,0.010827933,0.04173476,0.20743518,0.003979921,0.3313185,-0.16403578,-0.1792258,-0.14049846,-0.10509264,-0.014898164,-0.023692518,-0.047123138,0.16202834,-0.012923762,0.028841812,-0.03799499,0.039289463,-0.21949725,-0.23720394,0.12261667,0.12030633,0.020364592,0.09043409,-0.23069191,-0.019474596,-0.24702743,0.001573562,-0.24389234,0.09186466,-0.24804898,-0.24603546,0.04118939,0.37654832,2
5,-0.5822768,-0.096345864,0.49226782,0.19534995,-0.5244995,-0.72988856,0.056122653,0.18052599,0.43274477,0.008761708,0.04195747,0.04687952,-0.040356606,0.005401395,-0.0166206,0.00215127,0.018527787,-0.019734172,0.00695172,0.009976178,0.006687883,-0.012450418,-0.032869507,0.000709858,0.020232107,0.008220345,0.003078509,-0.026425648,-0.024660107,0.011859775,-0.023634499,-0.017835358,-0.122731864,0.042348046,0.04012392,-0.0163327,0.00030731,-0.021281924,-0.027493907,-0.01422208,0.033049475,0.012914833,-0.001548026,-0.20446226,-0.03472598,0.023834962,0.17673746,-0.005994777,0.017493572,-0.009610835,0.042308267,-0.033858053,0.008301284,0.04233622,0.02633189,-0.029763239,-0.022906277,-0.09286933,0.028445896,0.021324154,0.022797648,-0.03012339,0.036998745,-0.039531436,-0.003074858,0.008462671,-0.001850367,-0.037078604,0.01818712,-0.012878306,0.022280779,-0.00520115,-0.038153157,-0.038286824,0.011304271,0.032083523,-0.013776733,-0.036348294,-0.002020285,0.045018822,0.007084202,0.029299695,0.009264961,-0.019217549,0.011653956,-0.041311227,0.028736178,6.37E-05,-0.004007477,0.011795603,-0.02554155,0.04050168,0.01407731,0.018429693,-0.013166808,0.029924933,-0.028903179,-0.033118315,0.09717313,-0.030420132,0.007403269,0.04261264,0.023878332,-0.030893931,-0.027136046,-0.01684385,0.02264801,-0.018739682,0.017580457,0.002502099,-0.031933114,0.006997524,-0.034779824,-0.03766396,0.02805413,0.012837857,-0.005052917,0.042634223,-0.04136628,-0.007107426,0.012132779,-0.028262533,-0.032639142,-0.025641292,0.009049382,0.041199382,0.017523706,-0.015530471,0.005403213,0.03583264,0.029598076,-0.01363156,-0.02561697,0.02181613,0.015661791,-0.019397626,-0.041047473,-0.041785188,1.1498947,-0.021493133,0.02821381,-0.0362262,0.005067904,-0.036175597,0.037397545,0.000153016,-0.040830467,-0.005310547,-0.003088184,0.23004802,-0.07404601,0.16982701,-0.021712994,0.18888472,0.014952576,0.06367212,0.060677957,0.06088243,0.005594334,-0.014404977,0.20981193,0.0755264,-0.07375444,0.010478718,-0.027258344,0.06520514,0.042294104,-0.024089998,0.02869524,0.027455013,0.01914794,0.04033952,0.01825802,0.006633726,0.008698113,0.007978876,-0.037726346,0.02160706,0.14864342,0.042814836,0.16681789,0.13384192,0.044850234,0.08256851,0.068351194,-0.007905409,0.015118342,-0.013166416,0.017504409,0.10881429,0.40998292,0.092153765,0.10408485,0.078131326,-0.021462144,0.06385845,-0.047673166,-0.080560856,-0.038642693,0.03541946,0.007144969,0.106598645,-0.028398704,0.015877474,0.015724309,0.110420994,0.08493285,0.023124922,-0.015263049,-0.038498484,0.13922691,0.056790836,0.01532324,0.004186131,0.024118867,0.07595484,-0.026977213,0.020684516,-0.007381714,0.12429446,-0.005494551,0.0833932,-0.014692497,0.05387476,0.02585033,0.018132437,0.007394734,-0.008395057,0.075881265,0.07087834,0.023290254,0.11106553,0.33888134,-0.026251603,-0.055254653,0.10564328,-0.049879406,0.020409506,-0.011882462,0.02408464,0.12739907,0.039424755,0.030201677,-0.013632328,-0.03760376,0.004947747,-0.016800698,-0.041274544,0.13500297,-0.034989387,-0.022289146,0.23937929,0.055697355,-0.035655774,0.08502746,-0.016628131,0.021729399,0.008663125,-0.008449866,0.04676695,0.055912927,0.13248442,-0.015713494,0.03272022,0.015279399,0.12225821,-0.059437472,-0.026193514,0.08006133,-0.14961109,0.043975227,0.11161352,0.058455646,0.252137,0.032474376,-0.00453717,0.04133809,0.036804877,0.045899935,-0.046539623,-0.029719882,-0.015952177,-0.044377424,-0.018661838,-0.0279151,0.07413841,0.11129656,0.18415108,0.15755858,-0.042030167,-0.02462582,0.22542067,-0.0183135,0.023004316,-0.035110217,0.122975394,-0.11085621,0.109378055,-0.00863348,0.002751362,0.053249564,0.041968625,-0.010277183,-0.012462374,-0.003984855,0.02078803,-0.026827294,0.004464604,0.01600112,0.030269982,-0.021417264,0.006072443,0.035731915,-0.034117606,0.019870408,0.07032295,0.022578608,0.1062488,0.03897805,0.06960809,-0.055179313,-0.03823713,0.14785786,-0.018959913,0.031698,0.01749673,0.00211643,0.07547993,-0.003925078,-0.036492042,0.038506266,0.024873372,0.008503083,0.03245906,0.22099476,0.016982563,-0.0007675,-0.021790722,-0.005353555,0.16043918,0.09734353,0.07181585,-0.003256362,0.084452875,-0.001676649,-0.025516946,0.18333581,0.04049444,-0.023075448,0.007516819,-0.12276631,0.31883594,-0.08513127,-0.010210229,0.15800281,0.041018758,0.06720582,-0.038522072,0.02205102,0.009135478,-0.017873093,0.00944192,0.078099996,0.0270438,-0.006081217,-0.019029371,0.16233566,-0.06835465,-0.015394595,-0.06342651,0.11357456,-0.020666484,-0.01857284,0.054555938,0.17999387,-0.07967934,-0.19479857,-0.027224235,0.018814974,-0.00489571,-0.013975429,-0.08043117,0.07119647,0.00809414,0.05196129,0.00339151,-0.030402696,0.025205027,0.116730146,0.04260501,-0.16528486,0.031154621,0.03450833,0.04009056,0.2028191,-0.009301089,0.051770434,0.27004337,-0.07138668,-0.12376827,0.039938945,0.02073449,-0.026960688,0.025602508,0.045111757,0.22781333,0.10147688,0.07115385,0.4684609,0.45497307,0.07286229,-0.000537228,0.03442118,0.050942756,-0.044270203,-0.073162615,0.035989236,0.026803363,-0.005939248,0.102571376,0.009974994,0.096171856,0.001087529,0.024545927,0.033784408,0.012494795,0.08478187,0.05691687,0.18563315,0.2507601,0.020720765,-0.004278318,0.007270614,0.001328748,0.016794946,0.01108788,0.20368692,-0.022472061,0.020368304,0.089254044,0.025118072,0.22957703,0.17823233,-0.12952447,0.005846214,0.12201852,0.010187682,0.036001626,-0.002445151,0.018869366,0.004499116,0.10614608,0.28411514,0.26605555,-0.005043799,-0.036829095,0.12628081,0.029019888,-0.014284458,0.1480185,-0.15448485,0.049824737,0.020428602,-0.025531687,0.29387727,0.002361618,0.10557622,0.07735404,0.10542214,0.232115,-0.022256186,0.17125092,0.17174183,-0.002743833,0.22750436,0.004677602,-0.03546975,0.02145135,0.056335066,0.06981812,0.14501199,0.009508749,0.091023885,-0.008960579,-0.040145967,0.16301873,0.06330783,0.12319654,-0.088685386,-0.025730303,0.016513651,0.24636258,0.005305661,0.001188085,0.092390835,0.13218561,0.26050594,0.00486761,0.006837375,0.07996782,-0.039826512,0.03640658,0.056188907,0.12398538,0.017985404,0.26612097,0.07444783,0.09480117,0.02225694,0.025649678,-0.03483547,-0.05205388,-0.004624613,0.07877127,-0.012552029,-0.15849504,-0.029103797,-0.028274754,-0.020714233,0.16945885,0.14383844,0.037629604,0.055928178,-0.030449228,0.0389742,-0.029065803,0.06358577,-0.002349379,0.033161845,0.025642987,0.019886423,0.003479216,0.2700101,0.022735393,0.27959257,0.06494619,0.07314806,-0.09171247,0.08435772,0.006216817,0.020767942,-0.024230288,0.010468816,0.14089869,0.23472428,0.09195084,-0.014232341,1.1498947,138
6,-0.36791626,-0.01911521,0.8909497,0.20014937,0.07493793,-0.29906774,0.18422528,0.3885742,0.26749954,-0.23703846,-0.021452755,-0.012542882,-0.015706088,-0.01833717,-0.035660066,0.001126789,-0.007414941,0.002696417,0.002483185,-0.036533557,-0.04153727,0.007033702,-0.038929723,0.036844242,-0.004284881,-0.023561154,-0.029706234,-0.002148889,0.007591151,0.04208872,0.031371634,0.032754306,-0.055887148,-0.015884556,-0.012443306,-0.004748661,0.021907736,0.011636745,-0.023945382,-0.036170032,0.009878393,0.04192533,-0.03257051,-0.012302135,-0.0462917,0.012936108,-0.05418335,-0.002013071,-0.008152813,-0.024309218,0.001257252,0.023815196,-0.041998155,0.001362249,-0.017473847,-0.015520705,0.03948276,0.08587082,0.005205095,0.012579188,-0.014644705,0.000423778,0.017465696,-0.011642916,-0.036620226,0.018875737,-0.010645993,-0.000862035,-0.041784495,0.03673577,-0.013615454,-0.027993161,-0.042369537,0.010230199,-0.032456413,-0.04003528,0.028559234,0.005875278,0.022959258,-0.077555336,-0.036685284,-0.008305013,0.003117349,-0.03148589,-0.025620513,0.029597681,-1.92E-05,0.033610146,0.010832667,0.019615997,-0.01941362,-0.02708012,-0.011043232,0.015265767,0.041572515,-0.042239025,0.001917899,-0.008164819,-0.21868458,0.015213598,-0.018540516,-0.022916645,-0.03689603,-0.009195291,0.01850314,0.011162236,0.016850546,0.030129332,-0.011135027,-0.040644813,-0.005865514,0.04049411,0.03862359,0.019167092,0.010597024,0.039450515,0.016523894,-0.037294444,-0.041919526,0.036057863,0.000847683,-0.012737757,0.010254338,0.036314066,0.040099394,-0.003702935,-0.003969561,-0.039747227,-0.039441463,0.014661521,-0.023420872,0.004300684,0.036117245,-0.025025273,0.02592149,0.04172268,-0.03186945,-0.02065237,0.6070948,0.032547157,0.01690019,-0.010498334,0.005624119,-0.01506364,0.023815084,0.012036655,0.005320299,0.023908611,0.02017155,0.26851815,-0.06689456,0.05805039,-0.05401886,0.06818309,0.13356483,0.1608039,0.25057778,0.081507206,0.00737263,-0.021508368,0.06566149,0.11250514,-0.013179634,0.07811187,0.017020106,0.08088056,-0.009645693,0.030681984,0.10037845,-0.016134936,0.033566047,0.022373896,0.004727226,-0.04715173,0.030200187,-0.006583229,0.03900833,0.029180001,0.064740375,0.09904164,0.07170758,0.13625401,0.07168073,-0.006595849,0.018529555,-0.03994379,0.09041216,-0.03146178,0.1418484,0.18093808,0.11225055,-0.06956811,0.023125239,0.023131441,-0.017888332,0.07330234,-0.049791016,0.1524458,0.0325451,0.039246116,-0.030796716,-0.09249333,0.016926136,0.035208497,-0.035534,0.1080308,0.08724567,-0.001956135,-0.003349926,0.002206367,0.19437025,0.087308824,0.023292582,0.039894227,0.21531369,0.032633733,-0.004102811,0.12770838,0.15819646,0.11715554,-0.022161469,0.18175061,0.06571793,-0.060667306,0.14695495,0.016777523,-0.013103453,0.03377449,0.24064845,-0.011403414,0.15896183,0.086819895,0.07553631,0.17778598,-0.08462138,0.23712318,0.004206554,-0.027422305,0.039544728,0.048357137,0.061722085,0.05695979,-0.041767262,0.026770169,0.013356444,-0.045229144,0.017920706,0.003464256,0.0542585,-0.007576488,-0.04904514,0.023585217,0.19349754,-0.026544098,-0.040693354,0.07541229,-0.011477135,-0.006339312,0.31534666,0.037640188,-0.037600517,0.040683817,-0.018759647,0.100852855,0.11754973,0.012927474,0.031366102,-0.027802002,0.15881321,-0.02264738,-0.00795555,0.06918581,0.023336409,0.20634207,0.019212825,-0.024192844,0.031727146,0.048060074,0.09412482,0.15950389,-0.006336477,-0.028105916,0.03210509,-0.08467961,0.04090034,0.11966634,0.000898926,0.06866307,-0.00090774,0.119862966,0.12894568,0.15673083,0.016841574,0.12530029,-0.13450894,-0.03954956,-0.020734487,0.22328676,0.023721714,-0.019462429,0.2328392,0.04611302,-0.057728235,0.12363148,-0.01601432,0.004114445,-0.021220285,-0.02746254,-0.019467507,0.16892096,0.017847307,0.035393532,-0.06300981,0.026618822,-0.02847529,0.034942094,0.031395014,-0.01734621,-0.009158905,0.12859553,0.11971271,0.18917862,0.19935232,-0.03696875,-0.026965717,0.21801093,0.0186917,0.0550372,0.014770519,-0.08778038,-0.02321706,0.033335198,0.029159319,0.17112915,-0.0994874,0.004375111,0.2805417,-0.040801298,0.026424643,0.15323354,0.17155904,0.101303406,0.008888292,0.17401277,-0.034111194,-0.014740966,-0.058698215,-0.038895775,-0.023685409,0.0412824,0.085261196,0.139068,0.20806137,0.23292223,0.30645165,0.066197135,0.001615668,-0.050306533,0.11243359,0.18421498,0.16528904,0.05486035,0.0580222,-0.012464246,0.16385251,-0.18953492,0.08966087,-0.015357054,0.012161501,0.031770803,-0.033950754,0.023619942,-0.003932454,0.23180355,0.12121025,-0.08032741,-0.04576586,-0.042448577,-0.003361047,0.042383734,0.18117419,0.046369225,0.040824518,0.011392426,-0.03097767,-0.012133697,-0.022724718,0.025684815,0.032635015,-0.028075572,-0.069818325,-0.030538557,-0.036811683,0.068269946,-0.03398001,0.015443455,0.15256971,0.055838455,-0.12500748,-0.10549991,0.03262867,0.07719396,-0.024501104,0.007146508,-0.050349575,-0.057974316,0.05150802,0.21778305,0.15031074,-0.16462818,-0.064288445,0.040405545,-0.021562321,0.2928644,0.033731,-0.006171251,0.028784957,0.003648851,0.015819624,-0.04859161,-0.041423127,0.20575622,0.044282757,0.20930228,-0.032894354,0.11773138,-0.010340028,-0.0354959,-0.04039934,-0.14856064,0.017109023,0.09853923,0.13120286,0.014852479,-0.02499007,-0.015494097,0.002706854,-0.01251862,0.24265979,0.14296284,-0.015324611,0.023194224,0.080383554,-0.16125132,0.02533887,0.040565617,-0.031111743,-0.04771886,-0.046974815,-0.03425944,-0.014987744,-0.007132744,0.11298302,0.16249141,0.18318494,0.023243083,-0.014402095,-0.036936566,0.065802395,-0.012037919,-0.20793687,0.004729002,-0.033695064,-0.040731635,0.09284538,-0.006384324,0.09332663,-0.0210963,-0.002799026,-0.043024484,-0.007056214,-0.046796385,-0.03969189,-0.037733894,0.10093647,0.16034976,0.022404548,-0.034406826,-0.000690441,0.15598218,0.045807082,0.007928967,0.29971656,0.06276997,-0.04072138,0.08435014,-0.018116547,0.000403262,0.05773166,-0.034941312,0.05830111,0.16471677,0.18378972,0.03354303,-0.006191129,0.066533364,-0.111051045,0.022818271,0.34058717,0.023959178,-0.04222149,0.026078526,0.18524559,0.05761807,-0.03344635,-0.059582923,0.07140152,0.032232404,0.052490316,-0.040701207,0.017493363,0.06617326,-0.003359173,0.116667025,0.006588433,-0.033518095,-0.026517348,-0.025074128,-0.026656374,-0.1924355,0.039528873,-0.009917402,-0.03366461,0.006878837,0.037077043,0.024679657,0.004308853,-0.056463033,0.022417542,0.005744856,0.009791452,0.013127297,0.083021104,-0.086333446,0.09284069,0.16511244,0.13334809,0.2591737,-0.097820245,0.035066854,0.05671569,0.24061511,0.09002237,-0.030760065,-0.010781085,-0.04049719,-0.017886553,0.8909497,2
7,0.06777973,-0.061907005,0.046531443,-0.1651543,0.1657329,0.29101613,-0.006150842,0.09167396,0.09025715,-0.13246284,0.11881226,0.15368916,-2.04E-05,0.000221964,0.028287265,-0.023837116,0.0382155,-0.00675083,-0.038159,0.016126677,0.018963218,0.0313011,-0.006478671,-0.021655947,0.037473936,0.032225866,0.019101862,-0.039806623,0.023555573,0.041777093,0.01899629,0.020717386,-0.082956575,-0.023873525,-0.017113773,-0.04098121,0.02159566,0.006536271,-0.001134198,0.0023694,0.028191935,-0.03473577,0.015401736,-0.28950065,-0.06392795,-0.027893733,0.042862307,-0.07490225,-0.030914273,-0.03411007,0.036043037,-0.030465491,0.00106984,-0.020935254,-0.03881433,-0.034269564,0.04143962,-0.083331466,0.025915023,-0.015920356,-0.020864137,0.025556441,-0.001334574,-0.019074455,-0.012161762,-0.00720669,0.033227663,-0.06626984,0.039133754,-0.014538417,-0.033912346,0.030199837,0.039325263,-0.023799572,0.004876085,0.028223503,-0.032726333,0.041968312,0.015303131,-0.1506167,0.030640129,-0.03150351,-0.013339654,-0.015414089,0.025633488,0.024114665,0.005221795,0.003195006,0.034358557,-0.020404715,-0.011120748,-0.024803028,-0.006514017,-0.041652285,0.027204107,-0.022800418,0.023734536,0.005611979,-0.69701695,-0.034432366,0.00514574,0.038153145,0.0099665,0.02153622,-0.07937534,0.003982462,-0.032913264,0.003313884,-0.037721112,0.029262718,0.019188989,0.2785526,-0.032575205,-0.039027426,0.009868056,0.024851304,0.013106477,0.026786026,-0.03373456,0.022257637,0.08218168,0.0419184,-0.037070666,0.01269336,0.00602179,0.009416889,0.041616272,0.038266238,0.037762757,-0.004282787,-0.027897246,0.026808668,0.013870433,0.018329933,0.022483673,0.013769664,0.039371733,-0.027039483,0.075055376,-0.011282265,-0.0323648,0.03361917,-0.013565084,0.015765551,-0.01607632,0.014335055,-0.009918146,-0.00876902,0.036066014,-0.07941212,-0.13815126,0.15927713,0.27078184,0.19881037,0.17753759,0.13615376,0.16791293,0.14821227,-0.0638174,0.037427556,0.14334127,-0.12629698,-0.023760982,0.08708466,-0.03771553,0.080837704,0.021950562,0.21438883,0.20669678,-0.030447397,0.039092246,-0.006500624,-0.034861855,0.011633348,-0.01064153,0.16675049,0.011373263,-0.011604006,-0.13011464,0.20205757,-0.07385524,-0.010209372,0.24454725,-0.09074837,0.22632289,-0.002474934,-0.03097118,0.024009604,0.11182551,0.17729563,-0.08808826,0.0196121,-0.04737161,-0.16072626,0.15621294,0.16502614,-0.025999721,-0.1319242,-0.04768644,-0.01668002,-0.02600099,-0.066035904,-0.0134995,-0.02156095,0.013856329,0.081471086,0.09185407,0.023998816,0.004167181,-0.038369063,-0.12800725,-0.059174612,-0.04000239,0.15161876,0.08427119,-0.010764306,-0.003127363,0.12209019,-0.12124875,0.06129272,-0.053321183,0.1341185,0.022664033,-0.052492503,-0.13896155,0.03989916,0.11222398,-0.011296812,-0.09930312,-0.054816302,0.0510433,0.09929393,0.12298709,-0.05370708,0.13255572,-0.104852885,0.09356395,0.029502023,-0.019228008,-0.12146703,-0.1579146,-0.004837511,-0.01792054,-0.141105,-0.019701725,-0.11334734,0.03198466,-0.036707804,0.09030412,-0.017976644,-0.037980944,-0.06160987,-0.0792635,-0.008655027,0.21918115,-0.07052064,-0.02189087,0.001678418,0.18708263,-0.061941035,-0.15196985,-0.033763,0.011230975,0.11572562,0.11197559,-0.046749096,-0.000831838,0.009326495,-0.1528144,0.011168877,0.2826297,-0.10820781,0.13272676,-0.042007975,-0.07391189,0.041895512,-0.007344283,-0.12916136,-0.026157271,0.10924021,0.057519488,-0.020162912,0.008074592,-0.14579244,-0.029753663,0.21198413,0.12998554,0.08305355,-0.056016102,-0.14316867,0.003585618,-0.05759559,-0.06028379,0.11505382,-0.11896795,-0.08803455,0.14095783,0.18915169,0.20207755,-0.016832886,0.27457976,0.068793215,0.09637841,-0.044154763,-0.043832067,0.12331364,-0.012702536,0.040573496,0.12615828,-0.16327366,0.035385568,0.010021899,0.22803393,0.14441226,-0.055409852,0.12321623,0.011861809,-0.047105175,-0.072283514,0.07677033,-0.06253212,0.06336683,-0.14308679,0.2002965,0.04779767,-0.12385012,-0.13192564,-0.010041047,0.010677613,0.04924669,0.050932623,0.19644253,-0.0407776,0.2042648,0.11077997,0.20838258,-0.09194438,-0.039608944,0.013412241,-0.10994479,0.12237856,0.10172604,0.25722826,-0.10148036,0.042023364,-0.036729373,-0.045045864,0.033421252,0.021577735,0.08224512,0.21882851,0.05820506,-0.027115915,-0.18946536,-0.051553607,-0.05969139,0.14198758,0.08289537,0.2460729,0.048474234,0.1669715,0.094122864,-0.0774591,-0.004010707,-0.10466078,0.11564613,0.27821997,0.06110598,-0.006843019,-0.08438834,-0.07964934,0.005668997,0.003570557,0.31199905,0.13917218,-0.0549096,-0.002369738,-0.037690237,-0.06762196,0.033147734,-0.12261829,0.001296699,-0.14252049,-0.10204222,-0.15846154,-0.29612023,-0.04341546,-0.042259116,-0.054913912,0.050101817,-0.0996703,-0.023800362,-0.1201179,-0.000996604,-0.061833683,0.011751138,-0.03657786,-0.12422147,-0.15639336,0.20197009,-0.03170117,-0.026313208,-0.03798266,-0.012121916,-0.13125291,-0.056150544,-0.010278918,-0.023817996,-0.08071654,-0.1437583,-0.17686732,0.00936624,0.027741376,0.000259244,-0.16024809,0.007208735,-0.026838578,0.014424805,0.07988527,-0.07486823,0.03168315,-0.025826218,-0.0755357,-0.07159252,0.036112618,-0.02792294,-0.048200265,-0.07385802,0.007527838,-0.1272569,-0.116533704,0.026622845,-0.076192394,-0.072653204,-0.00530417,0.015595168,-0.102313735,-0.035153072,-0.114405796,-0.024396503,-0.014877873,-0.035001624,-0.11677792,-0.11864558,0.000543173,-0.09876476,0.03073762,0.043146595,0.06716672,0.017487548,-0.07309592,-0.05346906,-0.09289486,-0.08610096,0.050401673,-0.084621616,-0.029419512,0.019782577,-0.14245655,-0.025233688,-0.049724616,-0.050280176,0.037930254,-0.023533914,-0.005506097,-0.040657632,0.018763194,-0.06469313,-0.0465888,0.33938745,-0.13076323,-0.13353981,-0.1123257,0.008703448,0.07016085,-0.002003155,0.005607616,0.036388624,-0.15027693,-0.07999764,-0.1412397,-0.05288639,-0.102861,-0.04480916,0.000357971,-0.14847931,-0.16074693,-0.003434592,-0.021501182,-0.019702367,-0.026140384,0.001940147,0.04251804,-0.008882456,0.001496866,-0.01810807,-0.01935595,-0.038102586,-0.026941879,-0.053547032,-0.1424079,0.026087206,-0.009629071,0.067242175,-0.15763064,-0.09242033,0.005587254,0.017078578,-0.05690672,0.006857637,0.002292462,-0.040629864,-0.008649334,-0.028719224,0.08295372,-0.16012762,-0.012781637,-0.11045032,-0.039007746,-0.06212865,-0.11845564,-0.060736522,-0.007154901,-0.0703944,0.010772299,0.021901917,-0.12120274,-0.079205506,-0.025948033,0.007022116,0.000543866,0.040050518,0.07278712,-0.09181444,-0.19437325,-0.042028543,-0.07965791,0.005409308,-0.0945444,-0.028273206,-0.1434666,-0.10850834,-0.09024267,-0.11608422,-0.090469174,0.0109439,-0.029701907,0.33938745,469
8,0.02704241,0.28203788,0.08757867,0.17077667,0.63195604,0.13881487,0.10851317,0.35037085,0.14628822,-0.1003824,-0.27871442,-0.12877508,-0.037625395,0.005676288,-0.041489538,-0.016895035,-0.02290739,-0.0406359,0.04012355,0.012013547,0.030666944,-0.024794785,-0.031382848,-0.022961799,0.018644556,0.010852989,-0.037173364,-0.033928648,-0.030519545,0.035874505,-0.040092964,-0.034694042,-0.0649301,-0.02848637,-0.026763514,0.029805306,-0.03343257,0.014764845,-0.024556117,-0.002781984,0.016105399,0.041918274,0.013101194,-0.18000616,0.20103781,0.03733092,-0.10986077,-0.1053868,0.011733659,-0.008868616,0.015185021,0.019512098,0.037342507,-0.039629,0.036381755,-0.005084895,0.001893017,-0.068262376,-0.027632281,0.001315653,0.021794636,-0.004366897,-0.008902155,-0.038309094,-0.03467058,0.01217455,-0.039901875,-0.029636186,-0.004423402,0.03466035,-0.021628428,0.016490396,0.028495725,-0.019099114,0.028551709,-0.037642613,-0.026845347,-0.01586675,0.017544847,-0.12413982,-0.000449665,0.012573481,-0.03243738,0.012053706,0.016700324,-0.029725842,-0.024734925,0.013899744,0.041521285,-0.01724336,0.040849175,-0.011230584,0.041536044,-0.0219605,-0.042715408,0.001886271,-0.000230543,-0.017807951,-0.4749173,-0.01808632,0.0182698,0.038283054,0.04065297,0.023974825,-0.030136537,0.008923039,-0.009414487,0.028819706,0.025796894,-0.020542927,0.028923806,0.33581713,0.011244137,0.04142536,-0.018085016,0.031364236,0.028854478,-0.040494137,-0.008754533,0.007792149,-0.13194843,0.019501675,0.000621412,-0.00781481,0.025286283,0.02858987,-0.008720186,0.00933139,-0.032595426,0.014218222,0.030168261,0.030651066,0.01980253,-0.013251547,0.03008039,-0.027210763,-0.012456177,0.006040204,-0.302823,-0.006810308,-0.01632895,-0.000552833,0.011050858,-0.016389685,-0.018869907,-0.035019726,0.001285482,-0.026365316,0.001522318,-0.014207839,0.12884389,-0.15618479,-0.03015203,0.24556248,-0.20371374,-0.16385566,0.1626646,-0.19846863,-0.20316449,-0.041822907,0.08915868,-0.14876014,-0.19240043,-0.2039339,0.018882114,0.16729681,0.028005075,-0.20268613,-0.18233998,0.035719465,-0.016560543,0.016030695,0.041733336,0.1461865,-0.036986664,0.009610391,0.012973148,-0.012461916,0.15269235,-0.041901644,-0.1873166,-0.20532842,0.16376774,-0.22864822,-0.12653491,-0.041893348,0.26584905,-0.009822097,0.14056845,-0.004321333,0.023550339,0.20722875,-0.17352656,0.16808677,0.12611559,-0.16108255,0.22048734,-0.18770432,0.12044064,0.0224077,-0.012679054,0.32537034,0.01931636,-0.024555627,0.01353278,-0.02803017,0.014944426,-0.026424777,0.027873423,-0.003334992,0.28615788,0.13165237,-0.008840211,-0.09777106,0.06849673,0.056660205,-0.03469933,-0.08902254,-0.03394338,0.08935489,-0.1998443,0.12304667,-0.13809843,0.15935348,-0.07357536,-0.011750851,0.09430281,0.021936025,-0.19267611,-0.032419823,-0.030945098,-0.12168592,-0.19453229,-0.14575,-0.08119094,0.08525849,-0.09338218,-0.038660772,0.002974115,-0.018750967,0.21981898,0.19820061,0.02420837,0.05489603,-0.02546426,-0.13544412,-0.032891795,-0.013621034,-0.046797644,-0.04260487,-0.1944941,0.17298326,-0.19029865,-0.040168375,0.2817025,0.021187091,0.015513741,0.00919947,-0.1117238,-0.1732989,0.030518802,0.17268755,0.0159342,0.18403946,0.24928266,-0.055587746,0.25527298,-0.0138446,-0.1961894,0.21205424,0.04142568,0.012479405,-0.07961883,-0.17027372,0.09490962,0.14601913,-0.032975454,0.24638864,-0.10307755,-0.16034877,-0.18495649,-0.03710839,-0.15276067,0.09865194,-0.01154674,0.13447665,-0.20387816,-0.16851225,-0.14814666,0.09969724,-0.02664655,0.19826253,-0.20254502,0.022580925,0.05303463,-0.06405365,-0.18420975,-0.17674917,0.4559571,-0.024893422,-0.13160804,-0.17935762,-0.043725234,-0.11538771,-0.07665965,0.056021273,-0.023683527,-0.040669292,-0.06760262,0.20016254,0.027388524,-0.026899569,0.20235342,-0.19404438,-0.08281262,-0.16955657,-0.04113773,-0.22470148,0.17746672,-0.055030234,-0.029189242,0.102579676,-0.1798123,-0.13086453,0.06289703,0.3094276,-0.07753966,-0.06311317,-0.0164892,-0.12710899,-0.19358276,-0.19636483,0.042032678,-0.10605476,0.13044538,-0.16024478,0.1926496,0.014679883,0.034640092,-0.16547865,-0.09614636,-0.18733317,-0.07849084,0.18864658,-0.040104505,0.038556743,7.88E-05,0.02693038,-0.009345632,0.03570499,-0.08725763,0.14571857,-0.049316548,0.21546684,-0.17373301,-0.053023256,-0.10719989,0.09835105,-0.20411366,0.05771912,-0.09890075,-0.042652544,-0.027199816,0.009382505,0.114803314,0.06780266,0.21585448,0.002566273,0.030606661,0.26784477,-0.19707054,-0.069147885,-0.029627902,-0.1964,-0.12680012,-0.080423586,0.09267479,0.000631757,0.071396485,-0.007249523,-0.19274198,-0.11722642,-0.21120968,0.043269824,-0.16641131,0.3737619,-0.09824978,0.011355642,-0.21990785,-0.16137345,0.19505127,0.014452826,-0.09978959,-0.18542469,-0.0866177,-0.02870472,-0.08728352,-0.075474285,-0.21263047,-0.14315374,-0.11482172,0.08646954,-0.034427114,-0.043580793,0.000511908,-0.050022464,-0.09496028,-0.20239946,-0.19577901,0.05298995,-0.19828776,0.042589854,0.022537086,-0.18825436,-0.009511714,-0.072690465,0.031814847,0.04158171,-0.1504253,-0.02125603,0.03578503,-0.20587139,-0.042644393,-0.13005494,0.023823198,-0.033325627,-0.0683854,-0.029491661,-0.096737824,0.09905127,-0.005955956,-0.06309496,-0.11837296,-0.008286156,-0.009102721,0.022742335,0.010810618,-0.19962028,0.055976525,-0.026416278,0.021006186,-0.19900584,-0.19084744,-0.19133186,0.010897215,-0.18854693,0.012994163,-0.12660879,-0.079903066,0.012905575,-0.14000571,-0.05203936,-0.093809776,-0.18486597,-0.18684739,-0.17209509,-0.11252052,-0.020709498,-0.14116377,0.21269166,0.22881043,-0.1338087,0.030796465,-0.023513082,-0.020194748,0.03382184,-0.014181321,-0.0550362,-0.17641897,0.12903315,-0.18977982,-0.1994275,0.013397386,0.013201632,0.10640011,-0.024688676,0.008300286,0.037778776,-0.15275998,-0.18491721,-0.20562847,-0.023812389,-0.019979563,-0.01709242,-0.018652987,-0.007873466,-0.016388569,-0.03433396,-0.06263518,0.010175437,-0.07531987,0.019779228,-0.01797684,-0.037372127,-0.08081058,-0.09058213,0.04790226,-0.023189204,0.09017705,-0.12902248,-0.19001605,-0.005248398,0.12248588,-0.017260449,-0.097799785,-0.2010684,-0.006849945,0.000611194,-0.19917426,0.039737683,-0.027735608,-0.19425051,0.034896623,-0.19703475,-0.20510125,-0.13572118,0.041431244,-0.2117502,-0.02577172,0.008754224,-0.029402252,-0.105831906,-0.18145426,-0.053623844,-0.025098342,0.029743407,-0.1507375,-0.217712,-0.04137605,0.008274,0.003320497,0.03643175,-0.19325304,-0.09075535,-0.178536,-0.011499578,-0.06862954,-0.19319242,-0.16618425,0.013604946,0.02229295,-0.17630263,-0.19282082,-0.18761197,-0.13035513,-0.18321718,0.04059558,0.63195604,4
9,0.05903103,-0.2977554,0.02437467,-0.2157971,-0.72635037,0.21696058,0.36010015,0.079849176,0.039544985,0.18038307,0.67008775,0.18041715,-0.020918531,-0.006013505,0.015402041,0.03442988,0.011416379,-0.027614456,0.03741816,-0.041647937,-0.030553706,-0.033199456,-0.006142069,-0.003940512,-0.005231388,0.003718618,0.041086573,0.020616006,-0.02573984,0.0343582,0.027747635,0.033330407,-0.11613727,-0.002946284,0.013296325,-0.02475928,-0.011176143,-0.03743511,-0.018664975,-0.03792438,0.032547746,-0.03826606,0.012145098,-0.19758457,0.058874637,-0.030549653,-0.05702466,-0.09340029,0.04271518,-0.034072705,0.01880664,-0.020411933,0.001152467,-0.038423862,0.029874641,0.026154418,0.020282563,-0.16736057,0.037018504,0.022817094,-0.000860646,-0.005576957,0.027178045,-0.026258176,-0.009514026,0.010633659,-0.030800208,-0.024095016,0.018923089,-0.013900382,-0.02768062,0.023258153,-0.021661764,-0.023540515,0.015989985,-0.033664126,-0.005413786,0.005959425,-0.005506001,-0.13610926,-0.00465497,-0.01970833,0.016390193,-0.012849217,-0.017977305,-0.025820142,0.030195069,0.032772448,-0.026571117,-0.03741209,-0.003528521,-0.0259897,-0.007961679,0.017484516,0.027222004,-0.00748631,-0.002762616,0.027212847,-0.53664637,0.001863197,-0.03388609,0.007862918,0.039683204,0.010083284,-0.13777599,0.010914713,-0.014403855,0.009116266,0.035881054,-0.007164206,-0.03982898,-0.037118953,-0.028816426,0.042507123,0.0212969,-0.036243714,-0.012529533,0.000316687,-0.030267345,0.03478225,0.06199835,0.037087206,0.021112103,-0.021132352,0.00075312,0.03607234,0.022612076,0.036498588,0.005569294,-0.032779295,-0.004244737,-0.039232403,0.027682628,-0.009557471,0.023257624,-0.034745537,-0.018661356,-0.006255157,-0.057867344,0.004866798,-0.015205922,0.016398743,0.02475116,0.007709302,0.018282596,0.03190792,-0.010255653,0.017628059,0.03405981,0.03233218,0.047584623,0.024382973,-0.026902707,0.18569662,-0.22219011,0.16998392,-0.034493428,-0.1442725,-0.009678871,-0.01886229,-0.19521292,0.034360472,-0.16630776,0.1480047,-0.03578536,-0.038380742,0.021875579,-0.024527112,0.10921552,0.011833411,0.02091572,0.024900142,0.001244921,-0.10160037,-0.011509588,0.17256962,0.0383163,-0.012159107,-0.103536814,-0.012270942,0.107905336,-0.08293431,-0.09944974,0.24595095,-0.029777307,-0.038545094,-0.14557895,0.020455752,-0.053199504,-0.15605298,-0.076667555,0.14600085,-0.122985095,-0.06279296,0.18249938,0.06697445,0.03993546,0.066053785,-0.123190634,-0.03172216,0.030040536,-0.034756396,-0.010606252,0.002900954,-0.000640072,-0.057452615,-0.006732427,0.023690429,-0.019375555,0.007355046,-0.17385215,-0.021161996,-0.01868839,0.10971812,-0.18659158,-0.15387885,-0.00666412,-0.043446258,-0.006809153,-0.014182028,-0.15183753,-0.004810317,0.20585339,-0.253158,-0.17989425,0.03782144,0.20393527,0.015793353,-0.08477336,0.009058216,0.06283974,0.023370542,0.027922103,0.29209095,-0.28551838,0.07085998,-0.13744439,-0.042155627,0.014315918,-0.15216786,-0.044208013,-0.15204862,0.004023619,-0.13973841,-0.012923058,-0.038825978,0.035929445,0.026085231,0.06955196,-0.04212871,-0.12272077,0.034338802,0.05507521,-0.020951988,-0.17095271,0.18268739,-0.010327295,-0.04155507,0.20433779,0.056404565,-0.24790862,0.081243046,-0.005104192,-0.003744459,-0.15075126,-0.12443793,0.08721734,-0.01062965,0.29269284,0.063089944,-0.009002904,-0.14510348,-0.020363396,0.1864434,0.09425328,0.05229349,0.003296096,0.21810709,-0.06595924,0.1994387,0.2033364,0.008682437,-0.13891588,-0.011682515,0.03348619,0.097582474,-0.020505445,0.07763453,0.09559392,-0.15918544,0.121386975,0.07536935,-0.09578877,-0.016239705,0.010044661,-0.09425951,-0.28958648,0.10956115,-0.12127891,0.015298598,-0.0834708,0.012926613,0.13301684,-0.10853946,-0.118280016,0.19945496,0.017172005,-0.006403782,-0.06512921,-0.05372098,-0.035217326,-0.039840896,0.21683101,0.063909665,-0.08419452,-0.09930895,-0.008978784,-0.04104848,-0.16070986,0.06834395,0.08816099,-0.26262692,0.06728361,-0.12407113,-0.1103013,-0.0825973,0.18765329,0.035113085,6.70E-05,-0.08308884,0.120748095,-0.08934391,0.020607997,0.072049335,0.026942559,-0.019573288,0.030718435,0.021050934,0.005843408,-0.21531925,0.07462604,-0.09882165,-0.059823874,-0.12167075,-0.002034456,-0.021480925,0.1308304,0.014683891,-0.030691065,0.005953595,0.14770767,0.12640022,-0.08251321,0.21096417,0.3261378,-0.1442645,-0.029242046,-0.16209137,0.13029683,-0.021328917,-0.08784642,0.1066311,0.040148225,-0.033830225,-0.19038785,0.038398072,-0.08274902,0.14093944,0.006962352,-0.085861385,-0.08911087,0.051667504,-0.036842614,0.26435468,0.15180285,-0.003148826,-0.13816682,-0.02033688,-0.061604686,0.030710269,-0.1987019,-0.017529562,-0.067511074,-0.004380368,-0.059505843,-0.23949283,-0.030807445,0.025636662,-0.056589153,-0.053112805,-0.111800045,-0.008352,-0.035296682,-0.07925405,-0.098462045,-0.042123567,-0.074092865,-0.002781309,0.015606747,-0.19438177,-0.13677387,-0.105606884,-0.014521237,0.034872852,-0.037562326,-0.024578348,-0.030492272,-0.020661402,-0.006746452,-0.018721996,-0.19276577,-0.012737272,-0.02566608,-0.02629303,0.010820201,-0.110854365,-0.035218112,-0.03093114,-0.15548073,-0.10103982,0.015575081,-0.009490792,0.049186435,-0.13133503,0.006654244,-0.04187256,0.22680125,-0.045866072,-0.005553256,-0.1964475,-0.09415602,-0.043025687,0.02253799,-0.2024147,-0.119603604,-0.028702987,-0.07811082,0.012932298,-0.015362856,-0.019404238,0.041546147,-0.11332746,-0.06765469,-0.10973144,0.009437878,-0.021203607,-0.025092231,-0.024436956,-0.06635299,0.016927518,-0.018404398,-0.19319274,-0.10001253,-0.05222369,-0.020752646,0.06498011,-0.03318519,-0.026395755,0.06506136,-0.07359834,-0.14653713,-0.053048007,-0.007061377,0.002610516,-0.06707776,0.0080056,0.006977254,-0.07077203,-0.06729326,-0.14232,-0.04655023,0.027682973,-0.034260813,-0.004404299,-0.0332866,-0.15521444,0.027491983,0.013121329,-0.07562281,-0.044816516,-0.08341467,-0.06494053,-0.034676917,0.13393581,0.013910964,-0.10497302,-0.059917226,-0.062057592,-0.12307688,-0.017935341,0.003728851,-0.06265167,-0.07677712,0.041637253,-0.05336822,-0.1196063,-0.13106932,0.009769298,-0.03351948,-0.049470834,-0.011113263,0.004388407,0.006323101,0.028842183,-0.08282664,-0.030009314,-0.08059857,0.00613574,-0.113501996,-0.010101698,-0.020064,-0.08357537,0.027180199,-0.076141946,-0.07421255,-2.82E-06,0.016737618,-0.109144464,-0.002765629,-0.04517555,-0.07651882,-0.007877318,-0.039484262,0.11045067,-0.006832302,0.004090354,-0.012887266,-0.033857923,-0.027362674,-0.023267278,-0.014535446,-0.033526123,-0.03452098,-0.029253954,-0.10524014,-0.045381557,-0.03709065,-0.063888915,-0.0665217,-0.015947722,-0.03025446,0.08684481,0.001798053,-0.011513014,-0.059389286,-0.11308779,-0.040333226,0.67008775,10
10,-0.12027115,0.22310844,0.13988118,0.087337285,0.2359474,0.16983902,-0.0927656,0.3568648,-0.3304818,-0.3929974,0.3337597,0.1899773,-0.020862974,-0.006304327,-0.005336624,-0.005373579,-0.040939033,-0.01260661,-0.013227167,0.000272878,-0.036309328,0.024222616,0.007322099,-0.033728316,-0.002020322,0.005209435,0.022473078,-0.017289285,-0.039191775,0.0259546,-0.016449187,-0.039078467,-0.1937373,-0.010227907,-0.029915946,-0.001459222,0.002461199,0.007938553,0.02272093,-0.042511187,0.003436495,0.03231811,0.01292951,-0.172678,-0.20165168,-0.0089911,-0.23102197,-0.1258802,-0.036861755,0.013743918,0.022492211,-0.03150905,0.03175388,-0.009624515,-0.03814189,0.003168512,0.025430512,-0.1783862,-0.011489227,0.019646876,-0.01350129,0.00423215,-0.032043677,-0.007596247,-0.037044205,-0.03273745,0.008528296,-0.059414834,0.036314096,0.014917165,0.032528,-0.017428631,-0.023222778,-0.020386076,-0.02135579,0.03349408,0.02084377,-0.028408296,0.031301018,-0.13439213,-0.030841589,0.03369962,0.034446705,0.029668804,-0.03905932,0.032280836,0.024279218,0.011685263,0.007629506,-0.03424788,0.032867875,-0.001028728,-0.03105596,0.01106913,-0.020266332,0.015975058,-0.024510086,0.012075398,0.1940354,-0.003154375,0.040997107,-0.018765489,-0.04135056,0.008100409,0.060422543,0.034592766,-0.013268545,-0.04199211,0.001584634,-0.008345734,-0.038258776,-0.1859572,0.003147416,0.008691393,-0.02119978,0.030596722,0.016817834,0.029351484,-0.037129797,-0.0332622,-0.1049137,0.000727609,0.017299782,0.031606834,-0.03999107,0.0387096,0.012518849,-0.023450099,0.007220309,0.014937788,-0.01694307,0.023434635,0.028880585,0.028961007,-0.007182356,0.009232223,0.03589518,0.034981642,-0.13890606,0.015109796,0.003635272,0.020904567,-0.03613558,-0.021080796,-0.015662096,0.036225606,-0.010912206,0.003594201,0.019068364,-0.008545069,-0.062250815,-0.1454521,-0.16691512,-0.18493752,-0.21896386,-0.18615614,-0.08841923,-0.04452412,-0.09644907,0.001571376,-0.030244693,-0.21158677,-0.21677741,-0.20529772,-0.023999533,-0.13944824,-0.014112398,-0.047858868,-0.20778468,-0.037536304,-0.03586214,-0.040083095,0.019313343,-0.19054727,0.03287817,-0.2121034,-0.03322182,-0.033503726,-0.21703264,-0.18881546,-0.18403539,-0.08459428,-0.20898621,-0.41202554,0.001804546,-0.025712518,-0.061055444,0.02728961,0.03043639,-0.090736575,-0.19690369,0.029211257,-0.29693004,-0.19917543,-0.059676703,-0.13245153,-0.17721511,-0.042384375,-0.026234958,0.0402277,-0.040369254,-0.06414137,0.01798807,-0.022795789,0.000451345,-0.19634366,-0.18816127,0.022100035,-0.04077881,-0.004677348,-0.15765418,-0.13490182,-0.03184516,-0.04775711,-0.1975102,-0.10467591,0.03989556,-0.057960212,-0.20000733,-0.30408508,-0.19373234,-0.17313011,0.025289128,0.0771502,-0.07038251,-0.03845307,-0.15271138,0.01873564,-0.2009269,-0.1965168,-0.20796557,-0.06998455,-0.07170307,-0.20247571,-0.18379322,-0.093968146,-0.17652182,0.038619567,0.023918282,-0.11496548,-0.20219448,-0.13605186,-0.029987156,-0.19092655,0.02002817,-0.21162257,-0.008682668,-0.003956176,-0.20435263,0.033320185,-0.21012254,-0.10327995,-0.2154157,-0.039768353,-0.04723342,-0.14194603,0.018644705,-0.002415713,-0.13510035,-0.17678855,-0.17414202,0.09095692,0.002921008,-0.16205475,-0.20252587,-0.07930957,-0.19788496,-0.028927293,-0.1407435,-0.20759092,-0.08595191,-0.26883462,-0.19018982,-0.020778807,-0.128851,-0.073218085,-0.03704168,-0.09898896,-0.06751707,-0.2499922,0.08089762,0.009481661,-0.20024721,-0.098500945,0.039421815,-0.08185063,-0.06560974,-0.1349915,-0.08563526,-0.20998424,-0.2176216,0.05825597,-0.20756967,-0.067465566,-0.192906,-0.13835274,-0.21655272,-0.102305315,-0.2040314,-0.008502189,-0.20668349,-0.18740173,-0.19494207,-0.16641982,-0.066543855,-0.189416,0.007285576,0.040487077,-0.19818525,-0.16027561,-0.03946252,-0.00804358,-0.16467328,-0.19106697,-0.19493608,-0.21123044,-0.019104883,-0.14862391,-0.20370601,0.016331244,-0.20120926,-0.23292781,-0.23770747,-0.062217567,-0.20008598,-0.14433084,-0.108469464,-0.04335376,0.002281528,-0.099828005,-0.040129963,-0.18899463,-0.004995138,-0.12409183,-0.08831625,-0.18127862,-0.19951345,-0.033991605,-0.003974561,-0.21504804,0.013993316,-0.17670865,-0.21361592,-0.24258927,0.03246134,-0.032221086,-0.21118121,-0.017197741,-0.010834806,-0.18547244,-0.19504209,-0.047811963,-0.21842238,0.004278371,0.04409524,-0.2163893,-0.21427664,-0.004728227,-0.20004527,-0.083628245,-0.20305587,0.01672689,-0.11860322,-0.014161665,-0.19827233,-0.26330942,-0.12639065,-0.099146165,-0.021337878,-0.07164291,-0.11336527,-0.033205584,-0.005958591,-0.21037412,-0.18684906,-0.09947939,0.016918408,-0.03207531,0.12609161,-0.018905045,0.33191952,-0.21299496,0.060604952,-0.21486843,-0.20825304,0.009771691,0.11969415,-0.03362281,-0.19170053,-0.17952095,0.19950944,0.030235525,-0.20657226,-0.19123782,-0.2132891,-0.00186738,0.25537258,-0.17883141,-0.18995766,0.24368852,-0.1878484,0.08329321,-0.046901856,0.09162091,0.12739448,-0.19636403,-0.1368122,0.00825476,-0.19824742,0.13009223,-0.3192529,-0.041924246,0.030567292,-0.21155506,-0.077746786,-0.19905011,-0.007384494,-0.036664642,-0.28606966,0.12947038,0.021120433,-0.19615202,-0.04927376,0.225534,0.042375516,-0.20432697,-0.21310337,-0.09028241,-0.16140382,0.09873862,-0.22168337,-0.2020906,-0.20472054,0.15445173,0.021962425,-0.011225034,0.004179943,-0.14636563,-0.052773327,-0.20920448,-0.031841107,-0.1382623,-0.22194566,0.11361601,-0.03346994,-0.20854937,-0.027492648,0.01926776,0.17286128,-0.01240406,-0.21444164,0.24604136,-0.20386386,-0.20401123,-0.17358513,0.036351733,-0.21390498,-0.0117366,0.012410644,0.21733867,0.019472992,-0.13246147,0.004094061,-0.038725086,-0.24883528,0.028805297,-0.1213124,0.06666221,0.21728273,0.22141767,0.11253329,0.039892808,0.017512597,-0.020742806,0.022942167,-0.21233079,-0.040426977,-0.042122807,-0.067304485,-0.09114167,-0.2394295,0.06611663,-0.12329108,0.18091057,0.001071148,-0.081162386,0.20981413,-0.04282287,-0.19948915,0.025336873,-0.18285973,-0.20975144,0.17396025,-0.002782531,-0.13155381,-0.21694726,0.069618724,0.035924066,0.012937904,-0.2112905,-0.19198506,-0.002017845,0.12432222,-0.19528915,-0.18819591,-0.21792707,-0.20716509,-0.11462323,-0.20429097,-0.03488782,0.015009709,-0.13691835,0.016811453,-0.001436544,0.30727515,-0.34735674,-0.01736187,0.23510014,0.04213914,0.26075736,-0.22481947,-0.093398854,-0.20862786,-0.054490272,0.019694526,0.03478833,-0.11474146,-0.1793275,-0.029026713,-0.02178348,0.009931423,0.005687628,-0.19814302,-0.21070598,0.007975949,-0.21524487,-0.20473184,-0.2116678,0.014671437,-0.021207893,-0.15942526,-0.07263931,0.07827871,-0.18041337,-0.21998355,0.14068457,0.01830934,0.3568648,7
11,-0.41493735,0.10960292,0.16909268,-0.13889621,-0.15860842,-0.50939673,0.18822126,0.1661,0.46965632,-0.017697105,-0.35963723,0.165312,0.027179848,0.003594894,0.002921179,0.025495727,0.010512412,-0.007063665,-0.000360928,-0.010692541,0.015579138,0.000758559,-0.03811899,0.017281312,0.022800248,-0.006992538,-0.033955473,0.003762305,-0.006663054,0.0100854,-0.032787215,-0.00669957,0.079494946,-0.033973444,-0.003198259,0.017566718,-0.033780955,0.036475834,-0.03919129,0.006535236,0.040788416,-0.035088535,0.037857827,-0.21997166,-0.028981352,-0.012009086,-0.035988156,-0.09181506,-0.024525575,0.03645439,0.011284079,-0.0403975,0.01684409,0.013588678,0.041426037,-0.015763419,0.03856941,0.022908092,-0.031471714,-0.034525603,-0.026867896,-0.001877412,0.03725147,0.013355214,0.032489058,-0.021004029,0.036688376,0.055229478,0.040314805,0.042390596,-0.006109096,-0.03126656,-0.034521855,-0.010895886,-0.007232804,-0.021868203,-0.008176066,-0.02713764,-0.034507964,-0.1382621,-0.011649465,0.030264203,-0.018544517,0.01867015,-0.001965173,0.002980892,-0.023945728,-0.014817718,-0.014027216,0.030189376,-0.025607873,-0.017758215,0.013293356,-0.03720941,-0.021993784,-0.015460458,0.004325662,-0.031797446,-0.30818957,-0.011544228,-0.02302198,0.035558883,0.040810373,0.024214577,0.03218598,-0.002716642,0.040428277,0.039829616,0.018783357,0.000186432,0.02253547,0.24398875,0.006718494,0.036369737,-0.033246927,-0.012544431,-0.001936056,-0.037743032,0.010742091,-0.020224985,-0.10487851,-0.01833712,0.028224614,0.01273898,-0.028937466,0.004481271,0.019753996,-0.000153523,0.02262294,-0.00582872,0.008260161,-0.027445953,0.008229841,0.01480782,-0.009278104,-0.036521237,-0.030389346,0.006645069,0.6455732,0.008285794,0.006739002,-0.006551866,-0.028830117,-0.009441208,0.019053213,0.042562824,-0.038256276,0.026807401,0.015476573,0.016481703,0.17505738,0.008986416,0.016326109,0.057756316,-0.021955216,-0.025823241,0.327063,0.07153047,0.15511361,-0.03489603,0.043073956,0.04476018,-0.062767126,-0.014273508,0.028480697,0.023616502,-0.024811488,0.13595451,-0.009942152,0.032192517,0.007159408,-0.035081852,-0.017157724,0.08800501,-0.013485413,0.12481776,-0.021793062,-0.032271553,0.077393316,0.14911814,0.024743553,0.27365458,-0.045962375,0.03589402,0.3057876,0.011728831,0.141915,-0.020640723,0.16002887,-0.027993454,0.04434049,-0.041625865,0.00747281,0.1676244,0.056103628,0.2530137,-0.026286831,0.052597277,0.012223497,-0.015270695,-0.013590274,-0.085356124,-0.035819717,0.036614943,-0.03618449,0.04579909,0.14642885,0.035955545,-0.019736985,0.004187398,0.1386624,-0.021399941,-0.03411925,0.015848951,0.07040506,0.09508346,-0.032836176,-0.042183507,0.054577887,0.07417981,-0.016914358,0.008901836,0.16193064,0.3132966,-0.02848588,-0.009279829,0.11974177,0.035309132,-0.086033754,-0.00077426,-0.021395862,-0.012283717,0.015262218,0.16044356,-0.035256993,0.054354165,-0.09527697,0.029844385,-0.024644198,-0.024655351,0.04067883,-0.017777566,-0.041913364,-0.05336527,-0.011441883,-0.042094905,0.006995104,-0.009768337,0.054800604,0.023158062,0.13395452,0.006997341,0.034156166,-0.023062762,-0.024244746,0.04080268,-0.02194185,-0.029137354,0.03674704,0.05040176,-0.022254914,-0.013827181,-0.010458671,0.24457073,-0.005164396,0.109133005,0.29670236,-0.01759855,0.14684416,-0.04315154,-0.056687646,0.20006771,0.15451913,-0.023285173,0.21618457,0.06610834,0.018882599,-0.02143167,0.14389843,0.14018711,0.22660239,0.02649184,-0.04251417,0.13436021,-0.001950078,0.018944338,0.21840256,0.1709405,-0.0994627,-0.078999065,-0.05656671,-0.06017952,0.08903176,-0.05033521,0.060682077,0.10671374,0.07844423,0.060892105,-0.02662861,-0.032087557,0.19931102,-0.072299816,0.106142186,0.07633447,-0.041186135,0.25136927,-0.03594752,-0.024930773,-0.04645954,0.027778327,0.010920394,0.02684882,-0.06892244,-0.051416595,0.1619392,-0.027469084,-0.033090368,-0.037171483,0.12008275,0.02208247,0.062857136,-0.031812154,0.14737232,-0.14718881,0.056279495,-0.037262324,0.052118804,-0.054963067,0.023340818,0.14586519,0.013948544,-0.026841236,0.000324495,0.17226222,0.012280382,-0.0477592,0.14488915,0.012027286,0.017068863,0.024626724,0.11304442,-0.027492188,0.019206502,0.31557292,0.01579713,0.000300407,-0.08388386,0.002045598,0.03324103,-0.05408005,0.034724392,0.113688655,0.098317236,0.3209362,0.005779255,-0.001164521,-0.014559482,0.15318593,0.17745227,-0.10106678,0.13467571,0.108323626,-0.006848697,0.011247005,0.046861958,0.15727556,0.050804857,0.000757698,0.014047064,0.112131156,0.09498615,0.002240511,-0.011927616,0.08885653,0.00135414,-0.07536988,-0.0325702,0.026676748,-0.02849939,0.042103212,-0.07686174,0.051258318,0.06531631,-0.047274303,0.026527522,-0.056608006,-0.077253446,-0.039172344,-0.005262286,0.03986645,-0.07005601,-0.019300748,-0.026374118,-0.00284395,-0.029058333,-0.007343177,-0.013739976,0.052302714,-0.18546732,0.08776569,0.016816782,-0.000369428,0.07603962,0.07351485,-0.011109988,-0.07222894,0.08575217,-0.058001827,0.021565838,-0.006331156,0.0815006,0.024413269,0.036868166,0.016426502,0.029164344,0.12118121,-0.027559705,-0.004383195,0.09120294,-0.007629488,0.0380303,-0.028868685,-0.008951003,0.02165907,-0.040006973,0.043312673,-0.07672243,0.015707979,-0.012121265,0.020121498,0.009594266,-0.04560682,0.094425865,0.06290129,-0.006917965,0.030619469,0.02535147,0.00707453,-0.03535957,-0.070401475,-0.01437236,0.028846202,0.11625354,-0.002829571,0.03278702,-0.003121257,0.008539084,-0.018434236,0.24705933,0.015468251,-0.02408196,-0.031279486,0.13865027,0.004245619,0.11754556,0.034557175,-0.03691988,0.02741849,0.034955695,-0.109150976,-0.04901883,0.11830812,-0.027333397,-0.04108499,0.04419915,0.041855093,0.14798936,0.041766062,-0.007719466,-0.091476016,-0.003064764,0.11683748,0.03202448,-0.026513083,0.08960388,-0.006239883,-0.03494002,-0.04232943,0.031236585,0.09451611,0.07097765,-0.004128189,0.05294231,-0.021456854,-0.04173466,0.023845268,-0.056583237,0.009017799,-0.020254293,-0.003097802,-0.055763204,0.119258925,0.032289974,-0.032426585,0.022706186,0.053846262,-0.15067448,0.009608965,0.12240563,0.13248084,-0.018853102,-0.020276764,0.035112146,0.07688364,0.02276962,0.00134943,0.14147307,-0.014790104,-0.029699612,-0.009127945,0.026872639,-0.02753768,-0.015731215,0.089707606,0.003960342,-0.11148505,-0.025201283,-0.048806433,0.0254003,-0.15600666,0.07989629,-0.065586574,0.005448997,0.1262013,-0.03436195,-0.012934104,0.01951895,-0.06973124,0.035326395,0.000112083,0.01830351,-0.01630908,0.114871055,-0.091354854,0.03640432,-0.008965672,-0.0766478,-0.04020921,-0.03450737,0.028235484,0.036033563,0.0566768,0.028455876,-0.10220337,-0.016517472,-0.019126235,-0.017708035,0.6455732,138
12,0.15588044,0.12469201,-0.019213988,0.031566367,-0.16811942,-0.06968957,0.2271138,-0.44938868,0.22391894,-0.07039307,0.2206459,-0.05799858,0.005147498,0.01694417,-0.035237893,0.000469614,-0.039077222,0.011061467,0.035328496,-0.03430149,0.023375135,-0.04165011,0.017791286,0.025496352,0.039861184,0.03421322,0.036387336,0.008829396,0.042174328,0.014161445,0.015643217,0.009887595,-0.039190322,-0.004705466,0.011625581,-0.005396277,0.03423843,-0.034565493,0.005220592,-0.023294574,0.004379176,-0.014838228,0.001952618,-0.08354834,-0.10662072,-0.01061476,-0.07695502,-0.11786651,-0.000935055,-0.037767485,-0.026028998,0.03413854,-0.003957011,-0.011701899,-0.02238389,0.015362036,0.007517189,0.09421449,0.02823196,0.027832393,-0.014953589,-0.027120484,-0.004541431,0.015865508,-0.005944565,-0.03613476,-0.021956371,-0.042893916,-0.023546616,0.036675986,-0.004868805,0.026208881,-0.011637762,0.042047616,-0.01620499,0.003161643,-0.033787373,-0.026851984,0.034605097,-0.13743754,0.018930204,-0.04032115,-0.001977094,0.019270435,-0.012461461,0.032148477,0.004479602,-0.027139276,-0.003199391,0.008146644,-0.04174761,0.026782747,-0.04264664,-0.03705799,-0.007968284,-0.013959462,-0.01450056,-0.029536825,-0.44452983,0.015222043,-0.013428897,0.037651066,-0.013149994,0.001003727,-0.08378646,-0.011279784,-0.021985613,-0.007077258,0.007533837,-0.012153413,0.03886282,0.11592287,-0.019672707,-0.006135508,0.020122122,0.02110416,-0.009189196,0.017711323,-0.007842038,0.03952456,-0.08276584,0.009689748,-0.008702301,-0.026970383,-0.018379277,0.03250288,-0.032442335,0.023844223,-0.021308862,-0.04177703,0.033185888,0.023816291,0.042132583,0.02663977,0.038042326,0.016217295,0.034721803,-0.022840602,-0.31434247,0.01659505,0.024249595,-0.030406116,0.029635932,0.03551257,0.033411253,-0.014645776,-0.041008413,0.033392932,-0.026794866,-0.117282294,0.08048095,-0.05636938,-0.053148605,-0.100996636,-0.1291272,-0.114749216,0.11150588,-0.118051104,0.05215382,-0.005338676,-0.062317625,0.063708045,-0.12729318,0.17294712,0.036611926,-0.061020486,-0.041857373,-0.12503745,0.17230976,0.031110864,-0.017215433,0.007468615,0.010239024,-0.10729384,0.000182249,-0.11626118,-0.04175625,0.009002939,-0.1233116,-0.116590686,-0.075749844,0.2228228,-0.052602347,0.08311357,-0.06940198,0.022968281,-0.11594452,0.024123136,-0.10703721,-0.003213886,0.10215478,0.12602274,-0.13551979,-0.08132447,-0.10871153,0.021409469,-0.122643486,-0.13019407,0.038093243,0.00140157,-0.023080336,-0.0994431,0.02733064,-0.019744605,0.000598066,-0.11145186,0.18641672,-0.03800569,-0.006055199,0.02641229,-0.13130893,0.20601553,-0.037824217,-0.006778494,-0.08427489,0.07707588,0.03704432,-0.07607047,0.094409615,-0.10567034,-0.11033386,0.12570806,0.1656079,0.21378335,0.16665618,0.00571838,0.18833609,0.017754607,0.12069073,0.083501175,-0.04755772,-0.12191819,0.1810452,-0.12233907,0.01691442,0.081529975,-0.21116805,-0.034394953,0.030306559,0.10613389,-0.12493806,-0.11275426,0.042714838,-0.27988642,-0.011064839,0.17670897,0.017078806,-0.009978153,-0.11251285,-0.009003434,-0.10477886,-0.107380204,-0.120509885,-0.016173312,0.120961264,0.10778607,0.007665549,-0.02352817,-0.05174566,0.14759359,0.18820766,-0.1302551,0.028072942,-0.11666446,0.018338995,0.0980965,-0.17216368,0.010624185,0.23816079,-0.14588512,-0.23924983,-0.10940439,-0.08387894,0.40858993,-0.09513364,0.17360249,-0.000658106,-0.10427434,0.17381558,-0.093742184,0.24990217,0.004487015,-0.06598175,-0.07859253,0.005456667,0.11379527,0.2440376,-0.11442562,-0.10689285,0.24374965,0.18681306,0.035355568,-0.12761524,0.044682793,0.065411784,-0.118748,-0.122891024,-0.064952716,-0.11090294,0.001666736,0.18493265,0.0704815,-0.13183837,0.11281536,-0.09218276,-0.095176056,-0.022121815,0.013426587,-0.10674038,0.022217212,0.018589593,0.019128527,-0.12098625,-0.07652763,-0.1251892,0.027223844,0.025874343,-0.095653325,-0.120274134,0.053943757,0.030244313,0.17016497,-0.16553056,-0.13455117,-0.12869173,-0.120957844,0.04089356,0.06099179,0.021298353,-0.06323466,-0.08030426,-0.1164379,-0.01213534,-0.10011856,0.0415262,-0.119567074,-0.1261943,-0.009461764,0.008760698,0.034622252,-0.12642407,-0.024581598,-0.08161594,0.3582947,-0.017747007,-0.017097171,0.08891453,0.036634732,0.023382675,-0.11282055,-0.16195096,-0.15650068,-0.12350005,0.17068683,0.16628681,-0.115239345,0.12069511,0.09572094,0.25874022,0.09410658,-0.1276563,-0.07085566,0.010458613,-0.008188583,0.03362695,0.01165136,-0.014608804,0.08691495,-0.01670913,-0.11206847,-0.124295056,0.16992134,-0.030197646,0.1990806,0.08464382,-0.10386185,-0.1802642,0.026505891,-0.12339622,-0.038948618,-0.11288472,-0.050962623,-0.0351559,-0.08682188,-0.12154133,-0.08043178,-0.07172158,0.009204842,0.009901653,-0.08731543,-0.17559999,-0.020056253,-0.11067849,-0.10108819,-0.05087561,-0.042460926,-0.13684943,-0.12704356,-0.09183574,0.03795838,-0.1152835,-0.12634009,0.002987976,-0.056579176,-0.10120957,-0.088142306,-0.041942667,-0.030165255,-0.1014433,-0.12530637,-0.28195778,-0.014315831,0.018885512,-0.090180345,-0.118212305,-0.12830065,-0.033661053,-0.031481277,-0.13157071,-0.005833205,-0.003382821,0.019141665,-0.06675885,-0.08786851,0.011766352,-0.1278307,-0.06230113,-0.1875332,-0.09593841,-0.047751103,-0.026610827,-0.12323423,-0.09876131,-0.023797562,-0.0763703,0.042410877,-0.053618822,-0.118981384,-0.072490476,-0.036142703,0.021513019,-0.101378955,-0.13307707,-0.13094671,-0.002706274,-0.04997584,-0.017465545,0.003166856,-0.09293352,-0.01970154,-0.0240922,-0.1226141,-0.1258296,-0.0120951,-0.03858678,0.06719663,-0.09834721,-0.014275955,-0.12132374,0.07706535,-0.22710684,-0.06741864,-0.03001939,0.031109054,-0.08830075,0.014090531,-0.12641874,-0.12074611,-0.109231316,0.004198942,-0.120668985,-0.03780537,-0.09080469,-0.019255837,-0.13154672,-0.100955136,0.021398101,0.022738691,-0.014493355,-0.120091625,-0.10512157,-0.08448016,-0.07160929,-0.052644406,-0.006414827,-0.090641364,-0.12572788,-0.061421294,-0.13332401,-0.022281714,-0.056388605,-0.10900264,-0.12548657,0.01673356,-0.124292165,-0.11241261,0.021242304,-0.023753341,-0.122675285,-0.09894692,-0.1596795,0.028502222,-0.08554571,-0.047145266,-0.104851164,-0.020910297,-0.05331925,-0.050530102,-0.11577123,-0.016996143,-0.01837001,-0.14580424,0.000488602,0.028435867,-0.22370806,-0.000351447,-0.030668471,-0.07396489,0.013913915,-0.056200966,-0.09571403,-0.12554677,-0.13168,-0.09274918,0.03588431,0.003865585,-0.117200494,-0.09058194,0.000182025,-0.021617899,-0.04041134,0.03946204,-0.10076087,-0.09352047,-0.09927996,-0.13349113,-0.08891545,-0.10755196,-0.11331179,0.03924639,-0.12843496,-0.12352031,-0.110271685,-0.0942679,-0.15585072,-0.11083288,0.004365541,0.40858993,273
13,-0.13765454,0.20915845,0.1034704,-0.074503526,0.56501365,-0.43529677,0.13908698,0.40692037,-0.10003783,-0.34428528,-0.058909863,0.014217703,0.015157711,0.026046682,-0.02597938,0.021324512,-0.017632104,-0.027296256,-0.028776582,0.019839685,0.012305457,0.02813581,0.009057891,-0.015679915,-0.00587178,0.005293831,0.03234769,0.00571252,-0.03350255,-0.0397263,-0.039321966,0.001446355,-0.06475283,0.011507057,-0.013389079,-0.03954127,-0.016965736,-0.037415013,0.036550898,0.03112479,0.018968835,0.021724757,0.03182071,-0.066501714,-0.0801208,-0.019088166,-0.06647691,-0.09383439,0.000238363,0.006515157,0.04119167,0.032418545,0.017069247,7.37E-05,0.04141711,-0.027329285,0.040104557,0.11810638,0.026538912,-0.01534416,-0.003610909,0.04215068,-0.01629221,0.011018429,-0.025713697,-0.022526326,0.026362132,0.005834507,0.018605456,0.02409077,-0.010377687,0.018303566,-0.03978827,-0.032834783,-0.002011571,0.019686438,-0.020656181,-0.007769689,0.027557846,-0.1316181,0.007161349,0.004848328,-0.0362753,-0.02902568,0.005583782,0.024607915,0.037459414,0.03528205,0.004153132,-0.012220133,0.02759419,-0.013742847,0.031146195,0.029588174,-0.03234778,0.003853869,0.004436199,-0.011946708,-0.37561536,0.03367422,-0.008844137,0.02744503,-0.009906627,0.017632052,-0.07815612,-0.036334462,0.02154636,-0.039249126,-0.032701947,-0.013158122,0.042705577,0.16900541,-0.00324643,0.025965814,-0.03377667,-0.01480256,0.031094614,0.02916563,0.021557476,0.038882714,-0.09147193,0.009160403,-0.03479246,-0.011440467,0.00619629,-0.037724763,-0.019033358,-0.001918923,0.036877487,0.000606261,0.03445826,0.017317265,0.021741513,0.022165004,0.01612271,-0.020131903,0.004340112,-0.01642199,-0.13307531,-0.03053503,-0.021252988,-0.021274222,0.040587697,-0.010690447,0.032498363,-0.03285453,0.03385054,0.002270855,0.00409884,-0.09981627,-0.095139764,0.18391767,0.33257437,0.06251002,-0.03388879,0.04190479,-0.034108438,0.16666698,-0.01091541,0.010116991,0.17843796,0.30616295,0.08717211,0.11834003,0.011334032,0.17929757,0.039453316,-0.06061451,0.2335569,0.006946378,0.013724212,-0.027338076,0.03945109,0.18522872,0.03722615,-0.054706633,0.01155879,-0.013683656,-0.06665797,-0.058638614,-0.001466305,-0.09386156,0.3434457,-0.05192115,-0.058108654,-0.035942923,0.20187141,0.015729927,0.17586635,0.02603017,0.17331941,0.20285599,-0.012654591,-0.028390937,0.1741145,-0.0244963,-0.11471911,-0.14244096,-0.011392145,-0.008124232,0.024006661,-0.15366536,-9.24E-05,-0.027764412,-0.029408578,-0.037604693,-0.101600476,-0.034515925,-0.002148241,0.032439794,0.1501635,-0.037303,0.010213651,-0.034473456,0.30187497,0.1653471,0.022510994,0.10955259,-0.01606799,0.002063582,-0.04000797,-0.032675434,0.15667287,0.1469026,-0.046031047,-0.017195672,0.17690635,0.031485293,-0.112307906,0.03314986,0.15664555,-0.06868455,-0.097722106,-0.05699982,0.17825949,-0.031384006,-0.06688514,-0.0380221,-0.00020038,-0.015418157,0.16651163,-0.10201375,-0.013019621,0.15056092,0.000288054,0.14254738,-0.020787058,0.016502105,0.060576368,0.010111537,-0.09874929,0.056349978,-0.04424605,-0.0332236,0.064327076,0.005094902,0.037329998,-0.012283295,0.36769432,0.07871966,0.16380739,0.16092324,0.039242055,-0.041089665,-0.02823623,-0.075835004,0.14459413,0.015300937,-0.022614755,-0.015930831,0.17404982,0.060192727,-0.06424366,0.24477133,0.052963153,-0.03892119,0.017729517,-0.08435925,-0.034468334,0.086355895,-0.10855864,-0.03212158,-0.027159117,0.20081307,0.007359013,0.11288589,-0.02212564,0.11089975,-0.020761648,0.10269829,0.005183778,-0.06465282,-0.061933268,-0.07711209,-0.007863906,0.27981648,-0.03396759,-0.013589685,0.13688856,0.01568757,-0.06315554,0.07369999,0.16736564,0.12487299,-0.07200546,-0.10589817,-0.007966146,-0.019284533,-0.10270477,0.29920784,0.032956,0.009859473,0.12547418,-0.06591882,0.000880852,-0.006011895,0.000471056,-0.06637217,0.14361477,0.13344896,0.17122021,0.16415982,-0.116641685,0.19185024,0.072024785,0.003081858,-0.02732606,-0.032376345,-0.014929807,-0.10741972,-0.05901422,0.009856713,0.016546644,-0.037777923,0.21669158,0.0565882,-0.009741749,-0.035157073,0.023589525,0.18211263,-0.068027504,0.02659852,-0.059471417,0.028109245,0.030576807,0.014963523,-0.117374614,-0.00175117,0.018389676,-0.08464796,-0.054200873,-0.040302612,-0.0081786,-0.13186851,-0.028693615,-0.097022094,-0.087661386,-0.05109918,-0.029644374,0.01981045,0.00430722,0.18377464,-0.110774614,0.014289208,0.06270613,-0.26279208,0.15908656,-0.017649487,0.003993873,-0.08889345,0.26990837,-0.029743306,0.03952216,-0.08174997,0.23830435,-0.02314388,0.15216208,-0.017122218,-0.09658047,-0.037018154,-0.011466434,-0.036867995,-0.035880014,-0.12538671,-0.12655742,0.003390259,-0.078542784,-0.02675464,-0.04205597,-0.05859657,-0.14855604,0.000811141,-0.040903747,-0.017217772,-0.14093283,-0.02298236,0.12166555,-0.012248484,-0.025182113,-0.027938899,-0.06669123,0.12320819,-0.028769674,-0.10745705,-0.05817264,-0.06166984,0.003433473,-0.001413541,-0.032578077,0.08583103,-0.057716954,-0.027379371,-0.008804273,-0.002647193,-0.03984827,-0.09521447,0.010987122,0.013895076,0.106450535,-0.069993675,-0.011330575,0.002205062,0.12240273,-0.06704525,-0.039114296,0.011056325,-0.03759931,-0.064344555,-0.026286215,0.105104044,-0.009642978,-0.05323906,-0.009176214,-0.023711868,-0.033219498,-0.0111987,-0.03999782,-0.040018965,0.014816496,0.020170134,0.030853268,-0.028804213,-0.048225377,-0.062103264,0.00851275,-0.009443074,-0.002274063,-0.053937286,-0.01990649,-0.010711391,-0.14695503,-0.05785668,-0.11707897,-0.050333828,-0.03414212,0.26647925,-0.029511428,0.010538887,-0.018527016,0.2793169,-0.13591033,-0.12859805,-0.011142902,-0.038325835,-0.06679711,0.032755855,0.047531445,-0.014761619,-0.06833039,-0.11758415,-0.022318877,-0.026875759,-0.011255055,-0.036115896,-0.081016295,0.057422806,0.004792139,0.036859516,-0.079033844,-0.010836427,-0.046910398,0.31144938,0.031893037,-0.057711676,0.029319119,-0.047047794,-0.053622935,-0.04469808,-0.04245415,-0.015677096,0.08688619,-0.042880293,-0.008154128,-0.016035024,-0.011058316,-0.018720547,-0.05590238,-0.032257773,-0.037264746,-0.06050002,-0.070527256,-0.030152911,0.15815204,-0.09168114,-0.031302303,-0.098660976,-0.001488881,-0.022632195,-0.06409563,0.04155537,0.037385147,-0.027750732,-0.04073932,0.32266414,0.073790684,0.2293139,-0.014566273,-0.09961562,-0.02592266,-0.20355338,0.20856403,-0.045813736,-0.042437404,-0.05016493,-0.03794857,0.040150475,-0.06323247,-0.05171739,-0.028474957,-0.029456764,-0.005076349,-0.008470122,0.011750531,-0.09067492,-0.09269021,-0.07813291,-0.06550452,0.087943815,-0.16885889,0.012030672,-0.07570567,-0.014634506,0.009914048,-0.094507575,-0.11223868,0.16695227,0.038618278,0.56501365,4
